SVM-light Version V6.01
0 # kernel type
40 # kernel parameter -d
200.0 # kernel parameter -g
3.0 # kernel parameter -s
3.0 # kernel parameter -r
empty# kernel parameter -u
1903 # highest feature index
590 # number of training documents
107 # number of support vectors plus 1
0.43752637046503795 # threshold b, each following line is a SV (starting with alpha*y)
-0.006378048720881163 1:0.005380766000598669 2:0.04097660258412361 3:0.04966861009597778 4:0.0455295592546463 5:0.020281348377466202 6:0.016970109194517136 7:0.0 8:0.02317868545651436 9:0.01862572878599167 10:0.06663871556520462 11:0.037665363401174545 12:0.031042881309986115 13:0.06291357427835464 14:0.033112406730651855 15:0.06912215054035187 16:0.11754904687404633 17:0.021109160035848618 18:0.00745029142126441 19:0.001241715275682509 20:0.08278101682662964 21:0.07698634266853333 22:0.01614229753613472 23:0.012003247626125813 24:0.012831057421863079 25:0.009933722205460072 26:0.07326120138168335 27:0.01158934272825718 28:0.009933722205460072 29:0.0 30:1.0 31:0.0 32:0.0 33:0.09354254603385925 34:0.008278101682662964 35:0.0 36:0.07781415432691574 37:0.002069525420665741 38:0.011175436899065971 39:0.0 40:0.006208576261997223 41:0.001241715275682509 42:1.0 43:8.27810144983232E-4 44:0.02317868545651436 45:0.004966861102730036 46:0.002069525420665741 47:0.0 48:0.0 49:1.0 50:1.0 51:0.035595837980508804 52:0.007036386523395777 53:1.0 54:0.011175436899065971 55:0.001655620289966464 56:0.14486677944660187 57:0.001241715275682509 58:8.27810144983232E-4 59:0.0 60:0.0 61:0.012417152523994446 62:0.005380766000598669 63:0.03683755174279213 64:0.002897335682064295 65:0.0 66:0.0 67:0.0 68:0.0 69:0.0 70:0.001241715275682509 71:1.0 72:0.12417152523994446 73:8.27810144983232E-4 74:0.0 75:1.0 76:0.0 77:0.026489924639463425 78:0.0 79:0.002897335682064295 80:0.0 81:0.10430408269166946 82:0.003311240579932928 83:0.0 84:0.0 85:0.0 86:0.001655620289966464 87:0.002897335682064295 88:0.0 89:0.01862572878599167 90:1.0 91:0.051324229687452316 92:0.0 93:0.001241715275682509 94:8.27810144983232E-4 95:0.09023130685091019 96:0.007036386523395777 97:0.004552955739200115 98:1.0 99:0.010761532001197338 100:0.021523064002394676 101:0.002483430551365018 102:0.003725145710632205 103:0.003311240579932928 104:0.008692006580531597 105:0.026489924639463425 106:0.003311240579932928 107:0.0 108:0.00745029142126441 109:0.006208576261997223 110:0.0 111:0.02980116568505764 112:0.0 113:0.004966861102730036 114:0.011175436899065971 115:0.016556203365325928 116:0.006622481159865856 117:0.014486677944660187 118:0.007036386523395777 119:0.007036386523395777 120:0.02317868545651436 121:0.02317868545651436 122:0.05504937469959259 123:0.0 124:0.0 125:0.0 126:0.0 127:0.001241715275682509 128:0.0 129:0.030215071514248848 130:0.003311240579932928 131:0.0 132:0.003725145710632205 133:0.001655620289966464 134:0.003725145710632205 135:0.0 136:0.003725145710632205 137:0.001241715275682509 138:0.00579467136412859 139:0.002897335682064295 140:0.00786419678479433 141:0.004552955739200115 142:0.04139050841331482 143:0.02980116568505764 144:0.006208576261997223 145:0.004139050841331482 146:0.009519817307591438 147:0.002483430551365018 148:0.003311240579932928 149:0.0 150:0.0 151:8.27810144983232E-4 152:0.011175436899065971 153:0.010761532001197338 154:0.004139050841331482 155:0.002069525420665741 156:0.002483430551365018 157:8.27810144983232E-4 158:0.0 159:0.0 160:0.0 161:1.0 162:0.001241715275682509 163:0.003311240579932928 164:1.0 165:0.0 166:0.002897335682064295 167:0.004552955739200115 168:0.001655620289966464 169:0.0 170:1.0 171:8.27810144983232E-4 172:0.008692006580531597 173:0.0 174:1.0 175:0.0 176:0.010347627103328705 177:0.002897335682064295 178:1.0 179:0.0 180:0.009519817307591438 181:0.0 182:1.0 183:0.0 184:0.023592589423060417 185:0.002069525420665741 186:0.00786419678479433 187:0.008692006580531597 188:0.0 189:1.0 190:0.0 191:8.27810144983232E-4 192:0.07119167596101761 193:0.02980116568505764 194:0.016556203365325928 195:0.010347627103328705 196:0.0 197:0.0 198:0.03187069296836853 199:0.0 200:0.0 201:0.001655620289966464 202:8.27810144983232E-4 203:0.0 204:0.004552955739200115 205:0.002483430551365018 206:0.003311240579932928 207:0.03228459507226944 208:0.0 209:0.0 210:1.0 211:0.0 212:0.002897335682064295 213:0.0 214:0.0 215:0.002069525420665741 216:0.004552955739200115 217:1.0 218:1.0 219:0.04801299050450325 220:0.03932098299264908 221:8.27810144983232E-4 222:0.0 223:1.0 224:0.0 225:0.0 226:0.0 227:1.0 228:0.0 229:1.0 230:0.0 231:8.27810144983232E-4 232:1.0 233:0.001655620289966464 234:0.001655620289966464 235:1.0 236:1.0 237:0.009519817307591438 238:0.0 239:0.04842689633369446 240:0.001241715275682509 241:0.010761532001197338 242:0.02069525420665741 243:0.051738135516643524 244:0.025662114843726158 245:0.002483430551365018 246:0.019039634615182877 247:0.026076020672917366 248:0.002069525420665741 249:0.004552955739200115 250:0.002069525420665741 251:1.0 252:0.003311240579932928 253:0.002897335682064295 254:0.001655620289966464 255:0.004966861102730036 256:1.0 257:0.035181932151317596 258:0.0 259:0.03269850090146065 260:0.0 261:0.0 262:0.004139050841331482 263:0.00910591147840023 264:0.010347627103328705 265:0.04097660258412361 266:0.0 267:0.003725145710632205 268:1.0 269:0.003725145710632205 270:0.028559450060129166 271:0.002897335682064295 272:0.002069525420665741 273:0.008278101682662964 274:0.00910591147840023 275:0.06498309969902039 276:0.004139050841331482 277:0.16804546117782593 278:0.001655620289966464 279:0.001241715275682509 280:0.024006495252251625 281:0.001655620289966464 282:0.002069525420665741 283:0.001241715275682509 284:0.0 285:0.009519817307591438 286:0.0 287:0.1009928435087204 288:0.004139050841331482 289:0.006622481159865856 290:0.010761532001197338 291:0.004139050841331482 292:0.012417152523994446 293:0.16597594320774078 294:0.03807926923036575 295:0.003725145710632205 296:8.27810144983232E-4 297:0.004966861102730036 298:0.002069525420665741 299:0.013244962319731712 300:0.019039634615182877 301:0.02276477962732315 302:0.0277316402643919 303:0.012003247626125813 304:0.020281348377466202 305:0.005380766000598669 306:0.00579467136412859 307:0.009933722205460072 308:0.010347627103328705 309:0.02483430504798889 310:0.040562696754932404 311:1.0 312:0.019867444410920143 313:0.017384013161063194 314:0.028145546093583107 315:0.001655620289966464 316:0.014072773046791553 317:0.01490058284252882 318:0.021523064002394676 319:0.001241715275682509 320:8.27810144983232E-4 321:0.003725145710632205 322:1.0 323:0.001655620289966464 324:0.004139050841331482 325:0.026076020672917366 326:0.0 327:0.0 328:0.0 329:0.0 330:0.002897335682064295 331:0.0 332:0.003725145710632205 333:0.0 334:0.004139050841331482 335:0.0 336:0.003311240579932928 337:0.0 338:0.001241715275682509 339:0.004966861102730036 340:0.0 341:0.014486677944660187 342:0.019039634615182877 343:0.008278101682662964 344:0.010761532001197338 345:0.001241715275682509 346:0.004552955739200115 347:8.27810144983232E-4 348:0.0 349:0.04884079843759537 350:0.008278101682662964 351:0.00745029142126441 352:0.005380766000598669 353:0.03435412049293518 354:0.006622481159865856 355:0.016556203365325928 356:0.03187069296836853 357:0.019453538581728935 358:0.002069525420665741 359:0.02069525420665741 360:0.0 361:0.009933722205460072 362:0.0 363:1.0 364:0.0 365:0.0 366:0.002897335682064295 367:0.0 368:0.0 369:0.0 370:0.010347627103328705 371:1.0 372:1.0 373:0.003725145710632205 374:0.0 375:0.007036386523395777 376:0.002897335682064295 377:8.27810144983232E-4 378:0.001655620289966464 379:0.0 380:0.00910591147840023 381:0.001241715275682509 382:0.0 383:1.0 384:0.004966861102730036 385:1.0 386:0.001241715275682509 387:0.0 388:0.014072773046791553 389:0.001241715275682509 390:0.0 391:8.27810144983232E-4 392:1.0 393:0.0 394:1.0 395:1.0 396:0.003311240579932928 397:0.004139050841331482 398:0.002483430551365018 399:0.001241715275682509 400:0.001655620289966464 401:0.0 402:0.002069525420665741 403:0.005380766000598669 404:0.002069525420665741 405:0.007036386523395777 406:0.001241715275682509 407:0.0 408:8.27810144983232E-4 409:0.002069525420665741 410:0.003311240579932928 411:0.002069525420665741 412:0.005380766000598669 413:0.004139050841331482 414:0.003311240579932928 415:0.010347627103328705 416:0.0 417:8.27810144983232E-4 418:0.002897335682064295 419:0.003311240579932928 420:0.0 421:0.0 422:1.0 423:0.001241715275682509 424:0.0 425:0.0 426:8.27810144983232E-4 427:0.004139050841331482 428:0.001655620289966464 429:0.004552955739200115 430:8.27810144983232E-4 431:0.001241715275682509 432:0.0 433:0.001241715275682509 434:0.024420399218797684 435:0.001241715275682509 436:0.001655620289966464 437:0.0 438:0.0 439:1.0 440:0.0 441:8.27810144983232E-4 442:0.03725145757198334 443:0.015314487740397453 444:0.021936969831585884 445:0.02317868545651436 446:0.014486677944660187 447:0.03269850090146065 448:0.005380766000598669 449:0.0 450:0.011175436899065971 451:0.023592589423060417 452:0.003725145710632205 453:0.002069525420665741 454:0.001241715275682509 455:0.014072773046791553 456:0.012003247626125813 457:0.042632222175598145 458:1.0 459:1.0 460:0.004966861102730036 461:0.001655620289966464 462:0.007036386523395777 463:1.0 464:8.27810144983232E-4 465:0.0 466:0.0 467:0.005380766000598669 468:1.0 469:0.0 470:0.0 471:8.27810144983232E-4 472:1.0 473:0.0 474:0.0 475:0.002483430551365018 476:0.08029758930206299 477:0.001241715275682509 478:8.27810144983232E-4 479:1.0 480:0.001655620289966464 481:0.0 482:1.0 483:0.001655620289966464 484:0.0 485:1.0 486:0.0 487:0.03642364591360092 488:1.0 489:0.040562696754932404 490:0.060844048857688904 491:0.00579467136412859 492:0.0 493:8.27810144983232E-4 494:1.0 495:0.002897335682064295 496:0.001655620289966464 497:0.05877452343702316 498:0.001241715275682509 499:0.014486677944660187 500:0.00745029142126441 501:0.006622481159865856 502:0.11465170979499817 503:0.002897335682064295 504:0.001241715275682509 505:0.035595837980508804 506:1.0 507:1.0 508:0.001241715275682509 509:0.001655620289966464 510:0.002069525420665741 511:0.003725145710632205 512:0.002483430551365018 513:0.004552955739200115 514:0.003311240579932928 515:0.002897335682064295 516:0.002069525420665741 517:0.0 518:0.0 519:0.001655620289966464 520:1.0 521:0.0 522:8.27810144983232E-4 523:0.007036386523395777 524:0.006208576261997223 525:0.0 526:0.010347627103328705 527:0.001241715275682509 528:0.060430143028497696 529:8.27810144983232E-4 530:0.001241715275682509 531:0.0 532:0.00745029142126441 533:0.07491681724786758 534:0.0 535:0.002483430551365018 536:1.0 537:0.004552955739200115 538:8.27810144983232E-4 539:0.003311240579932928 540:0.004139050841331482 541:0.002069525420665741 542:0.003311240579932928 543:1.0 544:8.27810144983232E-4 545:1.0 546:0.001241715275682509 547:0.002897335682064295 548:0.0 549:0.010761532001197338 550:8.27810144983232E-4 551:1.0 552:0.0 553:1.0 554:1.0 555:0.00745029142126441 556:0.008278101682662964 557:8.27810144983232E-4 558:0.08816178143024445 559:0.001655620289966464 560:0.0 561:0.008692006580531597 562:0.012417152523994446 563:0.01862572878599167 564:0.02317868545651436 565:0.05918842554092407 566:0.025662114843726158 567:0.01821182295680046 568:0.0 569:0.0 570:8.27810144983232E-4 571:0.0 572:0.0 573:0.003725145710632205 574:1.0 575:0.0 576:8.27810144983232E-4 577:0.0 578:0.001241715275682509 579:1.0 580:1.0 581:0.0 582:1.0 583:0.0504964217543602 584:1.0 585:0.001241715275682509 586:8.27810144983232E-4 587:0.002483430551365018 588:1.0 589:0.08898959308862686 590:8.27810144983232E-4 591:0.01158934272825718 592:0.011175436899065971 593:1.0 594:8.27810144983232E-4 595:0.03890707716345787 596:0.010347627103328705 597:1.0 598:0.0 599:8.27810144983232E-4 600:0.004966861102730036 601:0.0 602:0.003311240579932928 603:0.0 604:0.019453538581728935 605:0.0 606:0.013244962319731712 607:0.004552955739200115 608:1.0 609:8.27810144983232E-4 610:0.001655620289966464 611:0.0 612:0.0 613:0.005380766000598669 614:1.0 615:0.0 616:0.0 617:1.0 618:0.019039634615182877 619:0.001241715275682509 620:8.27810144983232E-4 621:0.0 622:1.0 623:1.0 624:0.001655620289966464 625:0.0 626:0.0 627:0.0 628:1.0 629:0.001655620289966464 630:8.27810144983232E-4 631:0.0 632:1.0 633:1.0 634:0.002069525420665741 635:0.0 636:0.0 637:8.27810144983232E-4 638:0.0 639:0.003725145710632205 640:0.006622481159865856 641:0.0 642:0.001655620289966464 643:0.0 644:0.0 645:8.27810144983232E-4 646:0.0 647:0.001241715275682509 648:0.001241715275682509 649:0.006622481159865856 650:0.024420399218797684 651:0.021523064002394676 652:0.04346003383398056 653:0.016970109194517136 654:0.060430143028497696 655:0.021523064002394676 656:0.0 657:0.002897335682064295 658:0.005380766000598669 659:0.002069525420665741 660:0.006622481159865856 661:0.01572839356958866 662:0.010347627103328705 663:1.0 664:0.002069525420665741 665:0.0 666:0.03269850090146065 667:0.001241715275682509 668:0.0 669:0.001241715275682509 670:0.06208576261997223 671:0.0 672:0.010761532001197338 673:0.019039634615182877 674:0.0 675:1.0 676:0.0 677:8.27810144983232E-4 678:0.0 679:0.002483430551365018 680:0.0 681:0.003311240579932928 682:0.0 683:0.003725145710632205 684:0.004966861102730036 685:0.011175436899065971 686:0.019039634615182877 687:0.021523064002394676 688:0.0 689:0.005380766000598669 690:0.002897335682064295 691:0.04594346508383751 692:0.002069525420665741 693:0.0 694:0.0 695:1.0 696:1.0 697:0.002069525420665741 698:1.0 699:0.0 700:0.004966861102730036 701:0.006208576261997223 702:0.001241715275682509 703:0.002069525420665741 704:0.022350873798131943 705:0.00745029142126441 706:0.007036386523395777 707:0.025662114843726158 708:0.004966861102730036 709:0.0 710:0.001241715275682509 711:0.001241715275682509 712:1.0 713:0.0 714:0.0 715:1.0 716:0.0 717:0.006622481159865856 718:0.0 719:0.0 720:8.27810144983232E-4 721:0.05463547259569168 722:0.0 723:0.0 724:0.0 725:0.001241715275682509 726:0.0 727:1.0 728:0.002483430551365018 729:8.27810144983232E-4 730:0.001241715275682509 731:0.001655620289966464 732:0.002069525420665741 733:0.0 734:0.003311240579932928 735:0.001241715275682509 736:0.0 737:0.0 738:0.003725145710632205 739:0.0 740:0.0 741:8.27810144983232E-4 742:0.0 743:0.001241715275682509 744:0.001655620289966464 745:0.002069525420665741 746:0.002483430551365018 747:0.002483430551365018 748:1.0 749:0.002897335682064295 750:0.0 751:0.0 752:0.001655620289966464 753:0.0 754:0.0 755:0.0 756:1.0 757:8.27810144983232E-4 758:8.27810144983232E-4 759:0.0 760:0.006208576261997223 761:0.010761532001197338 762:0.002069525420665741 763:0.003725145710632205 764:0.003725145710632205 765:0.006208576261997223 766:0.003311240579932928 767:0.015314487740397453 768:1.0 769:0.0 770:0.002069525420665741 771:0.004966861102730036 772:0.008278101682662964 773:0.004966861102730036 774:0.009933722205460072 775:0.0 776:8.27810144983232E-4 777:1.0 778:0.002897335682064295 779:0.0 780:0.017797918990254402 781:0.001655620289966464 782:0.005380766000598669 783:0.07740025222301483 784:0.004966861102730036 785:0.016556203365325928 786:0.002897335682064295 787:0.002897335682064295 788:0.001655620289966464 789:0.002069525420665741 790:0.00745029142126441 791:0.002483430551365018 792:0.00745029142126441 793:0.003725145710632205 794:1.0 795:0.008692006580531597 796:0.11547952145338058 797:0.004552955739200115 798:0.0 799:0.00579467136412859 800:0.002483430551365018 801:0.019867444410920143 802:1.0 803:0.0 804:1.0 805:0.002483430551365018 806:0.0 807:0.0 808:0.001655620289966464 809:0.011175436899065971 810:0.002897335682064295 811:0.07450291514396667 812:0.003725145710632205 813:0.002069525420665741 814:0.004966861102730036 815:0.012831057421863079 816:0.004552955739200115 817:0.004966861102730036 818:0.003311240579932928 819:0.002069525420665741 820:0.008278101682662964 821:0.002483430551365018 822:0.007036386523395777 823:0.035595837980508804 824:0.010761532001197338 825:0.16059517860412598 826:0.004552955739200115 827:1.0 828:0.0 829:0.006622481159865856 830:0.03352631255984306 831:1.0 832:0.0 833:0.001241715275682509 834:0.001655620289966464 835:0.0 836:0.18998242914676666 837:0.002483430551365018 838:0.12003247439861298 839:0.0 840:0.0 841:8.27810144983232E-4 842:0.002483430551365018 843:8.27810144983232E-4 844:0.003725145710632205 845:1.0 846:0.004966861102730036 847:0.001655620289966464 848:0.00786419678479433 849:0.01158934272825718 850:0.014072773046791553 851:0.004552955739200115 852:1.0 853:0.012417152523994446 854:0.003725145710632205 855:0.006622481159865856 856:1.0 857:0.002897335682064295 858:0.002897335682064295 859:1.0 860:0.02069525420665741 861:0.004966861102730036 862:0.05794671177864075 863:0.002483430551365018 864:0.1063736081123352 865:0.009519817307591438 866:0.005380766000598669 867:0.01365886814892292 868:0.008278101682662964 869:0.001655620289966464 870:0.002897335682064295 871:0.007036386523395777 872:0.003725145710632205 873:0.017384013161063194 874:0.00579467136412859 875:0.05918842554092407 876:0.033112406730651855 877:0.04180441424250603 878:0.0 879:0.053807660937309265 880:0.04511565342545509 881:0.001241715275682509 882:0.05504937469959259 883:0.0277316402643919 884:1.0 885:0.09933722019195557 886:0.009933722205460072 887:0.02069525420665741 888:8.27810144983232E-4 889:0.04304612800478935 890:0.044701747596263885 891:0.009933722205460072 892:0.026076020672917366 893:0.04801299050450325 894:0.001655620289966464 895:0.0 896:0.002483430551365018 897:0.008278101682662964 898:1.0 899:0.001655620289966464 900:8.27810144983232E-4 901:0.006208576261997223 902:0.010347627103328705 903:0.01365886814892292 904:1.0 905:0.1821182370185852 906:0.002483430551365018 907:8.27810144983232E-4 908:0.1713567078113556 909:0.003311240579932928 910:0.022350873798131943 911:0.002483430551365018 912:1.0 913:0.033112406730651855 914:0.00786419678479433 915:0.003311240579932928 916:1.0 917:1.0 918:0.0 919:0.0 920:0.019039634615182877 921:0.0504964217543602 922:0.002483430551365018 923:0.0 924:0.001241715275682509 925:0.0 926:0.010347627103328705 927:0.0 928:0.015314487740397453 929:0.0 930:0.0 931:0.0 932:8.27810144983232E-4 933:1.0 934:0.0 935:8.27810144983232E-4 936:1.0 937:0.002897335682064295 938:8.27810144983232E-4 939:0.14859192073345184 940:0.00745029142126441 941:1.0 942:0.0 943:0.0 944:0.023592589423060417 945:0.0 946:0.0 947:0.002897335682064295 948:0.012417152523994446 949:0.035181932151317596 950:0.00579467136412859 951:0.008278101682662964 952:1.0 953:0.13741648197174072 954:0.11340999603271484 955:0.0 956:0.08526444435119629 957:0.0 958:0.030215071514248848 959:0.012003247626125813 960:0.002483430551365018 961:0.00910591147840023 962:0.08402273058891296 963:0.06705262511968613 964:0.05877452343702316 965:0.09230083227157593 966:0.0554632805287838 967:1.0 968:0.035181932151317596 969:0.0 970:0.0252482108771801 971:0.0 972:0.03932098299264908 973:0.0 974:0.12210199981927872 975:0.16059517860412598 976:0.09726769477128983 977:0.07822806388139725 978:0.0 979:1.0 980:0.002069525420665741 981:0.06415528804063797 982:1.0 983:0.10927094519138336 984:0.006622481159865856 985:1.0 986:1.0 987:0.004139050841331482 988:0.016556203365325928 989:0.015314487740397453 990:1.0 991:0.04139050841331482 992:0.1970188170671463 993:0.0761585384607315 994:8.27810144983232E-4 995:0.00579467136412859 996:8.27810144983232E-4 997:0.0 998:1.0 999:0.006208576261997223 1000:0.001655620289966464 1001:0.00579467136412859 1002:0.0 1003:0.005380766000598669 1004:0.011175436899065971 1005:0.001241715275682509 1006:0.004139050841331482 1007:0.16970108449459076 1008:0.001655620289966464 1009:0.021936969831585884 1010:1.0 1011:0.0 1012:0.004552955739200115 1013:8.27810144983232E-4 1014:1.0 1015:1.0 1016:0.028973355889320374 1017:0.002897335682064295 1018:0.01158934272825718 1019:0.00579467136412859 1020:0.014072773046791553 1021:0.06167185679078102 1022:0.014486677944660187 1023:0.010761532001197338 1024:0.0 1025:0.001241715275682509 1026:0.009519817307591438 1027:1.0 1028:8.27810144983232E-4 1029:0.001241715275682509 1030:0.001241715275682509 1031:0.004139050841331482 1032:0.11961857229471207 1033:0.017797918990254402 1034:0.001241715275682509 1035:0.001655620289966464 1036:1.0 1037:1.0 1038:0.02938726171851158 1039:0.011175436899065971 1040:0.0 1041:1.0 1042:1.0 1043:0.006208576261997223 1044:0.00745029142126441 1045:8.27810144983232E-4 1046:0.07326120138168335 1047:0.006622481159865856 1048:0.0 1049:0.004552955739200115 1050:0.00786419678479433 1051:0.001241715275682509 1052:0.00910591147840023 1053:0.006622481159865856 1054:0.001655620289966464 1055:0.0 1056:0.01365886814892292 1057:0.004139050841331482 1058:0.002483430551365018 1059:0.025662114843726158 1060:0.0 1061:0.14859192073345184 1062:0.009519817307591438 1063:0.0 1064:0.037665363401174545 1065:0.02731773629784584 1066:0.012417152523994446 1067:0.00786419678479433 1068:8.27810144983232E-4 1069:1.0 1070:0.002897335682064295 1071:8.27810144983232E-4 1072:0.0 1073:0.024420399218797684 1074:0.05711890012025833 1075:0.004139050841331482 1076:0.026903830468654633 1077:0.005380766000598669 1078:8.27810144983232E-4 1079:0.0 1080:0.0 1081:8.27810144983232E-4 1082:1.0 1083:0.0 1084:0.0 1085:0.021523064002394676 1086:0.006622481159865856 1087:0.044287845492362976 1088:0.008278101682662964 1089:1.0 1090:0.002897335682064295 1091:8.27810144983232E-4 1092:0.0 1093:0.0 1094:0.0 1095:0.0 1096:1.0 1097:0.0277316402643919 1098:0.0 1099:0.004966861102730036 1100:0.004552955739200115 1101:0.0 1102:0.11175437271595001 1103:0.0 1104:0.0 1105:8.27810144983232E-4 1106:0.0 1107:0.0 1108:0.04966861009597778 1109:0.0 1110:0.004552955739200115 1111:0.0 1112:0.04180441424250603 1113:0.017797918990254402 1114:0.05422156676650047 1115:0.00745029142126441 1116:0.03269850090146065 1117:0.10554579645395279 1118:0.039734888821840286 1119:0.051738135516643524 1120:0.1258271485567093 1121:0.02980116568505764 1122:0.03394021838903427 1123:0.023592589423060417 1124:0.0761585384607315 1125:0.0807114914059639 1126:0.06249966844916344 1127:0.021523064002394676 1128:0.002483430551365018 1129:0.019867444410920143 1130:0.004966861102730036 1131:0.09892331808805466 1132:0.06663871556520462 1133:0.00786419678479433 1134:0.058360617607831955 1135:0.009933722205460072 1136:0.01862572878599167 1137:0.00745029142126441 1138:0.021936969831585884 1139:0.002069525420665741 1140:0.002483430551365018 1141:0.004966861102730036 1142:0.003311240579932928 1143:1.0 1144:0.0 1145:0.0 1146:0.011175436899065971 1147:0.005380766000598669 1148:0.002069525420665741 1149:0.002483430551365018 1150:8.27810144983232E-4 1151:0.01572839356958866 1152:0.019039634615182877 1153:0.006622481159865856 1154:0.003725145710632205 1155:0.06332747638225555 1156:0.01862572878599167 1157:0.006208576261997223 1158:0.02731773629784584 1159:0.008692006580531597 1160:0.05711890012025833 1161:0.01365886814892292 1162:8.27810144983232E-4 1163:0.0 1164:8.27810144983232E-4 1165:0.006208576261997223 1166:0.0 1167:1.0 1168:8.27810144983232E-4 1169:1.0 1170:0.003725145710632205 1171:0.0 1172:1.0 1173:0.002483430551365018 1174:0.02069525420665741 1175:0.003311240579932928 1176:0.00786419678479433 1177:1.0 1178:0.06415528804063797 1179:0.002897335682064295 1180:0.00910591147840023 1181:0.004552955739200115 1182:0.00786419678479433 1183:0.002069525420665741 1184:0.0 1185:1.0 1186:0.05960233137011528 1187:0.006622481159865856 1188:0.0 1189:0.0 1190:0.020281348377466202 1191:0.0 1192:0.0 1193:0.0 1194:0.0 1195:8.27810144983232E-4 1196:0.01158934272825718 1197:0.01572839356958866 1198:0.0277316402643919 1199:0.001241715275682509 1200:0.024420399218797684 1201:8.27810144983232E-4 1202:0.002483430551365018 1203:0.06374138593673706 1204:8.27810144983232E-4 1205:0.002483430551365018 1206:1.0 1207:0.004966861102730036 1208:0.0 1209:0.002897335682064295 1210:0.001241715275682509 1211:8.27810144983232E-4 1212:1.0 1213:0.016970109194517136 1214:0.001241715275682509 1215:0.001655620289966464 1216:0.001241715275682509 1217:0.0 1218:0.0 1219:0.0 1220:1.0 1221:0.0 1222:0.0 1223:0.0 1224:0.0 1225:0.0 1226:0.0 1227:0.0 1228:0.0 1229:0.0 1230:0.0 1231:0.0 1232:0.0 1233:0.0 1234:0.0 1235:0.0 1236:1.0 1237:1.0 1238:0.0 1239:0.0 1240:1.0 1241:0.0 1242:0.0 1243:0.0 1244:0.0 1245:0.0 1246:0.0 1247:0.0 1248:0.0 1249:0.0 1250:0.0 1251:0.0 1252:0.0 1253:0.0 1254:0.0 1255:0.0 1256:0.0 1257:0.0 1258:0.0 1259:1.0 1260:1.0 1261:1.0 1262:0.0 1263:0.0 1264:1.0 1265:0.0 1266:0.0 1267:0.0 1268:1.0 1269:0.0 1270:0.0 1271:0.0 1272:1.0 1273:0.0 1274:0.0 1275:0.001655620289966464 1276:0.001241715275682509 1277:1.0 1278:0.0 1279:0.0 1280:0.0 1281:0.0 1282:0.0 1283:8.27810144983232E-4 1284:0.0 1285:0.0 1286:0.0 1287:0.0 1288:0.0 1289:0.0 1290:0.0 1291:1.0 1292:0.0 1293:1.0 1294:0.0 1295:1.0 1296:0.0 1297:0.0 1298:0.0 1299:0.0 1300:0.0 1301:0.0 1302:0.0 1303:0.0 1304:0.0 1305:0.0 1306:8.27810144983232E-4 1307:0.0 1308:0.0 1309:0.0 1310:0.0 1311:0.0 1312:0.0 1313:0.0 1314:0.0 1315:0.0 1316:0.0 1317:0.0 1318:0.0 1319:0.0 1320:0.0 1321:0.0 1322:0.0 1323:0.0 1324:0.0 1325:0.0 1326:0.002483430551365018 1327:0.0 1328:0.0 1329:0.0 1330:0.0 1331:0.0 1332:0.0 1333:0.0 1334:0.0 1335:0.0 1336:0.0 1337:0.0 1338:0.0 1339:0.0 1340:0.0 1341:0.0 1342:0.0 1343:1.0 1344:0.0 1345:0.0 1346:1.0 1347:0.0 1348:0.0 1349:0.0 1350:0.0 1351:0.0 1352:0.0 1353:0.0 1354:0.0 1355:0.0 1356:0.0 1357:0.0 1358:0.0 1359:0.0 1360:0.0 1361:0.0 1362:0.0 1363:0.0 1364:0.0 1365:0.0 1366:0.0 1367:0.0 1368:0.0 1369:0.0 1370:0.0 1371:0.0 1372:0.0 1373:0.0 1374:0.0 1375:0.0 1376:0.0 1377:0.0 1378:0.0 1379:0.0 1380:0.0 1381:0.0 1382:0.0 1383:0.0 1384:0.0 1385:0.0 1386:0.0 1387:0.0 1388:0.0 1389:0.0 1390:0.0 1391:0.0 1392:0.0 1393:0.0 1394:0.0 1395:0.0 1396:0.0 1397:0.0 1398:0.0 1399:0.0 1400:0.0 1401:0.0 1402:0.0 1403:0.0 1404:0.0 1405:0.0 1406:0.0 1407:0.0 1408:0.0 1409:0.0 1410:0.0 1411:0.0 1412:0.0 1413:0.0 1414:0.0 1415:0.0 1416:0.0 1417:0.0 1418:0.0 1419:0.0 1420:0.0 1421:0.0 1422:0.0 1423:0.0 1424:0.0 1425:0.0 1426:0.0 1427:0.0 1428:0.0 1429:0.0 1430:0.0 1431:1.0 1432:0.0 1433:0.0 1434:0.0 1435:0.0 1436:0.0 1437:0.0 1438:0.0 1439:0.0 1440:0.0 1441:0.0 1442:0.0 1443:0.0 1444:0.0 1445:0.0 1446:0.0 1447:0.0 1448:0.002483430551365018 1449:0.0 1450:0.0 1451:0.0 1452:1.0 1453:0.0 1454:0.0 1455:0.0 1456:0.0 1457:0.0 1458:0.0 1459:0.0 1460:0.0 1461:0.0 1462:0.0 1463:0.0 1464:0.0 1465:0.0 1466:0.0 1467:0.0 1468:0.0 1469:0.0 1470:0.0 1471:0.0 1472:0.0 1473:0.0 1474:0.0 1475:1.0 1476:0.0 1477:0.0 1478:0.0 1479:0.0 1480:0.0 1481:0.0 1482:0.0 1483:0.0 1484:0.0 1485:0.0 1486:0.0 1487:0.0 1488:0.0 1489:0.0 1490:0.0 1491:0.0 1492:0.0 1493:0.0 1494:0.0 1495:0.0 1496:0.0 1497:0.0 1498:0.0 1499:0.0 1500:0.0 1501:0.0 1502:0.0 1503:0.0 1504:0.0 1505:0.0 1506:0.0 1507:0.0 1508:0.0 1509:0.0 1510:0.0 1511:0.0 1512:0.0 1513:0.0 1514:0.0 1515:0.0 1516:0.0 1517:0.0 1518:0.0 1519:0.0 1520:0.0 1521:0.0 1522:0.0 1523:0.0 1524:0.0 1525:0.0 1526:0.0 1527:0.0 1528:0.0 1529:0.0 1530:0.0 1531:0.0 1532:0.0 1533:0.0 1534:0.0 1535:0.0 1536:0.0 1537:0.0 1538:0.0 1539:0.0 1540:0.0 1541:0.0 1542:0.0 1543:0.0 1544:0.0 1545:0.0 1546:0.0 1547:0.0 1548:0.0 1549:0.0 1550:0.0 1551:0.0 1552:0.0 1553:0.0 1554:0.0 1555:0.0 1556:0.0 1557:0.0 1558:0.0 1559:0.0 1560:0.0 1561:0.0 1562:0.0 1563:0.0 1564:0.0 1565:0.0 1566:0.0 1567:0.0 1568:0.0 1569:0.0 1570:0.0 1571:0.0 1572:0.0 1573:0.0 1574:0.0 1575:0.0 1576:0.0 1577:0.0 1578:0.0 1579:1.0 1580:0.0 1581:0.0 1582:0.0 1583:0.0 1584:0.0 1585:0.0 1586:0.0 1587:0.0 1588:0.0 1589:0.0 1590:0.0 1591:0.0 1592:1.0 1593:1.0 1594:1.0 1595:0.0 1596:0.0 1597:0.0 1598:0.0 1599:0.0 1600:0.0 1601:0.0 1602:0.0 1603:0.0 1604:0.0 1605:0.0 1606:0.0 1607:0.0 1608:0.0 1609:0.0 1610:0.0 1611:0.0 1612:0.0 1613:0.0 1614:0.0 1615:0.0 1616:0.0 1617:0.0 1618:0.0 1619:0.0 1620:0.0 1621:0.0 1622:0.0 1623:0.0 1624:0.0 1625:0.0 1626:0.0 1627:0.0 1628:0.0 1629:0.0 1630:0.0 1631:0.0 1632:0.0 1633:0.0 1634:0.0 1635:0.0 1636:0.0 1637:0.0 1638:0.0 1639:0.0 1640:0.0 1641:0.0 1642:0.0 1643:0.0 1644:0.0 1645:0.0 1646:0.0 1647:0.0 1648:0.0 1649:0.0 1650:0.0 1651:0.0 1652:0.0 1653:0.0 1654:0.0 1655:0.0 1656:0.0 1657:0.0 1658:0.0 1659:0.0 1660:0.0 1661:0.0 1662:0.0 1663:0.0 1664:0.0 1665:0.0 1666:0.0 1667:0.0 1668:0.0 1669:0.0 1670:0.0 1671:0.0 1672:0.0 1673:0.0 1674:0.0 1675:0.0 1676:0.0 1677:0.0 1678:0.0 1679:0.0 1680:0.0 1681:0.0 1682:0.0 1683:0.0 1684:0.0 1685:0.0 1686:0.0 1687:0.0 1688:0.0 1689:0.0 1690:0.0 1691:0.0 1692:0.0 1693:0.0 1694:0.0 1695:0.0 1696:0.0 1697:0.0 1698:0.0 1699:0.0 1700:0.0 1701:0.0 1702:0.0 1703:0.0 1704:0.0 1705:0.0 1706:0.0 1707:0.0 1708:0.0 1709:0.0 1710:0.0 1711:0.0 1712:0.0 1713:0.0 1714:0.0 1715:0.0 1716:0.0 1717:0.0 1718:0.0 1719:0.0 1720:0.0 1721:0.0 1722:0.0 1723:0.0 1724:0.0 1725:0.0 1726:0.0 1727:0.0 1728:0.0 1729:0.0 1730:0.0 1731:0.0 1732:0.0 1733:0.0 1734:0.0 1735:0.0 1736:0.0 1737:0.0 1738:0.0 1739:0.0 1740:0.0 1741:0.0 1742:0.0 1743:0.0 1744:0.0 1745:0.0 1746:0.0 1747:0.0 1748:0.0 1749:0.0 1750:0.0 1751:0.0 1752:0.0 1753:0.0 1754:0.0 1755:0.0 1756:0.0 1757:0.0 1758:0.0 1759:0.0 1760:0.0 1761:0.0 1762:0.0 1763:0.0 1764:0.0 1765:0.0 1766:0.0 1767:0.0 1768:0.0 1769:0.0 1770:0.0 1771:0.0 1772:0.0 1773:0.0 1774:0.0 1775:0.0 1776:0.0 1777:0.0 1778:0.0 1779:0.0 1780:0.0 1781:0.0 1782:0.0 1783:0.0 1784:0.0 1785:0.0 1786:0.0 1787:0.0 1788:0.0 1789:0.0 1790:0.0 1791:0.0 1792:0.0 1793:0.0 1794:0.0 1795:0.0 1796:0.0 1797:0.0 1798:0.0 1799:0.0 1800:0.0 1801:0.0 1802:0.0 1803:0.0 1804:0.0 1805:0.0 1806:0.0 1807:0.0 1808:0.0 1809:0.0 1810:0.0 1811:0.0 1812:0.0 1813:0.0 1814:0.0 1815:0.0 1816:0.0 1817:0.0 1818:0.0 1819:0.0 1820:0.0 1821:0.0 1822:0.0 1823:0.0 1824:0.0 1825:0.0 1826:0.0 1827:0.0 1828:0.0 1829:0.0 1830:0.0 1831:0.0 1832:0.0 1833:0.0 1834:0.0 1835:0.0 1836:0.0 1837:0.0 1838:0.0 1839:0.0 1840:0.0 1841:0.0 1842:0.0 1843:0.0 1844:0.0 1845:0.0 1846:0.0 1847:0.0 1848:0.0 1849:0.0 1850:0.0 1851:0.0 1852:0.0 1853:0.0 1854:0.0 1855:0.0 1856:0.0 1857:0.0 1858:0.0 1859:0.0 1860:0.0 1861:0.0 1862:0.0 1863:0.0 1864:0.0 1865:0.0 1866:0.0 1867:0.0 1868:0.0 1869:0.0 1870:0.0 1871:0.0 1872:0.0 1873:0.0 1874:0.0 1875:0.0 1876:0.0 1877:0.0 1878:0.0 1879:0.0 1880:0.0 1881:0.0 1882:0.0 1883:0.0 1884:0.0 1885:0.0 1886:0.0 1887:0.0 1888:0.0 1889:0.0 1890:0.0 1891:0.0 1892:0.0 1893:0.0 1894:0.0 1895:0.0 1896:0.0 1897:0.0 1898:0.0 1899:0.0 1900:0.0 1901:0.0 1902:0.0 1903:0.0
0.007918758393551207 1:0.0030180441681295633 2:0.03891121223568916 3:0.057558413594961166 4:0.04828870669007301 5:0.020479585975408554 6:0.013150050304830074 7:1.0 8:0.039557937532663345 9:0.019401712343096733 10:0.06186990812420845 11:0.057989563792943954 12:0.048612069338560104 13:0.05939079821109772 14:0.0412825345993042 15:0.08191834390163422 16:0.09431388229131699 17:0.01950949989259243 18:0.011102091521024704 19:0.002694682450965047 20:0.07588225603103638 21:0.10153563320636749 22:0.024683291092514992 23:0.018108265474438667 24:0.00991643127053976 25:0.005389364901930094 26:0.0600375235080719 27:0.01088651642203331 28:0.0025868951342999935 29:1.0 30:1.0 31:3.233618917874992E-4 32:1.0 33:0.08978681266307831 34:0.008299621753394604 35:8.622983586974442E-4 36:0.06467237323522568 37:0.0014012347673997283 38:0.02134188450872898 39:2.1557458967436105E-4 40:0.0025868951342999935 41:0.00107787293381989 42:0.0014012347673997283 43:3.233618917874992E-4 44:0.022311970591545105 45:0.004419279284775257 46:0.0054971519857645035 47:0.0012934475671499968 48:3.233618917874992E-4 49:0.0012934475671499968 50:7.545110420323908E-4 51:0.024575503543019295 52:0.013365624472498894 53:1.0 54:0.008191834203898907 55:0.003449193434789777 56:0.1239553913474083 57:0.0011856602504849434 58:1.0 59:5.38936466909945E-4 60:1.0 61:0.01907835155725479 62:0.011209878139197826 63:0.032012827694416046 64:0.00571272661909461 65:1.0 66:1.0 67:1.0 68:1.0 69:3.233618917874992E-4 70:0.0014012347673997283 71:0.0011856602504849434 72:0.1684715449810028 73:8.622983586974442E-4 74:5.38936466909945E-4 75:0.00107787293381989 76:0.0023713205009698868 77:0.020479585975408554 78:1.0 79:0.003449193434789777 80:3.233618917874992E-4 81:0.11015861481428146 82:0.0031258314847946167 83:2.1557458967436105E-4 84:3.233618917874992E-4 85:3.233618917874992E-4 86:5.38936466909945E-4 87:0.0017245967173948884 88:1.0 89:0.029533717781305313 90:8.622983586974442E-4 91:0.06402565538883209 92:4.311491793487221E-4 93:5.38936466909945E-4 94:6.467237835749984E-4 95:0.0901101753115654 96:0.00711396150290966 97:0.00355698075145483 98:2.1557458967436105E-4 99:0.004850428085774183 100:0.02209639549255371 101:0.0030180441681295633 102:0.0025868951342999935 103:0.004527066368609667 104:0.0038803427014499903 105:0.022311970591545105 106:0.00107787293381989 107:5.38936466909945E-4 108:0.00711396150290966 109:0.0046348534524440765 110:3.233618917874992E-4 111:0.02403656579554081 112:3.233618917874992E-4 113:0.04386942833662033 114:0.00646723760291934 115:0.01422792300581932 116:0.015305795706808567 117:0.009808643721044064 118:0.003988130018115044 119:0.00582051370292902 120:0.01756932958960533 121:0.03255176171660423 122:0.05141453817486763 123:1.0 124:1.0 125:1.0 126:1.0 127:3.233618917874992E-4 128:1.0 129:0.025761162862181664 130:0.0015090220840647817 131:1.0 132:0.009485282003879547 133:8.622983586974442E-4 134:0.001616809400729835 135:5.38936466909945E-4 136:0.0033414061181247234 137:6.467237835749984E-4 138:0.003772555384784937 139:0.00431149173527956 140:0.0011856602504849434 141:0.008515195921063423 142:0.036216530948877335 143:0.032443974167108536 144:0.004419279284775257 145:0.005389364901930094 146:0.005173790268599987 147:0.0025868951342999935 148:0.0033414061181247234 149:3.233618917874992E-4 150:2.1557458967436105E-4 151:2.1557458967436105E-4 152:0.01271890103816986 153:0.0077606854028999805 154:0.0012934475671499968 155:0.00215574586763978 156:0.0018323840340599418 157:2.1557458967436105E-4 158:1.0 159:1.0 160:2.1557458967436105E-4 161:6.467237835749984E-4 162:3.233618917874992E-4 163:0.007006173953413963 164:5.38936466909945E-4 165:1.0 166:0.00247910781763494 167:0.00916192028671503 168:0.0015090220840647817 169:0.0015090220840647817 170:3.233618917874992E-4 171:2.1557458967436105E-4 172:0.01422792300581932 173:2.1557458967436105E-4 174:3.233618917874992E-4 175:1.0 176:0.01422792300581932 177:1.0 178:1.0 179:0.0014012347673997283 180:0.019401712343096733 181:0.00291025685146451 182:1.0 183:2.1557458967436105E-4 184:0.030611591413617134 185:0.0020479585509747267 186:0.00711396150290966 187:0.011209878139197826 188:1.0 189:3.233618917874992E-4 190:1.0 191:4.311491793487221E-4 192:0.06553467363119125 193:0.02921035699546337 194:0.0523846261203289 195:0.018647201359272003 196:1.0 197:1.0 198:0.03427635878324509 199:3.233618917874992E-4 200:2.1557458967436105E-4 201:0.003772555384784937 202:0.0018323840340599418 203:8.622983586974442E-4 204:0.005389364901930094 205:0.0076528978534042835 206:0.0033414061181247234 207:0.02543780207633972 208:5.38936466909945E-4 209:2.1557458967436105E-4 210:8.622983586974442E-4 211:4.311491793487221E-4 212:0.003988130018115044 213:2.1557458967436105E-4 214:6.467237835749984E-4 215:0.0020479585509747267 216:0.006575025152415037 217:2.1557458967436105E-4 218:5.38936466909945E-4 219:0.04149810969829559 220:0.063702292740345 221:7.545110420323908E-4 222:3.233618917874992E-4 223:0.0015090220840647817 224:1.0 225:2.1557458967436105E-4 226:2.1557458967436105E-4 227:1.0 228:2.1557458967436105E-4 229:1.0 230:2.1557458967436105E-4 231:8.622983586974442E-4 232:1.0 233:1.0 234:0.0012934475671499968 235:1.0 236:2.1557458967436105E-4 237:0.020156223326921463 238:2.1557458967436105E-4 239:0.06273220479488373 240:0.0020479585509747267 241:0.00722174858674407 242:0.0168148186057806 243:0.05109117552638054 244:0.014551284722983837 245:0.0047426410019397736 246:0.033952996134757996 247:0.010778729803860188 248:0.0028024695347994566 249:0.004527066368609667 250:0.00215574586763978 251:0.00107787293381989 252:0.00420370465144515 253:0.0018323840340599418 254:0.0022635331843048334 255:0.00420370465144515 256:0.0012934475671499968 257:0.030072655528783798 258:1.0 259:0.02888699434697628 260:1.0 261:2.1557458967436105E-4 262:0.003988130018115044 263:0.010778729803860188 264:0.014335710555315018 265:0.05507930740714073 266:3.233618917874992E-4 267:0.00355698075145483 268:0.0018323840340599418 269:0.00431149173527956 270:0.02328205481171608 271:0.0028024695347994566 272:0.00107787293381989 273:0.013365624472498894 274:0.008838558569550514 275:0.02845584601163864 276:0.00495821563526988 277:0.17892691493034363 278:0.00247910781763494 279:0.0015090220840647817 280:0.01756932958960533 281:0.00247910781763494 282:0.0038803427014499903 283:0.0019401713507249951 284:0.0017245967173948884 285:0.00916192028671503 286:1.0 287:0.09215813875198364 288:0.0022635331843048334 289:6.467237835749984E-4 290:0.02026401087641716 291:7.545110420323908E-4 292:0.010024217888712883 293:0.12406317889690399 294:0.0036647680681198835 295:0.005173790268599987 296:0.0023713205009698868 297:0.0020479585509747267 298:0.0012934475671499968 299:0.013257836923003197 300:0.022958694025874138 301:0.03524644672870636 302:0.07006174325942993 303:0.01606030762195587 304:0.037725552916526794 305:0.005389364901930094 306:0.016599243506789207 307:0.010024217888712883 308:0.00991643127053976 309:0.024683291092514992 310:0.03610874339938164 311:0.001616809400729835 312:0.031366102397441864 313:0.023928780108690262 314:0.026839036494493484 315:0.0025868951342999935 316:0.02026401087641716 317:0.01692260429263115 318:0.04602517560124397 319:0.0012934475671499968 320:3.233618917874992E-4 321:0.005389364901930094 322:5.38936466909945E-4 323:5.38936466909945E-4 324:0.00420370465144515 325:0.03524644672870636 326:1.0 327:0.0015090220840647817 328:0.0017245967173948884 329:3.233618917874992E-4 330:8.622983586974442E-4 331:1.0 332:0.006251662969589233 333:1.0 334:4.311491793487221E-4 335:1.0 336:0.004419279284775257 337:1.0 338:0.004419279284775257 339:0.0011856602504849434 340:2.1557458967436105E-4 341:0.014012347906827927 342:0.025330014526844025 343:0.01239553838968277 344:0.013581198640167713 345:9.700856753624976E-4 346:0.00582051370292902 347:0.0033414061181247234 348:6.467237835749984E-4 349:0.03309069946408272 350:0.005928301252424717 351:0.00786847248673439 352:0.0076528978534042835 353:0.029749292880296707 354:0.0038803427014499903 355:0.01271890103816986 356:0.028994781896471977 357:0.017461542040109634 358:4.311491793487221E-4 359:0.00635945051908493 360:3.233618917874992E-4 361:0.016275880858302116 362:3.233618917874992E-4 363:2.1557458967436105E-4 364:1.0 365:0.00107787293381989 366:0.00247910781763494 367:1.0 368:1.0 369:1.0 370:0.00991643127053976 371:8.622983586974442E-4 372:4.311491793487221E-4 373:0.00215574586763978 374:6.467237835749984E-4 375:0.00786847248673439 376:0.00420370465144515 377:0.00247910781763494 378:0.00215574586763978 379:8.622983586974442E-4 380:0.005389364901930094 381:0.001616809400729835 382:1.0 383:0.002694682450965047 384:0.011102091521024704 385:0.00247910781763494 386:0.0017245967173948884 387:0.00107787293381989 388:0.010563154704868793 389:0.00420370465144515 390:9.700856753624976E-4 391:3.233618917874992E-4 392:5.38936466909945E-4 393:2.1557458967436105E-4 394:2.1557458967436105E-4 395:5.38936466909945E-4 396:0.00862298347055912 397:0.00431149173527956 398:8.622983586974442E-4 399:0.002694682450965047 400:0.0015090220840647817 401:8.622983586974442E-4 402:0.0023713205009698868 403:0.004419279284775257 404:0.002694682450965047 405:0.002694682450965047 406:5.38936466909945E-4 407:1.0 408:4.311491793487221E-4 409:0.0025868951342999935 410:0.00247910781763494 411:0.0012934475671499968 412:0.0030180441681295633 413:0.005281577352434397 414:0.0023713205009698868 415:0.014874646440148354 416:6.467237835749984E-4 417:0.0019401713507249951 418:8.622983586974442E-4 419:0.0014012347673997283 420:1.0 421:1.0 422:5.38936466909945E-4 423:0.0011856602504849434 424:1.0 425:3.233618917874992E-4 426:4.311491793487221E-4 427:0.0015090220840647817 428:0.00107787293381989 429:0.003449193434789777 430:0.004095917101949453 431:0.002694682450965047 432:4.311491793487221E-4 433:0.0012934475671499968 434:0.0337374247610569 435:0.0014012347673997283 436:0.0011856602504849434 437:1.0 438:1.0 439:8.622983586974442E-4 440:1.0 441:4.311491793487221E-4 442:0.046348538249731064 443:0.012611113488674164 444:0.02252754382789135 445:0.02630010060966015 446:0.019940650090575218 447:0.03233618661761284 448:0.003988130018115044 449:3.233618917874992E-4 450:0.014874646440148354 451:0.01800047792494297 452:0.004527066368609667 453:0.001616809400729835 454:8.622983586974442E-4 455:0.004095917101949453 456:0.009485282003879547 457:0.04020465910434723 458:0.00420370465144515 459:3.233618917874992E-4 460:0.0054971519857645035 461:7.545110420323908E-4 462:0.00808404665440321 463:2.1557458967436105E-4 464:4.311491793487221E-4 465:0.0014012347673997283 466:1.0 467:0.0017245967173948884 468:2.1557458967436105E-4 469:1.0 470:4.311491793487221E-4 471:0.0022635331843048334 472:1.0 473:4.311491793487221E-4 474:1.0 475:0.002694682450965047 476:0.07771463692188263 477:8.622983586974442E-4 478:2.1557458967436105E-4 479:6.467237835749984E-4 480:5.38936466909945E-4 481:4.311491793487221E-4 482:2.1557458967436105E-4 483:2.1557458967436105E-4 484:2.1557458967436105E-4 485:6.467237835749984E-4 486:1.0 487:0.049258794635534286 488:4.311491793487221E-4 489:0.03998908773064613 490:0.07566668093204498 491:0.01013200543820858 492:1.0 493:0.00355698075145483 494:0.0017245967173948884 495:0.00431149173527956 496:0.0025868951342999935 497:0.0751277431845665 498:8.622983586974442E-4 499:0.013796773739159107 500:0.008191834203898907 501:0.0054971519857645035 502:0.11188320815563202 503:0.003772555384784937 504:0.0015090220840647817 505:0.03406078368425369 506:0.0023713205009698868 507:7.545110420323908E-4 508:0.00107787293381989 509:8.622983586974442E-4 510:0.0015090220840647817 511:0.00495821563526988 512:4.311491793487221E-4 513:0.00431149173527956 514:0.003449193434789777 515:0.004527066368609667 516:0.0017245967173948884 517:3.233618917874992E-4 518:2.1557458967436105E-4 519:0.001616809400729835 520:4.311491793487221E-4 521:2.1557458967436105E-4 522:1.0 523:0.004095917101949453 524:0.004095917101949453 525:0.0011856602504849434 526:0.011964390054345131 527:9.700856753624976E-4 528:0.058744076639413834 529:0.0020479585509747267 530:9.700856753624976E-4 531:7.545110420323908E-4 532:0.006143875885754824 533:0.06445679813623428 534:3.233618917874992E-4 535:0.0019401713507249951 536:3.233618917874992E-4 537:0.002694682450965047 538:0.00107787293381989 539:0.003449193434789777 540:0.005281577352434397 541:0.0033414061181247234 542:0.002694682450965047 543:0.0011856602504849434 544:0.0020479585509747267 545:0.0011856602504849434 546:6.467237835749984E-4 547:0.00495821563526988 548:1.0 549:0.01013200543820858 550:3.233618917874992E-4 551:0.0014012347673997283 552:3.233618917874992E-4 553:0.0018323840340599418 554:2.1557458967436105E-4 555:0.0036647680681198835 556:0.00937749445438385 557:0.0017245967173948884 558:0.09582290798425674 559:6.467237835749984E-4 560:3.233618917874992E-4 561:0.00420370465144515 562:0.010563154704868793 563:0.021449672058224678 564:0.03449193388223648 565:0.060145311057567596 566:0.02058737352490425 567:0.012072176672518253 568:8.622983586974442E-4 569:0.0011856602504849434 570:3.233618917874992E-4 571:1.0 572:1.0 573:0.00711396150290966 574:2.1557458967436105E-4 575:2.1557458967436105E-4 576:1.0 577:6.467237835749984E-4 578:2.1557458967436105E-4 579:1.0 580:2.1557458967436105E-4 581:1.0 582:1.0 583:0.048180919140577316 584:0.0011856602504849434 585:0.002694682450965047 586:5.38936466909945E-4 587:0.005173790268599987 588:1.0 589:0.09571512043476105 590:6.467237835749984E-4 591:0.01606030762195587 592:0.00786847248673439 593:9.700856753624976E-4 594:0.0023713205009698868 595:0.02543780207633972 596:0.005928301252424717 597:0.0020479585509747267 598:1.0 599:0.0019401713507249951 600:0.00495821563526988 601:1.0 602:0.0030180441681295633 603:6.467237835749984E-4 604:0.00646723760291934 605:1.0 606:0.003449193434789777 607:0.003988130018115044 608:6.467237835749984E-4 609:7.545110420323908E-4 610:0.00247910781763494 611:1.0 612:0.0015090220840647817 613:0.01239553838968277 614:6.467237835749984E-4 615:1.0 616:2.1557458967436105E-4 617:4.311491793487221E-4 618:0.007006173953413963 619:1.0 620:0.004527066368609667 621:1.0 622:0.0019401713507249951 623:8.622983586974442E-4 624:0.0019401713507249951 625:1.0 626:2.1557458967436105E-4 627:1.0 628:0.00247910781763494 629:0.0030180441681295633 630:9.700856753624976E-4 631:2.1557458967436105E-4 632:0.0015090220840647817 633:1.0 634:5.38936466909945E-4 635:2.1557458967436105E-4 636:2.1557458967436105E-4 637:9.700856753624976E-4 638:1.0 639:0.001616809400729835 640:0.00291025685146451 641:3.233618917874992E-4 642:0.003449193434789777 643:2.1557458967436105E-4 644:3.233618917874992E-4 645:8.622983586974442E-4 646:2.1557458967436105E-4 647:1.0 648:0.0011856602504849434 649:0.01519800815731287 650:0.023389842361211777 651:0.020910734310746193 652:0.05454036965966225 653:0.013150050304830074 654:0.05863628908991814 655:0.016599243506789207 656:2.1557458967436105E-4 657:0.0014012347673997283 658:0.006251662969589233 659:0.0019401713507249951 660:0.0047426410019397736 661:0.013257836923003197 662:0.005604939069598913 663:4.311491793487221E-4 664:0.007545110769569874 665:0.0018323840340599418 666:7.545110420323908E-4 667:0.001616809400729835 668:4.311491793487221E-4 669:0.005604939069598913 670:0.05507930740714073 671:3.233618917874992E-4 672:0.015952520072460175 673:0.013904561288654804 674:1.0 675:3.233618917874992E-4 676:6.467237835749984E-4 677:3.233618917874992E-4 678:2.1557458967436105E-4 679:0.0014012347673997283 680:2.1557458967436105E-4 681:0.0031258314847946167 682:6.467237835749984E-4 683:0.0036647680681198835 684:0.01616809330880642 685:0.007437323220074177 686:0.00991643127053976 687:0.01767711713910103 688:1.0 689:0.012503325939178467 690:0.0017245967173948884 691:0.047426410019397736 692:0.00323361880145967 693:3.233618917874992E-4 694:2.1557458967436105E-4 695:3.233618917874992E-4 696:1.0 697:0.001616809400729835 698:7.545110420323908E-4 699:0.001616809400729835 700:0.00916192028671503 701:0.005604939069598913 702:0.0011856602504849434 703:0.004095917101949453 704:0.0168148186057806 705:0.0015090220840647817 706:0.01767711713910103 707:0.025653375312685966 708:0.00722174858674407 709:1.0 710:0.0030180441681295633 711:4.311491793487221E-4 712:2.1557458967436105E-4 713:3.233618917874992E-4 714:3.233618917874992E-4 715:5.38936466909945E-4 716:0.0018323840340599418 717:0.008838558569550514 718:0.0025868951342999935 719:2.1557458967436105E-4 720:3.233618917874992E-4 721:0.045594025403261185 722:9.700856753624976E-4 723:2.1557458967436105E-4 724:1.0 725:1.0 726:1.0 727:0.0014012347673997283 728:0.0028024695347994566 729:0.0019401713507249951 730:0.005604939069598913 731:0.0038803427014499903 732:6.467237835749984E-4 733:0.001616809400729835 734:1.0 735:0.00323361880145967 736:1.0 737:8.622983586974442E-4 738:0.0047426410019397736 739:1.0 740:4.311491793487221E-4 741:0.0014012347673997283 742:4.311491793487221E-4 743:0.001616809400729835 744:6.467237835749984E-4 745:4.311491793487221E-4 746:0.0028024695347994566 747:7.545110420323908E-4 748:6.467237835749984E-4 749:0.0036647680681198835 750:3.233618917874992E-4 751:1.0 752:9.700856753624976E-4 753:1.0 754:1.0 755:1.0 756:6.467237835749984E-4 757:6.467237835749984E-4 758:2.1557458967436105E-4 759:1.0 760:0.0023713205009698868 761:0.015521370805799961 762:0.0038803427014499903 763:0.011856602504849434 764:0.013904561288654804 765:0.00711396150290966 766:0.0054971519857645035 767:0.018539413809776306 768:4.311491793487221E-4 769:0.0025868951342999935 770:0.00107787293381989 771:0.008299621753394604 772:0.01142545323818922 773:0.004850428085774183 774:0.0011856602504849434 775:1.0 776:5.38936466909945E-4 777:7.545110420323908E-4 778:4.311491793487221E-4 779:1.0 780:0.019617287442088127 781:0.0033414061181247234 782:0.003772555384784937 783:0.056803904473781586 784:0.004419279284775257 785:0.007437323220074177 786:0.002694682450965047 787:0.00323361880145967 788:0.0012934475671499968 789:0.0020479585509747267 790:0.006036088336259127 791:0.0015090220840647817 792:0.0076528978534042835 793:0.0019401713507249951 794:0.0017245967173948884 795:0.013581198640167713 796:0.12427874654531479 797:0.010239792987704277 798:0.0028024695347994566 799:0.008515195921063423 800:0.0036647680681198835 801:0.02328205481171608 802:3.233618917874992E-4 803:3.233618917874992E-4 804:6.467237835749984E-4 805:0.006898386869579554 806:7.545110420323908E-4 807:4.311491793487221E-4 808:4.311491793487221E-4 809:0.01013200543820858 810:0.003449193434789777 811:0.12061398476362228 812:0.0033414061181247234 813:0.009054132737219334 814:0.005281577352434397 815:0.014012347906827927 816:0.006682812236249447 817:0.02177303284406662 818:0.004095917101949453 819:0.0015090220840647817 820:0.012287751771509647 821:0.0030180441681295633 822:0.009808643721044064 823:0.030288228765130043 824:0.01088651642203331 825:0.14066241681575775 826:0.004527066368609667 827:2.1557458967436105E-4 828:1.0 829:0.00916192028671503 830:0.04203704372048378 831:8.622983586974442E-4 832:1.0 833:3.233618917874992E-4 834:0.002694682450965047 835:1.0 836:0.20479585230350494 837:0.004419279284775257 838:0.13721323013305664 839:4.311491793487221E-4 840:1.0 841:0.0011856602504849434 842:0.00107787293381989 843:0.0017245967173948884 844:0.0047426410019397736 845:0.00107787293381989 846:0.010455367155373096 847:0.0028024695347994566 848:0.010024217888712883 849:0.006790599320083857 850:0.010347580537199974 851:0.004095917101949453 852:0.0022635331843048334 853:0.01573694497346878 854:0.00215574586763978 855:0.004527066368609667 856:0.0017245967173948884 857:0.0018323840340599418 858:0.00495821563526988 859:0.002694682450965047 860:0.017030391842126846 861:0.00506600271910429 862:0.06715148687362671 863:8.622983586974442E-4 864:0.1389378160238266 865:0.00107787293381989 866:0.00420370465144515 867:0.009593069553375244 868:0.008299621753394604 869:0.003988130018115044 870:0.0025868951342999935 871:0.004419279284775257 872:0.00323361880145967 873:0.0076528978534042835 874:0.004850428085774183 875:0.01918613910675049 876:0.025330014526844025 877:0.033198487013578415 878:1.0 879:0.06941501796245575 880:0.05066002905368805 881:6.467237835749984E-4 882:0.07599004358053207 883:0.01649145595729351 884:8.622983586974442E-4 885:0.07383430004119873 886:0.018216053023934364 887:0.023928780108690262 888:0.0031258314847946167 889:0.02285090647637844 890:0.03632431849837303 891:0.006682812236249447 892:0.024252140894532204 893:0.05216905102133751 894:0.0019401713507249951 895:3.233618917874992E-4 896:0.0031258314847946167 897:0.00646723760291934 898:9.700856753624976E-4 899:0.01088651642203331 900:4.311491793487221E-4 901:0.00355698075145483 902:0.010347580537199974 903:0.020479585975408554 904:2.1557458967436105E-4 905:0.13020704686641693 906:0.0014012347673997283 907:5.38936466909945E-4 908:0.13591977953910828 909:0.0015090220840647817 910:0.00582051370292902 911:0.0036647680681198835 912:8.622983586974442E-4 913:0.008191834203898907 914:0.00646723760291934 915:0.0012934475671499968 916:1.0 917:5.38936466909945E-4 918:1.0 919:1.0 920:0.008515195921063423 921:0.05734284222126007 922:3.233618917874992E-4 923:3.233618917874992E-4 924:0.0015090220840647817 925:5.38936466909945E-4 926:2.1557458967436105E-4 927:1.0 928:0.01843162812292576 929:2.1557458967436105E-4 930:1.0 931:2.1557458967436105E-4 932:0.0038803427014499903 933:2.1557458967436105E-4 934:1.0 935:0.0018323840340599418 936:0.0014012347673997283 937:0.00495821563526988 938:6.467237835749984E-4 939:0.16060306131839752 940:0.011856602504849434 941:2.1557458967436105E-4 942:1.0 943:4.311491793487221E-4 944:0.04052802175283432 945:1.0 946:1.0 947:0.008515195921063423 948:0.017461542040109634 949:0.04548623785376549 950:0.00355698075145483 951:0.0038803427014499903 952:7.545110420323908E-4 953:0.09991881996393204 954:0.082349494099617 955:2.1557458967436105E-4 956:0.04764198511838913 957:3.233618917874992E-4 958:0.021665245294570923 959:0.01271890103816986 960:0.0018323840340599418 961:0.00722174858674407 962:0.10078112035989761 963:0.04548623785376549 964:0.057989563792943954 965:0.08924788236618042 966:0.09194256365299225 967:3.233618917874992E-4 968:0.03567759320139885 969:3.233618917874992E-4 970:0.03686325624585152 971:1.0 972:0.022635331377387047 973:4.311491793487221E-4 974:0.11932053416967392 975:0.10714057087898254 976:0.07566668093204498 977:0.059067435562610626 978:1.0 979:3.233618917874992E-4 980:0.0023713205009698868 981:0.058744076639413834 982:0.0015090220840647817 983:0.08137940615415573 984:0.006251662969589233 985:2.1557458967436105E-4 986:3.233618917874992E-4 987:0.009593069553375244 988:0.011748814955353737 989:0.01142545323818922 990:3.233618917874992E-4 991:0.0785769373178482 992:0.17569328844547272 993:0.06186990812420845 994:0.0015090220840647817 995:0.00506600271910429 996:1.0 997:0.00107787293381989 998:9.700856753624976E-4 999:0.008191834203898907 1000:0.00420370465144515 1001:0.002694682450965047 1002:8.622983586974442E-4 1003:8.622983586974442E-4 1004:0.009593069553375244 1005:0.00291025685146451 1006:0.0038803427014499903 1007:0.2282934933900833 1008:0.0011856602504849434 1009:0.01606030762195587 1010:4.311491793487221E-4 1011:0.0018323840340599418 1012:0.00323361880145967 1013:6.467237835749984E-4 1014:2.1557458967436105E-4 1015:7.545110420323908E-4 1016:0.03276733681559563 1017:0.00323361880145967 1018:0.009700856171548367 1019:0.0038803427014499903 1020:0.01239553838968277 1021:0.054971519857645035 1022:0.017461542040109634 1023:0.005389364901930094 1024:1.0 1025:1.0 1026:0.01067094225436449 1027:2.1557458967436105E-4 1028:0.0022635331843048334 1029:0.0012934475671499968 1030:7.545110420323908E-4 1031:0.04915100708603859 1032:0.11155985295772552 1033:0.01724596694111824 1034:2.1557458967436105E-4 1035:9.700856753624976E-4 1036:3.233618917874992E-4 1037:8.622983586974442E-4 1038:0.020802948623895645 1039:0.017030391842126846 1040:4.311491793487221E-4 1041:3.233618917874992E-4 1042:1.0 1043:0.0015090220840647817 1044:0.010563154704868793 1045:0.0014012347673997283 1046:0.07027731835842133 1047:0.002694682450965047 1048:3.233618917874992E-4 1049:0.0031258314847946167 1050:0.010347580537199974 1051:0.00215574586763978 1052:0.00635945051908493 1053:0.0031258314847946167 1054:9.700856753624976E-4 1055:1.0 1056:0.012072176672518253 1057:0.00247910781763494 1058:0.0017245967173948884 1059:0.01918613910675049 1060:1.0 1061:0.09840980172157288 1062:0.01293447520583868 1063:1.0 1064:0.006682812236249447 1065:0.015305795706808567 1066:0.01271890103816986 1067:0.00862298347055912 1068:9.700856753624976E-4 1069:3.233618917874992E-4 1070:0.00355698075145483 1071:8.622983586974442E-4 1072:2.1557458967436105E-4 1073:0.011533240787684917 1074:0.05410922318696976 1075:3.233618917874992E-4 1076:0.03179725259542465 1077:0.0019401713507249951 1078:1.0 1079:2.1557458967436105E-4 1080:4.311491793487221E-4 1081:4.311491793487221E-4 1082:1.0 1083:0.0018323840340599418 1084:2.1557458967436105E-4 1085:0.017030391842126846 1086:0.0046348534524440765 1087:0.03837227821350098 1088:0.0030180441681295633 1089:6.467237835749984E-4 1090:0.002694682450965047 1091:0.0022635331843048334 1092:2.1557458967436105E-4 1093:2.1557458967436105E-4 1094:1.0 1095:2.1557458967436105E-4 1096:3.233618917874992E-4 1097:0.02630010060966015 1098:4.311491793487221E-4 1099:0.0019401713507249951 1100:0.002694682450965047 1101:1.0 1102:0.12223079055547714 1103:1.0 1104:1.0 1105:0.0011856602504849434 1106:1.0 1107:1.0 1108:0.04796534404158592 1109:3.233618917874992E-4 1110:0.00247910781763494 1111:1.0 1112:0.06111539527773857 1113:0.028348058462142944 1114:0.08191834390163422 1115:0.008515195921063423 1116:0.026515673846006393 1117:0.07016953080892563 1118:0.025976737961173058 1119:0.04279155656695366 1120:0.08385851234197617 1121:0.0243599284440279 1122:0.05766620114445686 1123:0.02780912257730961 1124:0.1387222409248352 1125:0.08579868823289871 1126:0.13699765503406525 1127:0.029533717781305313 1128:0.0018323840340599418 1129:0.02780912257730961 1130:0.04645632207393646 1131:0.0903257504105568 1132:0.0488276444375515 1133:0.01573694497346878 1134:0.06219326704740524 1135:0.003988130018115044 1136:0.020371798425912857 1137:0.012611113488674164 1138:0.021449672058224678 1139:4.311491793487221E-4 1140:0.001616809400729835 1141:0.005389364901930094 1142:0.002694682450965047 1143:1.0 1144:1.0 1145:3.233618917874992E-4 1146:0.010563154704868793 1147:0.004419279284775257 1148:9.700856753624976E-4 1149:8.622983586974442E-4 1150:0.0011856602504849434 1151:0.015952520072460175 1152:0.021126309409737587 1153:0.004527066368609667 1154:0.003988130018115044 1155:0.06639697402715683 1156:0.05604939162731171 1157:0.003772555384784937 1158:0.016275880858302116 1159:0.006682812236249447 1160:0.045594025403261185 1161:0.017353754490613937 1162:4.311491793487221E-4 1163:0.00107787293381989 1164:1.0 1165:0.009269706904888153 1166:2.1557458967436105E-4 1167:9.700856753624976E-4 1168:2.1557458967436105E-4 1169:0.00107787293381989 1170:0.006790599320083857 1171:1.0 1172:6.467237835749984E-4 1173:2.1557458967436105E-4 1174:0.02780912257730961 1175:0.00107787293381989 1176:0.011856602504849434 1177:6.467237835749984E-4 1178:0.10811065882444382 1179:0.00215574586763978 1180:0.011533240787684917 1181:0.005604939069598913 1182:0.016707031056284904 1183:0.0025868951342999935 1184:1.0 1185:3.233618917874992E-4 1186:0.05745062604546547 1187:0.00862298347055912 1188:7.545110420323908E-4 1189:4.311491793487221E-4 1190:0.026084525510668755 1191:1.0 1192:2.1557458967436105E-4 1193:1.0 1194:2.1557458967436105E-4 1195:7.545110420323908E-4 1196:0.004850428085774183 1197:0.021557459607720375 1198:0.02845584601163864 1199:0.00646723760291934 1200:0.016707031056284904 1201:4.311491793487221E-4 1202:0.0020479585509747267 1203:0.061007607728242874 1204:0.0012934475671499968 1205:0.0012934475671499968 1206:0.0014012347673997283 1207:0.0047426410019397736 1208:0.0011856602504849434 1209:0.0012934475671499968 1210:0.0011856602504849434 1211:0.0011856602504849434 1212:9.700856753624976E-4 1213:0.023820992559194565 1214:8.622983586974442E-4 1215:0.005928301252424717 1216:8.622983586974442E-4 1217:0.0 1218:0.0 1219:0.0 1220:0.0 1221:0.0 1222:0.0 1223:0.0 1224:0.0 1225:0.0 1226:0.0 1227:0.0 1228:0.0 1229:0.0 1230:0.0 1231:0.0 1232:0.0 1233:0.0 1234:0.0 1235:0.0 1236:0.0 1237:0.0 1238:0.0 1239:0.0 1240:0.0 1241:0.0 1242:0.0 1243:0.0 1244:0.0 1245:0.0 1246:0.0 1247:0.0 1248:0.0 1249:0.0 1250:0.0 1251:0.0 1252:0.0 1253:0.0 1254:0.0 1255:0.0 1256:0.0 1257:0.0 1258:0.0 1259:0.0 1260:0.0 1261:0.0 1262:0.0 1263:0.0 1264:0.0 1265:0.0 1266:0.0 1267:0.0 1268:0.0 1269:0.0 1270:0.0 1271:0.0 1272:0.0 1273:0.0 1274:0.0 1275:0.0 1276:0.0 1277:0.0 1278:0.0 1279:0.0 1280:0.0 1281:0.0 1282:0.0 1283:0.0 1284:0.0 1285:0.0 1286:0.0 1287:0.0 1288:0.0 1289:0.0 1290:0.0 1291:0.0 1292:0.0 1293:0.0 1294:0.0 1295:0.0 1296:0.0 1297:0.0 1298:0.0 1299:0.0 1300:0.0 1301:0.0 1302:0.0 1303:0.0 1304:0.0 1305:0.0 1306:0.0 1307:0.0 1308:0.0 1309:0.0 1310:0.0 1311:0.0 1312:0.0 1313:0.0 1314:0.0 1315:0.0 1316:0.0 1317:0.0 1318:0.0 1319:0.0 1320:0.0 1321:0.0 1322:0.0 1323:0.0 1324:0.0 1325:0.0 1326:0.0 1327:0.0 1328:0.0 1329:0.0 1330:0.0 1331:0.0 1332:0.0 1333:0.0 1334:0.0 1335:0.0 1336:0.0 1337:0.0 1338:0.0 1339:0.0 1340:0.0 1341:0.0 1342:0.0 1343:0.0 1344:0.0 1345:0.0 1346:0.0 1347:0.0 1348:0.0 1349:0.0 1350:0.0 1351:0.0 1352:0.0 1353:0.0 1354:0.0 1355:0.0 1356:0.0 1357:0.0 1358:0.0 1359:0.0 1360:0.0 1361:0.0 1362:0.0 1363:0.0 1364:0.0 1365:0.0 1366:0.0 1367:0.0 1368:0.0 1369:0.0 1370:0.0 1371:0.0 1372:0.0 1373:0.0 1374:0.0 1375:0.0 1376:0.0 1377:0.0 1378:0.0 1379:0.0 1380:0.0 1381:0.0 1382:0.0 1383:0.0 1384:0.0 1385:0.0 1386:0.0 1387:0.0 1388:0.0 1389:0.0 1390:0.0 1391:0.0 1392:0.0 1393:0.0 1394:0.0 1395:0.0 1396:0.0 1397:0.0 1398:0.0 1399:0.0 1400:0.0 1401:0.0 1402:0.0 1403:0.0 1404:0.0 1405:0.0 1406:0.0 1407:0.0 1408:0.0 1409:0.0 1410:0.0 1411:0.0 1412:0.0 1413:0.0 1414:0.0 1415:0.0 1416:0.0 1417:0.0 1418:0.0 1419:0.0 1420:0.0 1421:0.0 1422:0.0 1423:0.0 1424:0.0 1425:0.0 1426:0.0 1427:0.0 1428:0.0 1429:0.0 1430:0.0 1431:0.0 1432:0.0 1433:0.0 1434:0.0 1435:0.0 1436:0.0 1437:0.0 1438:0.0 1439:0.0 1440:0.0 1441:0.0 1442:0.0 1443:0.0 1444:0.0 1445:0.0 1446:0.0 1447:0.0 1448:0.0 1449:0.0 1450:0.0 1451:0.0 1452:0.0 1453:0.0 1454:0.0 1455:0.0 1456:0.0 1457:0.0 1458:0.0 1459:0.0 1460:0.0 1461:0.0 1462:0.0 1463:0.0 1464:0.0 1465:0.0 1466:0.0 1467:0.0 1468:0.0 1469:0.0 1470:0.0 1471:0.0 1472:0.0 1473:0.0 1474:0.0 1475:0.0 1476:0.0 1477:0.0 1478:0.0 1479:0.0 1480:0.0 1481:0.0 1482:0.0 1483:0.0 1484:0.0 1485:0.0 1486:0.0 1487:0.0 1488:0.0 1489:0.0 1490:0.0 1491:0.0 1492:0.0 1493:0.0 1494:0.0 1495:0.0 1496:0.0 1497:0.0 1498:0.0 1499:0.0 1500:0.0 1501:0.0 1502:0.0 1503:0.0 1504:0.0 1505:0.0 1506:0.0 1507:0.0 1508:0.0 1509:0.0 1510:0.0 1511:0.0 1512:0.0 1513:0.0 1514:0.0 1515:0.0 1516:0.0 1517:0.0 1518:0.0 1519:0.0 1520:0.0 1521:0.0 1522:0.0 1523:0.0 1524:0.0 1525:0.0 1526:0.0 1527:0.0 1528:0.0 1529:0.0 1530:0.0 1531:0.0 1532:0.0 1533:0.0 1534:0.0 1535:0.0 1536:0.0 1537:0.0 1538:0.0 1539:0.0 1540:0.0 1541:0.0 1542:0.0 1543:0.0 1544:0.0 1545:0.0 1546:0.0 1547:0.0 1548:0.0 1549:0.0 1550:0.0 1551:0.0 1552:0.0 1553:0.0 1554:0.0 1555:0.0 1556:0.0 1557:0.0 1558:0.0 1559:0.0 1560:0.0 1561:0.0 1562:0.0 1563:0.0 1564:0.0 1565:0.0 1566:0.0 1567:0.0 1568:0.0 1569:0.0 1570:0.0 1571:0.0 1572:0.0 1573:0.0 1574:0.0 1575:0.0 1576:0.0 1577:0.0 1578:0.0 1579:0.0 1580:0.0 1581:0.0 1582:0.0 1583:0.0 1584:0.0 1585:0.0 1586:0.0 1587:0.0 1588:0.0 1589:0.0 1590:0.0 1591:0.0 1592:0.0 1593:0.0 1594:0.0 1595:0.0 1596:0.0 1597:0.0 1598:0.0 1599:0.0 1600:0.0 1601:0.0 1602:0.0 1603:0.0 1604:0.0 1605:0.0 1606:0.0 1607:0.0 1608:0.0 1609:0.0 1610:0.0 1611:0.0 1612:0.0 1613:0.0 1614:0.0 1615:0.0 1616:0.0 1617:0.0 1618:0.0 1619:0.0 1620:0.0 1621:0.0 1622:0.0 1623:0.0 1624:0.0 1625:0.0 1626:0.0 1627:0.0 1628:0.0 1629:0.0 1630:0.0 1631:0.0 1632:0.0 1633:0.0 1634:0.0 1635:0.0 1636:0.0 1637:0.0 1638:0.0 1639:0.0 1640:0.0 1641:0.0 1642:0.0 1643:0.0 1644:0.0 1645:0.0 1646:0.0 1647:0.0 1648:0.0 1649:0.0 1650:0.0 1651:0.0 1652:0.0 1653:0.0 1654:0.0 1655:0.0 1656:0.0 1657:0.0 1658:0.0 1659:0.0 1660:0.0 1661:0.0 1662:0.0 1663:0.0 1664:0.0 1665:0.0 1666:0.0 1667:0.0 1668:0.0 1669:0.0 1670:0.0 1671:0.0 1672:0.0 1673:0.0 1674:0.0 1675:0.0 1676:0.0 1677:0.0 1678:0.0 1679:0.0 1680:0.0 1681:0.0 1682:0.0 1683:0.0 1684:0.0 1685:0.0 1686:0.0 1687:0.0 1688:0.0 1689:0.0 1690:0.0 1691:0.0 1692:0.0 1693:0.0 1694:0.0 1695:0.0 1696:0.0 1697:0.0 1698:0.0 1699:0.0 1700:0.0 1701:0.0 1702:0.0 1703:0.0 1704:0.0 1705:0.0 1706:0.0 1707:0.0 1708:0.0 1709:0.0 1710:0.0 1711:0.0 1712:0.0 1713:0.0 1714:0.0 1715:0.0 1716:0.0 1717:0.0 1718:0.0 1719:0.0 1720:0.0 1721:0.0 1722:0.0 1723:0.0 1724:0.0 1725:0.0 1726:0.0 1727:0.0 1728:0.0 1729:0.0 1730:0.0 1731:0.0 1732:0.0 1733:0.0 1734:0.0 1735:0.0 1736:0.0 1737:0.0 1738:0.0 1739:0.0 1740:0.0 1741:0.0 1742:0.0 1743:0.0 1744:0.0 1745:0.0 1746:0.0 1747:0.0 1748:0.0 1749:0.0 1750:0.0 1751:0.0 1752:0.0 1753:0.0 1754:0.0 1755:0.0 1756:0.0 1757:0.0 1758:0.0 1759:0.0 1760:0.0 1761:0.0 1762:0.0 1763:0.0 1764:0.0 1765:0.0 1766:0.0 1767:0.0 1768:0.0 1769:0.0 1770:0.0 1771:0.0 1772:0.0 1773:0.0 1774:0.0 1775:0.0 1776:0.0 1777:0.0 1778:0.0 1779:0.0 1780:0.0 1781:0.0 1782:0.0 1783:0.0 1784:0.0 1785:0.0 1786:0.0 1787:0.0 1788:0.0 1789:0.0 1790:0.0 1791:0.0 1792:0.0 1793:0.0 1794:0.0 1795:0.0 1796:0.0 1797:0.0 1798:0.0 1799:0.0 1800:0.0 1801:0.0 1802:0.0 1803:0.0 1804:0.0 1805:0.0 1806:0.0 1807:0.0 1808:0.0 1809:0.0 1810:0.0 1811:0.0 1812:0.0 1813:0.0 1814:0.0 1815:0.0 1816:0.0 1817:0.0 1818:0.0 1819:0.0 1820:0.0 1821:0.0 1822:0.0 1823:0.0 1824:0.0 1825:0.0 1826:0.0 1827:0.0 1828:0.0 1829:0.0 1830:0.0 1831:0.0 1832:0.0 1833:0.0 1834:0.0 1835:0.0 1836:0.0 1837:0.0 1838:0.0 1839:0.0 1840:0.0 1841:0.0 1842:0.0 1843:0.0 1844:0.0 1845:0.0 1846:0.0 1847:0.0 1848:0.0 1849:0.0 1850:0.0 1851:0.0 1852:0.0 1853:0.0 1854:0.0 1855:0.0 1856:0.0 1857:0.0 1858:0.0 1859:0.0 1860:0.0 1861:0.0 1862:0.0 1863:0.0 1864:0.0 1865:0.0 1866:0.0 1867:0.0 1868:0.0 1869:0.0 1870:0.0 1871:0.0 1872:0.0 1873:0.0 1874:0.0 1875:0.0 1876:0.0 1877:0.0 1878:0.0 1879:0.0 1880:0.0 1881:0.0 1882:0.0 1883:0.0 1884:0.0 1885:0.0 1886:0.0 1887:0.0 1888:0.0 1889:0.0 1890:0.0 1891:0.0 1892:0.0 1893:0.0 1894:0.0 1895:0.0 1896:0.0 1897:0.0 1898:0.0 1899:0.0 1900:0.0 1901:0.0 1902:0.0 1903:0.0
-0.007918758393551207 1:0.0021166049409657717 2:0.04509996622800827 3:0.06528911739587784 4:0.05324075371026993 5:0.027760086581110954 6:0.021980127319693565 7:0.0 8:0.02849275805056095 9:0.020107746124267578 10:0.07147611677646637 11:0.06073027849197388 12:0.03590087592601776 13:0.0712318941950798 14:0.042739138007164 15:0.05991619825363159 16:0.060323238372802734 17:0.018153958022594452 18:0.011234287172555923 19:0.0 20:0.09150245785713196 21:0.07383694499731064 22:0.03354004770517349 23:0.014653418213129044 24:0.01945648342370987 25:0.009850353002548218 26:0.08018676191568375 27:0.01538608968257904 28:0.0021166049409657717 29:1.0 30:0.0 31:0.0 32:1.0 33:0.06447503715753555 34:0.007082485593855381 35:1.0 36:0.0683826208114624 37:2.442236291244626E-4 38:0.01432778686285019 39:1.0 40:0.004070394206792116 41:2.442236291244626E-4 42:4.0703939157538116E-4 43:8.954866789281368E-4 44:0.014490602537989616 45:0.006675445940345526 46:0.0011397103080525994 47:6.512630498036742E-4 48:0.0 49:0.0010583024704828858 50:0.006594038102775812 51:0.03541242703795433 52:0.009361905977129936 53:0.0 54:0.018153958022594452 55:0.00170956552028656 56:0.15418651700019836 57:4.0703939157538116E-4 58:0.0 59:1.0 60:1.0 61:0.01001316960901022 62:0.008466419763863087 63:0.04070394113659859 64:0.0011397103080525994 65:0.0 66:1.0 67:1.0 68:0.0 69:2.442236291244626E-4 70:5.698551540262997E-4 71:4.884472582489252E-4 72:0.15728002786636353 73:7.326709455810487E-4 74:1.6281576245091856E-4 75:4.884472582489252E-4 76:4.0703939157538116E-4 77:0.022142942994832993 78:2.442236291244626E-4 79:0.0021166049409657717 80:2.442236291244626E-4 81:0.11226146668195724 82:0.007001077756285667 83:1.0 84:1.0 85:1.0 86:5.698551540262997E-4 87:0.0021980127785354853 88:0.0 89:0.023608285933732986 90:4.0703939157538116E-4 91:0.047705017030239105 92:1.0 93:1.6281576245091856E-4 94:1.0 95:0.06887106597423553 96:0.008873458951711655 97:0.002930683782324195 98:2.442236291244626E-4 99:0.009768945164978504 100:0.02230575866997242 101:0.001546749728731811 102:0.0031749072950333357 103:0.004721656907349825 104:0.00512869656085968 105:0.02336406148970127 106:4.884472582489252E-4 107:1.0 108:0.008792051114141941 109:0.004640249069780111 110:0.002930683782324195 111:0.026050521060824394 112:1.0 113:0.002035197103396058 114:0.007896563969552517 115:0.017909733578562737 116:0.005372920073568821 117:0.01025739312171936 118:0.004965880885720253 119:0.010583024471998215 120:0.01538608968257904 121:0.034679755568504333 122:0.039727047085762024 123:0.0 124:0.0 125:1.6281576245091856E-4 126:0.0 127:1.0 128:1.6281576245091856E-4 129:0.015548905357718468 130:0.0035005388781428337 131:0.0 132:0.004721656907349825 133:0.0010583024704828858 134:0.0028492757119238377 135:0.0 136:0.007245301268994808 137:0.002605052199214697 138:0.007733748760074377 139:0.0031749072950333357 140:0.0018723811954259872 141:0.004965880885720253 142:0.03752903267741203 143:0.038017481565475464 144:0.009199090301990509 145:0.004233209881931543 146:0.009361905977129936 147:0.0035005388781428337 148:0.005779959261417389 149:0.0 150:0.0 151:0.0 152:0.012536813504993916 153:0.013025260530412197 154:0.0032563151326030493 155:0.002930683782324195 156:0.002035197103396058 157:8.954866789281368E-4 158:0.0 159:2.442236291244626E-4 160:1.6281576245091856E-4 161:0.004721656907349825 162:0.0010583024704828858 163:0.003988985903561115 164:5.698551540262997E-4 165:5.698551540262997E-4 166:0.004233209881931543 167:0.007326709106564522 168:0.001221118145622313 169:0.0023608284536749125 170:3.256315249018371E-4 171:0.0013025260996073484 172:0.019130852073431015 173:1.0 174:0.0017909733578562737 175:2.442236291244626E-4 176:0.015141865238547325 177:1.0 178:2.442236291244626E-4 179:2.442236291244626E-4 180:0.0085478276014328 181:0.0014653418911620975 182:0.0 183:1.0 184:0.028167126700282097 185:0.002035197103396058 186:0.004884472582489252 187:0.01310666836798191 188:0.0 189:8.140787831507623E-4 190:0.0 191:8.954866789281368E-4 192:0.07432539761066437 193:0.05258949100971222 194:0.01001316960901022 195:0.014653418213129044 196:0.0 197:1.6281576245091856E-4 198:0.035168204456567764 199:3.256315249018371E-4 200:1.6281576245091856E-4 201:0.003663354553282261 202:4.884472582489252E-4 203:4.0703939157538116E-4 204:0.00512869656085968 205:0.004640249069780111 206:0.0031749072950333357 207:0.051124148070812225 208:2.442236291244626E-4 209:0.0 210:8.954866789281368E-4 211:4.884472582489252E-4 212:0.006594038102775812 213:5.698551540262997E-4 214:3.256315249018371E-4 215:8.140787831507623E-4 216:0.004884472582489252 217:1.6281576245091856E-4 218:0.001221118145622313 219:0.03435412421822548 220:0.05527595058083534 221:0.0013025260996073484 222:0.0 223:0.0038261704612523317 224:0.0 225:3.256315249018371E-4 226:1.0 227:1.0 228:4.0703939157538116E-4 229:1.6281576245091856E-4 230:0.0 231:0.0017909733578562737 232:1.0 233:1.0 234:8.954866789281368E-4 235:3.256315249018371E-4 236:4.0703939157538116E-4 237:0.02002633921802044 238:2.442236291244626E-4 239:0.05706692487001419 240:0.0010583024704828858 241:0.006594038102775812 242:0.027841495350003242 243:0.04111097753047943 244:0.013920747675001621 245:0.0014653418911620975 246:0.019863523542881012 247:0.03126062452793121 248:0.003988985903561115 249:0.002442236291244626 250:0.00170956552028656 251:0.0014653418911620975 252:4.0703939157538116E-4 253:0.002605052199214697 254:0.0016281575663015246 255:0.006186998914927244 256:4.0703939157538116E-4 257:0.036226507276296616 258:0.0 259:0.029958099126815796 260:0.0 261:1.0 262:0.006105591077357531 263:0.006349814590066671 264:0.017909733578562737 265:0.05820663273334503 266:1.0 267:0.0048030647449195385 268:7.326709455810487E-4 269:0.0011397103080525994 270:0.011559918522834778 271:0.001383933937177062 272:0.002035197103396058 273:0.008792051114141941 274:0.007570932619273663 275:0.01994493044912815 276:0.006105591077357531 277:0.21418413519859314 278:0.0054543279111385345 279:0.0016281575663015246 280:0.02637615241110325 281:0.00341913104057312 282:0.005291512235999107 283:0.0014653418911620975 284:0.004314617719501257 285:0.01139710284769535 286:0.0 287:0.1226002648472786 288:0.003988985903561115 289:2.442236291244626E-4 290:0.012455405667424202 291:1.0 292:0.01139710284769535 293:0.13065963983535767 294:0.0010583024704828858 295:0.005372920073568821 296:0.0010583024704828858 297:0.004721656907349825 298:3.256315249018371E-4 299:0.011478510685265064 300:0.021410271525382996 301:0.02792290225625038 302:0.038505926728248596 303:0.015711721032857895 304:0.017502693459391594 305:0.006919669918715954 306:0.014164971187710762 307:0.013839339837431908 308:0.007326709106564522 309:0.029876692220568657 310:0.02792290225625038 311:0.001221118145622313 312:0.02295702137053013 313:0.02637615241110325 314:0.03533101826906204 315:0.0023608284536749125 316:0.014897641725838184 317:0.019293667748570442 318:0.03020232357084751 319:3.256315249018371E-4 320:0.0023608284536749125 321:0.007163893431425095 322:1.0 323:1.0 324:0.003988985903561115 325:0.027190232649445534 326:0.0 327:5.698551540262997E-4 328:1.0 329:9.768945164978504E-4 330:2.442236291244626E-4 331:0.0 332:7.326709455810487E-4 333:0.0 334:0.0 335:0.0 336:0.003337722970172763 337:0.0 338:3.256315249018371E-4 339:6.512630498036742E-4 340:0.0 341:0.0065126302652060986 342:0.024910811334848404 343:0.01261822134256363 344:0.010501616634428501 345:5.698551540262997E-4 346:0.005698551423847675 347:0.0032563151326030493 348:0.0 349:0.032237518578767776 350:0.009606129489839077 351:0.012211182154715061 352:0.005942775402218103 353:0.03500538691878319 354:0.0021166049409657717 355:0.018398180603981018 356:0.038587335497140884 357:0.020840417593717575 358:4.884472582489252E-4 359:0.006186998914927244 360:0.0 361:0.016932839527726173 362:1.6281576245091856E-4 363:1.0 364:0.0 365:7.326709455810487E-4 366:0.005291512235999107 367:0.0 368:1.0 369:1.0 370:0.006349814590066671 371:6.512630498036742E-4 372:4.884472582489252E-4 373:0.001221118145622313 374:4.884472582489252E-4 375:0.009117682464420795 376:0.001546749728731811 377:0.003093499457463622 378:0.0010583024704828858 379:1.6281576245091856E-4 380:0.004640249069780111 381:0.002035197103396058 382:0.0 383:0.001546749728731811 384:0.015711721032857895 385:0.0010583024704828858 386:0.0025236443616449833 387:7.326709455810487E-4 388:0.005210104398429394 389:0.006919669918715954 390:5.698551540262997E-4 391:8.954866789281368E-4 392:4.0703939157538116E-4 393:0.0 394:0.0 395:0.0013025260996073484 396:0.007733748760074377 397:0.003337722970172763 398:6.512630498036742E-4 399:0.001383933937177062 400:6.512630498036742E-4 401:8.140787831507623E-4 402:0.0013025260996073484 403:0.005942775402218103 404:0.0017909733578562737 405:0.0021980127785354853 406:9.768945164978504E-4 407:0.0 408:1.0 409:0.0021980127785354853 410:5.698551540262997E-4 411:7.326709455810487E-4 412:0.00170956552028656 413:0.010420208796858788 414:0.001221118145622313 415:0.01196695864200592 416:1.0 417:8.954866789281368E-4 418:0.0018723811954259872 419:6.512630498036742E-4 420:0.0 421:0.0 422:8.140787831507623E-4 423:0.00170956552028656 424:1.0 425:0.0 426:4.884472582489252E-4 427:0.0011397103080525994 428:4.0703939157538116E-4 429:0.004884472582489252 430:0.0023608284536749125 431:5.698551540262997E-4 432:1.0 433:0.001546749728731811 434:0.025806298479437828 435:8.140787831507623E-4 436:9.768945164978504E-4 437:0.0 438:1.0 439:3.256315249018371E-4 440:1.0 441:4.884472582489252E-4 442:0.054624687880277634 443:0.009036274626851082 444:0.021980127319693565 445:0.025480667129158974 446:0.021735904738307 447:0.04045971482992172 448:0.004070394206792116 449:0.0 450:0.01025739312171936 451:0.024910811334848404 452:0.007408116944134235 453:3.256315249018371E-4 454:2.442236291244626E-4 455:0.004070394206792116 456:0.006919669918715954 457:0.05324075371026993 458:7.326709455810487E-4 459:5.698551540262997E-4 460:0.004477433394640684 461:4.0703939157538116E-4 462:9.768945164978504E-4 463:4.0703939157538116E-4 464:7.326709455810487E-4 465:1.0 466:0.0 467:8.140787831507623E-4 468:3.256315249018371E-4 469:1.6281576245091856E-4 470:0.0 471:0.005698551423847675 472:1.6281576245091856E-4 473:0.0 474:1.0 475:5.698551540262997E-4 476:0.08279181271791458 477:8.140787831507623E-4 478:1.0 479:7.326709455810487E-4 480:7.326709455810487E-4 481:8.140787831507623E-4 482:0.0 483:8.140787831507623E-4 484:4.884472582489252E-4 485:3.256315249018371E-4 486:0.0 487:0.03647072985768318 488:3.256315249018371E-4 489:0.039645638316869736 490:0.06748713552951813 491:0.02222435176372528 492:1.0 493:0.002605052199214697 494:0.002442236291244626 495:0.0016281575663015246 496:4.0703939157538116E-4 497:0.06740572303533554 498:0.002279420616105199 499:0.01652579940855503 500:0.0076523409225046635 501:0.005047288723289967 502:0.11226146668195724 503:0.004558841232210398 504:0.00170956552028656 505:0.031097810715436935 506:0.0021166049409657717 507:5.698551540262997E-4 508:0.001383933937177062 509:0.0011397103080525994 510:0.0030120916198939085 511:0.004070394206792116 512:9.768945164978504E-4 513:0.005210104398429394 514:0.0031749072950333357 515:0.004884472582489252 516:8.954866789281368E-4 517:1.0 518:0.0 519:0.001383933937177062 520:2.442236291244626E-4 521:4.884472582489252E-4 522:1.6281576245091856E-4 523:0.004884472582489252 524:0.006186998914927244 525:0.0011397103080525994 526:0.009606129489839077 527:0.0021166049409657717 528:0.0748138427734375 529:0.002442236291244626 530:0.0021980127785354853 531:0.0016281575663015246 532:0.010501616634428501 533:0.05893930420279503 534:6.512630498036742E-4 535:0.006675445940345526 536:0.0 537:0.003663354553282261 538:0.0021166049409657717 539:0.003907578065991402 540:0.005047288723289967 541:0.003337722970172763 542:0.003663354553282261 543:0.0010583024704828858 544:0.001221118145622313 545:4.884472582489252E-4 546:0.0037447623908519745 547:0.005617143586277962 548:0.0 549:0.00797797180712223 550:4.884472582489252E-4 551:0.001383933937177062 552:1.6281576245091856E-4 553:0.0030120916198939085 554:1.6281576245091856E-4 555:0.00341913104057312 556:0.011641326360404491 557:9.768945164978504E-4 558:0.07847719639539719 559:0.0013025260996073484 560:0.0 561:0.005291512235999107 562:0.007245301268994808 563:0.021491680294275284 564:0.022468574345111847 565:0.06227702647447586 566:0.01945648342370987 567:0.012373997829854488 568:0.001221118145622313 569:0.0018723811954259872 570:0.0 571:0.0 572:1.6281576245091856E-4 573:0.007733748760074377 574:2.442236291244626E-4 575:5.698551540262997E-4 576:3.256315249018371E-4 577:7.326709455810487E-4 578:4.0703939157538116E-4 579:4.0703939157538116E-4 580:4.0703939157538116E-4 581:0.0 582:1.0 583:0.051775410771369934 584:0.001953789032995701 585:8.954866789281368E-4 586:1.6281576245091856E-4 587:0.009280498139560223 588:3.256315249018371E-4 589:0.08857177197933197 590:1.6281576245091856E-4 591:0.017991140484809875 592:0.007245301268994808 593:0.0011397103080525994 594:0.0026864600367844105 595:0.06097450107336044 596:0.007733748760074377 597:0.0014653418911620975 598:1.0 599:0.003907578065991402 600:0.005535735748708248 601:1.0 602:0.00415180204436183 603:4.0703939157538116E-4 604:0.010583024471998215 605:0.0 606:0.002767867874354124 607:0.003907578065991402 608:0.0 609:6.512630498036742E-4 610:0.0035005388781428337 611:0.0 612:0.001383933937177062 613:0.009280498139560223 614:4.884472582489252E-4 615:1.0 616:1.0 617:6.512630498036742E-4 618:0.00415180204436183 619:1.0 620:0.004070394206792116 621:2.442236291244626E-4 622:0.0021980127785354853 623:2.442236291244626E-4 624:0.0017909733578562737 625:1.0 626:1.6281576245091856E-4 627:1.0 628:0.0011397103080525994 629:0.002930683782324195 630:8.954866789281368E-4 631:1.6281576245091856E-4 632:6.512630498036742E-4 633:0.0 634:1.6281576245091856E-4 635:1.0 636:1.6281576245091856E-4 637:0.002279420616105199 638:0.0 639:0.002035197103396058 640:0.00586136756464839 641:3.256315249018371E-4 642:0.002279420616105199 643:1.6281576245091856E-4 644:0.0 645:1.0 646:0.0 647:2.442236291244626E-4 648:0.0013025260996073484 649:0.010908655822277069 650:0.0227942056953907 651:0.018642405048012733 652:0.04461151733994484 653:0.012292589992284775 654:0.048844728618860245 655:0.014490602537989616 656:1.6281576245091856E-4 657:0.0016281575663015246 658:0.005942775402218103 659:0.003093499457463622 660:0.007896563969552517 661:0.01025739312171936 662:0.011885550804436207 663:8.954866789281368E-4 664:0.0023608284536749125 665:0.001953789032995701 666:0.0 667:8.140787831507623E-4 668:5.698551540262997E-4 669:0.002605052199214697 670:0.04330899193882942 671:0.0 672:0.01766550913453102 673:0.014164971187710762 674:1.0 675:4.884472582489252E-4 676:1.0 677:4.0703939157538116E-4 678:1.0 679:0.001546749728731811 680:1.0 681:0.00341913104057312 682:2.442236291244626E-4 683:0.006919669918715954 684:0.008385011926293373 685:0.005779959261417389 686:0.015304681845009327 687:0.017584102228283882 688:1.6281576245091856E-4 689:0.01603735238313675 690:0.0021166049409657717 691:0.05495031923055649 692:0.0025236443616449833 693:0.0 694:2.442236291244626E-4 695:0.0 696:1.0 697:0.001383933937177062 698:0.0014653418911620975 699:8.140787831507623E-4 700:0.00683826208114624 701:0.002930683782324195 702:5.698551540262997E-4 703:0.002279420616105199 704:0.010745840147137642 705:0.0014653418911620975 706:0.00968753732740879 707:0.017584102228283882 708:0.010094577446579933 709:0.0 710:0.003907578065991402 711:0.0 712:2.442236291244626E-4 713:2.442236291244626E-4 714:1.0 715:3.256315249018371E-4 716:0.0026864600367844105 717:0.005291512235999107 718:0.0010583024704828858 719:6.512630498036742E-4 720:1.0 721:0.0527523048222065 722:0.0013025260996073484 723:1.6281576245091856E-4 724:0.0 725:0.0 726:2.442236291244626E-4 727:1.6281576245091856E-4 728:0.0028492757119238377 729:0.00170956552028656 730:0.00341913104057312 731:4.0703939157538116E-4 732:0.0013025260996073484 733:8.140787831507623E-4 734:0.0 735:0.002605052199214697 736:1.0 737:4.884472582489252E-4 738:0.003337722970172763 739:0.0 740:7.326709455810487E-4 741:9.768945164978504E-4 742:0.0 743:0.004070394206792116 744:0.0014653418911620975 745:0.0025236443616449833 746:0.004884472582489252 747:0.0018723811954259872 748:8.140787831507623E-4 749:0.003988985903561115 750:3.256315249018371E-4 751:1.0 752:0.0013025260996073484 753:1.0 754:1.0 755:1.0 756:0.003663354553282261 757:4.884472582489252E-4 758:0.0 759:0.0 760:0.0014653418911620975 761:0.020840417593717575 762:0.004558841232210398 763:0.008873458951711655 764:0.006105591077357531 765:0.005535735748708248 766:0.01261822134256363 767:0.016770023852586746 768:4.884472582489252E-4 769:0.00170956552028656 770:0.007408116944134235 771:0.004884472582489252 772:0.0085478276014328 773:0.007163893431425095 774:0.00170956552028656 775:0.0 776:1.6281576245091856E-4 777:0.0017909733578562737 778:6.512630498036742E-4 779:0.0 780:0.01457201037555933 781:2.442236291244626E-4 782:0.003907578065991402 783:0.039808452129364014 784:0.0032563151326030493 785:0.012048366479575634 786:0.0037447623908519745 787:0.0032563151326030493 788:0.0018723811954259872 789:0.0021166049409657717 790:0.013350891880691051 791:6.512630498036742E-4 792:0.008629235439002514 793:1.0 794:0.0010583024704828858 795:0.012048366479575634 796:0.12862445414066315 797:0.011559918522834778 798:0.0016281575663015246 799:0.008140788413584232 800:0.00944331381469965 801:0.02515503391623497 802:1.0 803:7.326709455810487E-4 804:0.0 805:0.005779959261417389 806:5.698551540262997E-4 807:1.6281576245091856E-4 808:4.0703939157538116E-4 809:0.009768945164978504 810:0.005617143586277962 811:0.08555968105792999 812:0.00341913104057312 813:0.004070394206792116 814:0.005942775402218103 815:0.017421286553144455 816:0.006105591077357531 817:0.006186998914927244 818:0.001953789032995701 819:0.0023608284536749125 820:0.008385011926293373 821:0.0032563151326030493 822:0.005372920073568821 823:0.02637615241110325 824:0.006431222427636385 825:0.2037639170885086 826:0.00512869656085968 827:0.0 828:0.0010583024704828858 829:0.012536813504993916 830:0.03997126966714859 831:8.954866789281368E-4 832:1.0 833:1.0 834:0.002279420616105199 835:0.0 836:0.2222435176372528 837:0.004721656907349825 838:0.1361139714717865 839:0.0 840:1.0 841:0.001383933937177062 842:0.0032563151326030493 843:0.0013025260996073484 844:0.003988985903561115 845:0.001546749728731811 846:0.006594038102775812 847:0.0017909733578562737 848:0.008954866789281368 849:0.004558841232210398 850:0.01139710284769535 851:0.0035005388781428337 852:0.0026864600367844105 853:0.012048366479575634 854:4.0703939157538116E-4 855:0.0030120916198939085 856:0.0014653418911620975 857:0.001383933937177062 858:0.004477433394640684 859:0.0038261704612523317 860:0.01774691790342331 861:0.005047288723289967 862:0.07456962019205093 863:1.0 864:0.09345624595880508 865:0.001221118145622313 866:0.0085478276014328 867:0.009768945164978504 868:0.007896563969552517 869:0.002279420616105199 870:0.00415180204436183 871:0.00586136756464839 872:0.002930683782324195 873:0.007326709106564522 874:0.007001077756285667 875:0.023852508515119553 876:0.044285885989665985 877:0.041518017649650574 878:1.0 879:0.05535735934972763 880:0.053973425179719925 881:8.140787831507623E-4 882:0.05926493555307388 883:0.03085358627140522 884:8.954866789281368E-4 885:0.09060697257518768 886:0.01660720817744732 887:0.02979528345167637 888:6.512630498036742E-4 889:0.053322162479162216 890:0.034516941756010056 891:0.011641326360404491 892:0.022061536088585854 893:0.058613672852516174 894:0.0018723811954259872 895:2.442236291244626E-4 896:0.004070394206792116 897:0.00683826208114624 898:8.954866789281368E-4 899:8.954866789281368E-4 900:0.001221118145622313 901:0.0014653418911620975 902:0.01139710284769535 903:0.008873458951711655 904:1.6281576245091856E-4 905:0.1267520636320114 906:0.00170956552028656 907:4.884472582489252E-4 908:0.1211349219083786 909:9.768945164978504E-4 910:0.008222196251153946 911:0.001953789032995701 912:0.0010583024704828858 913:0.005291512235999107 914:0.0038261704612523317 915:5.698551540262997E-4 916:4.0703939157538116E-4 917:8.140787831507623E-4 918:0.0 919:6.512630498036742E-4 920:0.0065126302652060986 921:0.04387884587049484 922:1.6281576245091856E-4 923:5.698551540262997E-4 924:5.698551540262997E-4 925:6.512630498036742E-4 926:5.698551540262997E-4 927:5.698551540262997E-4 928:0.01880522072315216 929:0.0 930:0.0 931:0.0010583024704828858 932:0.0031749072950333357 933:1.6281576245091856E-4 934:0.0 935:0.001383933937177062 936:8.954866789281368E-4 937:0.00170956552028656 938:5.698551540262997E-4 939:0.1703052818775177 940:0.0076523409225046635 941:1.6281576245091856E-4 942:1.0 943:3.256315249018371E-4 944:0.03923859819769859 945:0.0 946:0.0 947:0.005047288723289967 948:0.020189154893159866 949:0.03712199255824089 950:0.0016281575663015246 951:0.001546749728731811 952:4.0703939157538116E-4 953:0.09076978266239166 954:0.09671255946159363 955:0.0 956:0.05153118818998337 957:1.0 958:0.020433377474546432 959:0.013513708487153053 960:0.0 961:0.011641326360404491 962:0.10859811305999756 963:0.04607686027884483 964:0.06862684339284897 965:0.07741889357566833 966:0.07375553995370865 967:4.0703939157538116E-4 968:0.041925057768821716 969:1.0 970:0.05421764776110649 971:0.0 972:0.03842451795935631 973:0.0 974:0.13334611058235168 975:0.12870585918426514 976:0.09296780079603195 977:0.0762791857123375 978:2.442236291244626E-4 979:1.6281576245091856E-4 980:0.0026864600367844105 981:0.07424398511648178 982:0.00170956552028656 983:0.07033640891313553 984:0.00512869656085968 985:0.0013025260996073484 986:1.6281576245091856E-4 987:0.003907578065991402 988:0.003337722970172763 989:0.011559918522834778 990:0.0 991:0.051612596958875656 992:0.1432778686285019 993:0.04387884587049484 994:0.001546749728731811 995:0.004558841232210398 996:0.0 997:7.326709455810487E-4 998:0.0016281575663015246 999:0.009931761771440506 1000:0.00170956552028656 1001:0.00415180204436183 1002:0.0014653418911620975 1003:0.0011397103080525994 1004:0.009931761771440506 1005:0.0032563151326030493 1006:0.0037447623908519745 1007:0.1674560159444809 1008:3.256315249018371E-4 1009:0.013839339837431908 1010:1.6281576245091856E-4 1011:7.326709455810487E-4 1012:0.004721656907349825 1013:2.442236291244626E-4 1014:0.0014653418911620975 1015:0.0 1016:0.03842451795935631 1017:0.004233209881931543 1018:0.012943852692842484 1019:0.0026864600367844105 1020:0.011641326360404491 1021:0.05828804150223732 1022:0.019293667748570442 1023:0.0018723811954259872 1024:0.0 1025:1.0 1026:0.015630312263965607 1027:6.512630498036742E-4 1028:9.768945164978504E-4 1029:8.140787831507623E-4 1030:0.0013025260996073484 1031:0.0065126302652060986 1032:0.15353526175022125 1033:0.010990063659846783 1034:2.442236291244626E-4 1035:7.326709455810487E-4 1036:4.884472582489252E-4 1037:0.0016281575663015246 1038:0.010338800959289074 1039:0.016770023852586746 1040:3.256315249018371E-4 1041:4.0703939157538116E-4 1042:0.0 1043:0.0011397103080525994 1044:0.010420208796858788 1045:5.698551540262997E-4 1046:0.08018676191568375 1047:0.0054543279111385345 1048:0.0 1049:0.007001077756285667 1050:0.011234287172555923 1051:0.001546749728731811 1052:0.007001077756285667 1053:0.004558841232210398 1054:0.002279420616105199 1055:0.0 1056:0.012292589992284775 1057:0.0014653418911620975 1058:0.0011397103080525994 1059:0.01172273512929678 1060:0.0 1061:0.13994014263153076 1062:0.008059379644691944 1063:0.0 1064:0.00797797180712223 1065:0.02694600820541382 1066:0.013269484043121338 1067:0.006431222427636385 1068:6.512630498036742E-4 1069:0.0 1070:0.0031749072950333357 1071:9.768945164978504E-4 1072:1.0 1073:0.038098886609077454 1074:0.04851909726858139 1075:0.0018723811954259872 1076:0.01652579940855503 1077:0.001953789032995701 1078:1.6281576245091856E-4 1079:1.6281576245091856E-4 1080:4.884472582489252E-4 1081:1.0 1082:1.0 1083:1.6281576245091856E-4 1084:1.0 1085:0.0256434828042984 1086:0.0037447623908519745 1087:0.03932000696659088 1088:0.002767867874354124 1089:3.256315249018371E-4 1090:0.0010583024704828858 1091:0.0011397103080525994 1092:4.0703939157538116E-4 1093:0.0 1094:0.0 1095:4.0703939157538116E-4 1096:5.698551540262997E-4 1097:0.027841495350003242 1098:0.0 1099:0.001546749728731811 1100:0.0025236443616449833 1101:0.0 1102:0.08865318447351456 1103:0.0 1104:0.0 1105:1.6281576245091856E-4 1106:0.0 1107:0.0 1108:0.0791284590959549 1109:0.0 1110:8.140787831507623E-4 1111:0.0 1112:0.03891296684741974 1113:0.021573087200522423 1114:0.07237160205841064 1115:0.003337722970172763 1116:0.02678319253027439 1117:0.08319885283708572 1118:0.019619299098849297 1119:0.05381060764193535 1120:0.08425715565681458 1121:0.021898720413446426 1122:0.058532264083623886 1123:0.028167126700282097 1124:0.08409433811903 1125:0.12284448742866516 1126:0.1033065989613533 1127:0.028818389400839806 1128:0.0018723811954259872 1129:0.029876692220568657 1130:0.0076523409225046635 1131:0.09109541773796082 1132:0.05609003081917763 1133:0.013025260530412197 1134:0.05584580451250076 1135:0.0021980127785354853 1136:0.024340955540537834 1137:0.004070394206792116 1138:0.016770023852586746 1139:0.0028492757119238377 1140:0.003337722970172763 1141:0.0023608284536749125 1142:0.002035197103396058 1143:2.442236291244626E-4 1144:1.0 1145:0.0 1146:0.006431222427636385 1147:0.002930683782324195 1148:7.326709455810487E-4 1149:0.0011397103080525994 1150:0.0017909733578562737 1151:0.013595116324722767 1152:0.019700706005096436 1153:0.0018723811954259872 1154:0.001546749728731811 1155:0.07432539761066437 1156:0.015630312263965607 1157:0.0048030647449195385 1158:0.022387167438864708 1159:0.009280498139560223 1160:0.04591404274106026 1161:0.03826170414686203 1162:9.768945164978504E-4 1163:3.256315249018371E-4 1164:1.0 1165:0.007082485593855381 1166:6.512630498036742E-4 1167:0.001221118145622313 1168:0.001546749728731811 1169:0.0 1170:0.002930683782324195 1171:1.6281576245091856E-4 1172:1.6281576245091856E-4 1173:0.0025236443616449833 1174:0.032888785004615784 1175:6.512630498036742E-4 1176:0.014734826050698757 1177:3.256315249018371E-4 1178:0.12740333378314972 1179:0.002279420616105199 1180:0.007408116944134235 1181:0.004477433394640684 1182:0.010094577446579933 1183:8.954866789281368E-4 1184:0.006105591077357531 1185:2.442236291244626E-4 1186:0.06097450107336044 1187:0.008466419763863087 1188:4.0703939157538116E-4 1189:4.0703939157538116E-4 1190:0.01660720817744732 1191:6.512630498036742E-4 1192:0.0 1193:0.0 1194:0.0 1195:2.442236291244626E-4 1196:0.007408116944134235 1197:0.02059619314968586 1198:0.0320747047662735 1199:0.0032563151326030493 1200:0.022468574345111847 1201:4.884472582489252E-4 1202:0.0025236443616449833 1203:0.0605674609541893 1204:0.0013025260996073484 1205:0.001546749728731811 1206:0.001383933937177062 1207:0.0035005388781428337 1208:0.0014653418911620975 1209:0.0013025260996073484 1210:4.0703939157538116E-4 1211:1.0 1212:0.001383933937177062 1213:0.018072549253702164 1214:5.698551540262997E-4 1215:0.0043960255570709705 1216:9.768945164978504E-4 1217:0.0 1218:1.6281576245091856E-4 1219:0.0 1220:1.6281576245091856E-4 1221:0.0 1222:3.256315249018371E-4 1223:0.0 1224:0.0 1225:1.6281576245091856E-4 1226:3.256315249018371E-4 1227:0.0 1228:0.0 1229:0.0 1230:0.0 1231:0.0 1232:1.6281576245091856E-4 1233:0.0 1234:0.0 1235:1.0 1236:0.0 1237:2.442236291244626E-4 1238:0.0 1239:0.0 1240:4.0703939157538116E-4 1241:1.6281576245091856E-4 1242:0.0 1243:0.0 1244:1.6281576245091856E-4 1245:1.0 1246:0.0 1247:0.0 1248:0.0 1249:1.0 1250:3.256315249018371E-4 1251:4.0703939157538116E-4 1252:0.0 1253:0.0 1254:1.6281576245091856E-4 1255:1.0 1256:1.6281576245091856E-4 1257:0.0 1258:0.0 1259:3.256315249018371E-4 1260:1.6281576245091856E-4 1261:4.0703939157538116E-4 1262:0.0 1263:0.0 1264:0.0 1265:1.6281576245091856E-4 1266:0.0 1267:1.6281576245091856E-4 1268:1.0 1269:0.0 1270:1.0 1271:0.0 1272:1.0 1273:1.0 1274:0.0 1275:1.6281576245091856E-4 1276:0.0 1277:4.0703939157538116E-4 1278:0.0 1279:1.0 1280:3.256315249018371E-4 1281:2.442236291244626E-4 1282:4.0703939157538116E-4 1283:0.0 1284:7.326709455810487E-4 1285:3.256315249018371E-4 1286:0.0 1287:2.442236291244626E-4 1288:0.0 1289:0.0 1290:1.6281576245091856E-4 1291:4.884472582489252E-4 1292:4.0703939157538116E-4 1293:1.0 1294:0.0 1295:0.0013025260996073484 1296:0.0 1297:0.0 1298:0.0 1299:0.0 1300:0.0 1301:0.0 1302:0.0 1303:0.0 1304:0.0 1305:0.0 1306:8.954866789281368E-4 1307:0.0 1308:1.6281576245091856E-4 1309:1.0 1310:1.6281576245091856E-4 1311:0.0 1312:0.0 1313:0.0 1314:0.0 1315:1.0 1316:1.6281576245091856E-4 1317:0.0 1318:0.0 1319:0.0 1320:0.0 1321:0.0 1322:0.0 1323:2.442236291244626E-4 1324:0.0 1325:0.0 1326:0.0 1327:0.0 1328:1.0 1329:0.0 1330:0.0 1331:0.0 1332:0.0 1333:0.0 1334:0.0 1335:0.0 1336:0.0 1337:0.0 1338:0.0 1339:1.0 1340:0.0 1341:0.0 1342:0.0 1343:1.0 1344:0.0 1345:0.0 1346:0.0 1347:0.0 1348:0.0 1349:0.0 1350:0.0 1351:0.0 1352:0.0 1353:0.0 1354:0.0 1355:0.0 1356:0.0 1357:0.0 1358:0.0 1359:0.0 1360:0.0 1361:0.0 1362:0.0 1363:1.0 1364:0.0 1365:0.0 1366:0.0 1367:0.0 1368:0.0 1369:0.0 1370:0.0 1371:0.0 1372:1.6281576245091856E-4 1373:0.0 1374:0.0 1375:0.0 1376:0.0 1377:0.0 1378:0.0 1379:0.0 1380:0.0 1381:0.0 1382:0.0 1383:0.0 1384:0.0 1385:0.0 1386:0.0 1387:0.0 1388:0.0 1389:0.0 1390:0.0 1391:0.0 1392:0.0 1393:0.0 1394:0.0 1395:0.0 1396:0.0 1397:0.0 1398:0.0 1399:0.0 1400:0.0 1401:0.0 1402:0.0 1403:0.0 1404:0.0 1405:0.0 1406:0.0 1407:0.0 1408:0.0 1409:0.0 1410:0.0 1411:0.0 1412:1.0 1413:0.0 1414:0.0 1415:0.0 1416:0.0 1417:0.0 1418:0.0 1419:0.0 1420:0.0 1421:0.0 1422:0.0 1423:0.0 1424:0.0 1425:4.0703939157538116E-4 1426:1.0 1427:0.0 1428:0.0 1429:0.0 1430:0.0 1431:0.0 1432:0.0 1433:0.0 1434:0.0 1435:0.0 1436:0.0 1437:0.0 1438:0.0 1439:0.0 1440:0.0 1441:0.0 1442:0.0 1443:0.0 1444:1.0 1445:4.0703939157538116E-4 1446:0.0 1447:0.0 1448:2.442236291244626E-4 1449:0.0 1450:1.0 1451:0.0 1452:0.0 1453:0.0 1454:0.0 1455:0.0 1456:0.0 1457:0.0 1458:0.0 1459:0.0 1460:0.0 1461:0.0 1462:0.0 1463:0.0 1464:0.0 1465:0.0 1466:0.0 1467:0.0 1468:0.0 1469:0.0 1470:0.0 1471:0.0 1472:0.0 1473:0.0 1474:0.0 1475:0.0 1476:0.0 1477:1.6281576245091856E-4 1478:0.0 1479:0.0 1480:0.0 1481:1.0 1482:0.0 1483:0.0 1484:0.0 1485:0.0 1486:0.0 1487:1.0 1488:0.0 1489:0.0 1490:0.0 1491:0.0 1492:0.0 1493:0.0 1494:0.0 1495:0.0 1496:0.0 1497:0.0 1498:0.0 1499:0.0 1500:0.0 1501:1.0 1502:0.0 1503:9.768945164978504E-4 1504:2.442236291244626E-4 1505:0.0 1506:0.0 1507:0.0 1508:0.0 1509:0.0 1510:0.0 1511:0.0 1512:0.0 1513:0.0 1514:0.0 1515:0.0 1516:0.0 1517:0.0 1518:0.0 1519:0.0 1520:0.0 1521:0.0 1522:0.0 1523:0.0 1524:0.0 1525:0.0 1526:0.0 1527:0.0 1528:0.0 1529:0.0 1530:0.0 1531:0.0 1532:0.0 1533:0.0 1534:0.0 1535:0.0 1536:0.0 1537:0.0 1538:0.0 1539:0.0 1540:0.0 1541:0.0 1542:0.0 1543:0.0 1544:0.0 1545:0.0 1546:0.0 1547:0.0 1548:0.0 1549:0.0 1550:0.0 1551:0.0 1552:0.0 1553:0.0 1554:0.0 1555:0.0 1556:0.0 1557:0.0 1558:1.0 1559:0.0 1560:0.0 1561:0.0 1562:0.0 1563:0.0 1564:1.0 1565:0.0 1566:0.0 1567:0.0 1568:0.0 1569:0.0 1570:0.0 1571:0.0 1572:0.0 1573:0.0 1574:0.0 1575:0.0 1576:0.0 1577:0.0 1578:0.0 1579:0.0 1580:0.0 1581:1.0 1582:0.0 1583:0.0 1584:1.0 1585:0.0 1586:0.0 1587:0.0 1588:0.0 1589:1.0 1590:0.0 1591:0.0 1592:1.0 1593:0.0 1594:0.0 1595:0.0 1596:0.0 1597:0.0 1598:0.0 1599:0.0 1600:0.0 1601:0.0 1602:1.0 1603:0.0 1604:0.0 1605:0.0 1606:0.0 1607:0.0 1608:0.0 1609:0.0 1610:0.0 1611:0.0 1612:0.0 1613:0.0 1614:0.0 1615:0.0 1616:1.0 1617:0.0 1618:0.0 1619:0.0 1620:0.0 1621:0.0 1622:0.0 1623:0.0 1624:0.0 1625:0.0 1626:0.0 1627:0.0 1628:1.0 1629:1.0 1630:0.0 1631:0.0 1632:0.0 1633:0.0 1634:0.0 1635:0.0 1636:0.0 1637:0.0 1638:0.0 1639:0.0 1640:0.0 1641:0.0 1642:0.0 1643:0.0 1644:0.0 1645:0.0 1646:0.0 1647:0.0 1648:0.0 1649:0.0 1650:1.0 1651:0.0 1652:0.0 1653:0.0 1654:1.0 1655:0.0 1656:0.0 1657:0.0 1658:0.0 1659:0.0 1660:0.0 1661:0.0 1662:0.0 1663:0.0 1664:0.0 1665:1.0 1666:0.0 1667:0.0 1668:0.0 1669:0.0 1670:0.0 1671:0.0 1672:0.0 1673:0.0 1674:0.0 1675:0.0 1676:0.0 1677:0.0 1678:0.0 1679:0.0 1680:0.0 1681:0.0 1682:0.0 1683:0.0 1684:0.0 1685:1.0 1686:0.0 1687:0.0 1688:0.0 1689:0.0 1690:0.0 1691:0.0 1692:0.0 1693:0.0 1694:0.0 1695:0.0 1696:1.0 1697:1.6281576245091856E-4 1698:0.0 1699:0.0 1700:0.0 1701:0.0 1702:0.0 1703:0.0 1704:0.0 1705:0.0 1706:0.0 1707:0.0 1708:0.0 1709:0.0 1710:0.0 1711:0.0 1712:0.0 1713:0.0 1714:0.0 1715:0.0 1716:0.0 1717:0.0 1718:0.0 1719:0.0 1720:0.0 1721:0.0 1722:0.0 1723:0.0 1724:0.0 1725:0.0 1726:0.0 1727:0.0 1728:0.0 1729:0.0 1730:0.0 1731:0.0 1732:0.0 1733:0.0 1734:0.0 1735:0.0 1736:0.0 1737:0.0 1738:0.0 1739:0.0 1740:0.0 1741:0.0 1742:0.0 1743:0.0 1744:0.0 1745:0.0 1746:0.0 1747:0.0 1748:0.0 1749:0.0 1750:0.0 1751:0.0 1752:0.0 1753:0.0 1754:0.0 1755:0.0 1756:0.0 1757:0.0 1758:0.0 1759:0.0 1760:0.0 1761:0.0 1762:0.0 1763:0.0 1764:0.0 1765:0.0 1766:0.0 1767:0.0 1768:0.0 1769:0.0 1770:0.0 1771:0.0 1772:0.0 1773:0.0 1774:0.0 1775:0.0 1776:0.0 1777:0.0 1778:0.0 1779:0.0 1780:0.0 1781:0.0 1782:0.0 1783:0.0 1784:0.0 1785:0.0 1786:0.0 1787:0.0 1788:0.0 1789:0.0 1790:0.0 1791:0.0 1792:0.0 1793:0.0 1794:0.0 1795:0.0 1796:0.0 1797:0.0 1798:0.0 1799:0.0 1800:0.0 1801:0.0 1802:0.0 1803:0.0 1804:0.0 1805:0.0 1806:0.0 1807:0.0 1808:0.0 1809:0.0 1810:0.0 1811:0.0 1812:0.0 1813:0.0 1814:0.0 1815:0.0 1816:0.0 1817:0.0 1818:0.0 1819:0.0 1820:0.0 1821:0.0 1822:0.0 1823:0.0 1824:0.0 1825:0.0 1826:0.0 1827:0.0 1828:0.0 1829:0.0 1830:0.0 1831:0.0 1832:0.0 1833:0.0 1834:0.0 1835:0.0 1836:0.0 1837:0.0 1838:0.0 1839:0.0 1840:0.0 1841:0.0 1842:0.0 1843:0.0 1844:0.0 1845:0.0 1846:0.0 1847:0.0 1848:0.0 1849:0.0 1850:0.0 1851:0.0 1852:0.0 1853:0.0 1854:0.0 1855:0.0 1856:0.0 1857:0.0 1858:0.0 1859:0.0 1860:0.0 1861:0.0 1862:0.0 1863:0.0 1864:0.0 1865:0.0 1866:0.0 1867:0.0 1868:0.0 1869:0.0 1870:0.0 1871:0.0 1872:0.0 1873:0.0 1874:0.0 1875:0.0 1876:0.0 1877:0.0 1878:0.0 1879:0.0 1880:0.0 1881:0.0 1882:0.0 1883:0.0 1884:0.0 1885:0.0 1886:0.0 1887:0.0 1888:0.0 1889:0.0 1890:0.0 1891:0.0 1892:0.0 1893:0.0 1894:0.0 1895:0.0 1896:0.0 1897:0.0 1898:0.0 1899:0.0 1900:0.0 1901:0.0 1902:0.0 1903:0.0
