SVM-light Version V6.01
0 # kernel type
40 # kernel parameter -d
200.0 # kernel parameter -g
3.0 # kernel parameter -s
3.0 # kernel parameter -r
empty# kernel parameter -u
1868 # highest feature index
590 # number of training documents
135 # number of support vectors plus 1
-0.5496354414479178 # threshold b, each following line is a SV (starting with alpha*y)
-0.01574259148675738 1:0.010662427172064781 2:0.08119848370552063 3:0.09842240065336227 4:0.09022053331136703 5:0.040189146995544434 6:0.03362765535712242 7:0.0 8:0.04593045637011528 9:0.03690840303897858 10:0.1320500522851944 11:0.07463698834180832 12:0.061514001339673996 13:0.12466838210821152 14:0.06561493873596191 15:0.13697117567062378 16:0.23293302953243256 17:0.04182952269911766 18:0.0147633608430624 19:0.0024605600629001856 20:0.16403734683990479 21:0.1525547206401825 22:0.031987279653549194 23:0.023785414174199104 24:0.025425788015127182 25:0.019684480503201485 26:0.14517304301261902 27:0.02296522818505764 28:0.019684480503201485 29:0.0 30:1.0 31:0.0 32:0.0 33:0.18536219000816345 34:0.01640373468399048 35:0.0 36:0.15419510006904602 37:0.00410093367099762 38:0.022145040333271027 39:0.0 40:0.012302800081670284 41:0.0024605600629001856 42:1.0 43:0.0016403733752667904 44:0.04593045637011528 45:0.009842240251600742 46:0.00410093367099762 47:0.0 48:0.0 49:1.0 50:1.0 51:0.0705360546708107 52:0.013943173922598362 53:1.0 54:0.022145040333271027 55:0.0032807467505335808 56:0.2870653569698334 57:0.0024605600629001856 58:0.0016403733752667904 59:0.0 60:0.0 61:0.02460560016334057 62:0.010662427172064781 63:0.07299661636352539 64:0.00574130704626441 65:0.0 66:0.0 67:0.0 68:0.0 69:0.0 70:0.0024605600629001856 71:1.0 72:0.24605600535869598 73:0.0016403733752667904 74:0.0 75:1.0 76:0.0 77:0.05249194800853729 78:0.0 79:0.00574130704626441 80:0.0 81:0.2066870480775833 82:0.0065614935010671616 83:0.0 84:0.0 85:0.0 86:0.0032807467505335808 87:0.00574130704626441 88:0.0 89:0.03690840303897858 90:1.0 91:0.10170315206050873 92:0.0 93:0.0024605600629001856 94:0.0016403733752667904 95:0.17880070209503174 96:0.013943173922598362 97:0.009022053331136703 98:1.0 99:0.021324854344129562 100:0.042649708688259125 101:0.004921120125800371 102:0.0073816804215312 103:0.0065614935010671616 104:0.017223920673131943 105:0.05249194800853729 106:0.0065614935010671616 107:0.0 108:0.0147633608430624 109:0.012302800081670284 110:0.0 111:0.0590534433722496 112:0.0 113:0.009842240251600742 114:0.022145040333271027 115:0.03280746936798096 116:0.013122987002134323 117:0.028706533834338188 118:0.013943173922598362 119:0.013943173922598362 120:0.04593045637011528 121:0.04593045637011528 122:0.1090848296880722 123:0.0 124:0.0 125:0.0 126:0.0 127:0.0024605600629001856 128:0.0 129:0.05987362936139107 130:0.0065614935010671616 131:0.0 132:0.0073816804215312 133:0.0032807467505335808 134:0.0073816804215312 135:0.0 136:0.0073816804215312 137:0.0024605600629001856 138:0.01148261409252882 139:0.00574130704626441 140:0.01558354776352644 141:0.009022053331136703 142:0.08201867341995239 143:0.0590534433722496 144:0.012302800081670284 145:0.00820186734199524 146:0.01886429451406002 147:0.004921120125800371 148:0.0065614935010671616 149:0.0 150:0.0 151:0.0016403733752667904 152:0.022145040333271027 153:0.021324854344129562 154:0.00820186734199524 155:0.00410093367099762 156:0.004921120125800371 157:0.0016403733752667904 158:0.0 159:0.0 160:0.0 161:1.0 162:0.0024605600629001856 163:0.0065614935010671616 164:1.0 165:0.0 166:0.00574130704626441 167:0.009022053331136703 168:0.0032807467505335808 169:0.0 170:1.0 171:0.0016403733752667904 172:0.017223920673131943 173:0.0 174:1.0 175:0.0 176:0.020504668354988098 177:0.00574130704626441 178:1.0 179:0.0 180:0.01886429451406002 181:0.0 182:1.0 183:0.0 184:0.046750642359256744 185:0.00410093367099762 186:0.01558354776352644 187:0.017223920673131943 188:0.0 189:1.0 190:0.0 191:0.0016403733752667904 192:0.1410721093416214 193:0.0590534433722496 194:0.03280746936798096 195:0.020504668354988098 196:0.0 197:0.0 198:0.06315437704324722 199:0.0 200:0.0 201:0.0032807467505335808 202:0.0016403733752667904 203:0.0 204:0.009022053331136703 205:0.004921120125800371 206:0.0065614935010671616 207:0.06397455930709839 208:0.0 209:0.0 210:1.0 211:0.0 212:0.00574130704626441 213:0.0 214:0.0 215:0.00410093367099762 216:0.009022053331136703 217:1.0 218:1.0 219:0.09514165669679642 220:0.07791773974895477 221:0.0016403733752667904 222:0.0 223:1.0 224:0.0 225:0.0 226:0.0 227:1.0 228:0.0 229:1.0 230:0.0 231:0.0016403733752667904 232:1.0 233:0.0032807467505335808 234:0.0032807467505335808 235:1.0 236:1.0 237:0.01886429451406002 238:0.0 239:0.09596184641122818 240:0.0024605600629001856 241:0.021324854344129562 242:0.041009336709976196 243:0.1025233343243599 244:0.050851576030254364 245:0.004921120125800371 246:0.03772858902812004 247:0.05167176201939583 248:0.00410093367099762 249:0.009022053331136703 250:0.00410093367099762 251:1.0 252:0.0065614935010671616 253:0.00574130704626441 254:0.0032807467505335808 255:0.009842240251600742 256:1.0 257:0.06971587240695953 258:0.0 259:0.06479474902153015 260:0.0 261:0.0 262:0.00820186734199524 263:0.018044106662273407 264:0.020504668354988098 265:0.08119848370552063 266:0.0 267:0.0073816804215312 268:1.0 269:0.0073816804215312 270:0.05659288167953491 271:0.00574130704626441 272:0.00410093367099762 273:0.01640373468399048 274:0.018044106662273407 275:0.12876930832862854 276:0.00820186734199524 277:0.33299580216407776 278:0.0032807467505335808 279:0.0024605600629001856 280:0.04757082834839821 281:0.0032807467505335808 282:0.00410093367099762 283:0.0024605600629001856 284:0.0 285:0.01886429451406002 286:0.0 287:0.2001255601644516 288:0.00820186734199524 289:0.013122987002134323 290:0.021324854344129562 291:0.00820186734199524 292:0.02460560016334057 293:0.32889485359191895 294:0.07545717805624008 295:0.0073816804215312 296:0.0016403733752667904 297:0.009842240251600742 298:0.00410093367099762 299:0.026245974004268646 300:0.03772858902812004 301:0.04511026665568352 302:0.054952509701251984 303:0.023785414174199104 304:0.040189146995544434 305:0.010662427172064781 306:0.01148261409252882 307:0.019684480503201485 308:0.020504668354988098 309:0.04921120032668114 310:0.08037829399108887 311:1.0 312:0.03936896100640297 313:0.034447841346263885 314:0.05577269569039345 315:0.0032807467505335808 316:0.027886347845196724 317:0.0295267216861248 318:0.042649708688259125 319:0.0024605600629001856 320:0.0016403733752667904 321:0.0073816804215312 322:1.0 323:0.0032807467505335808 324:0.00820186734199524 325:0.05167176201939583 326:0.0 327:0.0 328:0.0 329:0.0 330:0.00574130704626441 331:0.0 332:0.0073816804215312 333:0.0 334:0.00820186734199524 335:0.0 336:0.0065614935010671616 337:0.0 338:0.0024605600629001856 339:0.009842240251600742 340:0.0 341:0.028706533834338188 342:0.03772858902812004 343:0.01640373468399048 344:0.021324854344129562 345:0.0024605600629001856 346:0.009022053331136703 1217:0.0 1218:0.0 1219:0.0 1220:1.0 1221:0.0 1222:0.0 1223:0.0 1224:0.0 1225:0.0 1226:0.0 1227:0.0 1228:0.0 1229:0.0 1230:0.0 1231:0.0 1232:0.0 1233:0.0 1234:0.0 1235:0.0 1236:1.0 1237:1.0 1238:0.0 1239:0.0 1240:1.0 1241:0.0 1242:0.0 1243:0.0 1302:0.0 1303:0.0 1304:0.0 1305:0.0 1306:0.0016403733752667904 1307:0.0 1308:0.0 1309:0.0 1335:0.0 1337:0.0 1339:0.0 1340:0.0 1341:0.0 1343:1.0 1346:1.0 1348:0.0 1349:0.0 1351:0.0 1356:0.0 1357:0.0 1359:0.0 1361:0.0 1363:0.0 1364:0.0 1366:0.0 1368:0.0 1371:0.0 1372:0.0 1374:0.0 1378:0.0 1379:0.0 1380:0.0 1381:0.0 1382:0.0 1383:0.0 1384:0.0 1387:0.0 1388:0.0 1389:0.0 1391:0.0 1392:0.0 1393:0.0 1394:0.0 1395:0.0 1396:0.0 1397:0.0 1398:0.0 1399:0.0 1400:0.0 1401:0.0 1402:0.0 1403:0.0 1405:0.0 1406:0.0 1407:0.0 1408:0.0 1409:0.0 1412:0.0 1413:0.0 1414:0.0 1564:0.0 1565:0.0 1566:0.0 1581:0.0 1582:0.0 1583:0.0 1584:0.0 1585:0.0 1586:0.0 1587:0.0 1592:1.0 1595:0.0 1596:0.0 1597:0.0 1598:0.0 1599:0.0 1600:0.0 1601:0.0 1602:0.0 1622:0.0 1624:0.0 1625:0.0 1626:0.0 1627:0.0 1643:0.0 1645:0.0 1648:0.0 1656:0.0 1664:0.0 1665:0.0 1677:0.0 1683:0.0 1684:0.0 1685:0.0 1687:0.0 1691:0.0 1692:0.0 1693:0.0 1696:0.0 1698:0.0 1701:0.0 1709:0.0 1710:0.0 1712:0.0 1727:0.0 1728:0.0 1729:0.0 1758:0.0 1760:0.0 1768:0.0 1776:0.0 1777:0.0 1778:0.0 1779:0.0 1780:0.0 1781:0.0 1782:0.0 1798:0.0 1799:0.0 1800:0.0 1801:0.0 1835:0.0 1856:0.0 1857:0.0 1858:0.0 1859:0.0 1868:0.0
0.006404100941471397 1:0.00537326792255044 2:0.07522575557231903 3:0.09149908274412155 4:0.0738440603017807 5:0.036845266819000244 6:0.024256467819213867 7:1.0 8:0.06724261492490768 9:0.038687530905008316 10:0.13295000791549683 11:0.08474411815404892 12:0.07123418152332306 13:0.17808546125888824 14:0.08167367428541183 15:0.2001926153898239 16:0.14369654655456543 17:0.045288972556591034 18:0.02609873190522194 19:0.0019957853946834803 20:0.13786271214485168 21:0.24947316944599152 22:0.048205889761447906 23:0.034081872552633286 24:0.015352195128798485 25:0.006601443514227867 26:0.10285970568656921 27:0.021646594628691673 28:0.005833833944052458 29:0.0 30:0.0 31:0.0 32:0.0 33:0.13110774755477905 34:0.017655024304986 35:0.0012281755916774273 36:0.08919624984264374 37:0.002916916972026229 38:0.018883200362324715 39:1.0 40:0.005833833944052458 41:0.0 42:6.140877958387136E-4 43:6.140877958387136E-4 44:0.04513545334339142 45:0.00951836071908474 46:0.005526789929717779 47:0.006447921972721815 48:6.140877958387136E-4 49:4.6056584687903523E-4 50:3.070438979193568E-4 51:0.05050871893763542 52:0.018269112333655357 53:0.0 54:0.02256772667169571 55:0.0027633949648588896 56:0.20172783732414246 57:0.001842263387516141 58:0.0 59:0.001842263387516141 60:3.070438979193568E-4 61:0.031625520437955856 62:0.021800115704536438 63:0.052350983023643494 64:0.0093648387119174 65:0.0 66:0.0 67:0.0 68:1.0 69:0.0 70:0.001842263387516141 71:0.0019957853946834803 72:0.33099332451820374 73:9.211316937580705E-4 74:6.140877958387136E-4 75:0.0016887413803488016 76:3.070438979193568E-4 77:0.04943406581878662 78:3.070438979193568E-4 79:0.007522575557231903 80:6.140877958387136E-4 81:0.2224532961845398 82:0.004452136345207691 83:4.6056584687903523E-4 84:4.6056584687903523E-4 85:1.0 86:4.6056584687903523E-4 87:0.0046056583523750305 88:0.0 89:0.05480733513832092 90:4.6056584687903523E-4 91:0.11283863335847855 92:7.676097447983921E-4 93:7.676097447983921E-4 94:3.070438979193568E-4 95:0.10884705930948257 96:0.009057794697582722 97:0.007829619571566582 98:4.6056584687903523E-4 99:0.013202887028455734 100:0.03776640072464943 101:0.0027633949648588896 102:0.008443706668913364 103:0.0041450927965343 104:0.008443706668913364 105:0.05757072940468788 106:0.0030704389791935682 107:4.6056584687903523E-4 108:0.01550571620464325 109:0.009057794697582722 110:0.0 111:0.021800115704536438 112:1.0 113:0.0039915707893669605 114:0.016733892261981964 115:0.03177904337644577 116:0.008904272690415382 117:0.018269112333655357 118:0.00813666358590126 119:0.009825404733419418 120:0.021953638643026352 121:0.05434677004814148 122:0.07123418152332306 123:0.0 124:0.0 125:1.0 126:0.0 127:6.140877958387136E-4 128:1.0 129:0.02502407692372799 130:0.001074653584510088 131:0.0 132:0.012435277923941612 133:4.6056584687903523E-4 134:0.001842263387516141 135:0.0 136:0.00475918035954237 137:6.140877958387136E-4 138:0.0041450927965343 139:0.005833833944052458 140:0.0027633949648588896 141:0.012742321938276291 142:0.05511437729001045 143:0.05972003564238548 144:0.005833833944052458 145:0.0050662243738770485 146:0.00475918035954237 147:0.002149307169020176 148:0.006447921972721815 149:1.0 150:0.0 151:4.6056584687903523E-4 152:0.022414203733205795 153:0.010285970754921436 154:0.0019957853946834803 155:0.0019957853946834803 156:0.0016887413803488016 157:1.0 158:0.0 159:0.0 160:4.6056584687903523E-4 161:0.0015352194895967841 162:4.6056584687903523E-4 163:0.007215531542897224 164:3.070438979193568E-4 165:1.0 166:0.00475918035954237 167:0.018422633409500122 168:0.0019957853946834803 169:9.211316937580705E-4 170:3.070438979193568E-4 171:3.070438979193568E-4 172:0.02502407692372799 173:1.0 174:3.070438979193568E-4 175:3.070438979193568E-4 176:0.011974711902439594 177:6.140877958387136E-4 178:0.0 179:7.676097447983921E-4 180:0.03239313140511513 181:0.005219746381044388 182:6.140877958387136E-4 183:0.0013816974824294448 184:0.05925947055220604 185:0.001842263387516141 186:0.025945208966732025 187:0.027633950114250183 188:0.0 189:4.6056584687903523E-4 190:0.0 191:0.001074653584510088 192:0.1349457949399948 193:0.10255265980958939 194:0.02333533577620983 195:0.023488858714699745 196:1.0 197:1.0 198:0.062329910695552826 199:0.0012281755916774273 200:1.0 201:0.005987355951219797 202:0.0019957853946834803 203:0.0023028291761875153 204:0.007369053550064564 205:0.017194457352161407 206:0.007983141578733921 207:0.04897350072860718 208:4.6056584687903523E-4 209:1.0 210:9.211316937580705E-4 211:0.001842263387516141 212:0.02640577405691147 213:3.070438979193568E-4 214:0.0012281755916774273 215:0.0035310047678649426 216:0.011514145880937576 217:6.140877958387136E-4 218:0.0016887413803488016 219:0.08597228676080704 220:0.124045729637146 221:0.001074653584510088 222:1.0 223:0.001842263387516141 224:1.0 225:4.6056584687903523E-4 226:4.6056584687903523E-4 227:3.070438979193568E-4 228:0.001842263387516141 229:7.676097447983921E-4 230:9.211316937580705E-4 231:7.676097447983921E-4 232:4.6056584687903523E-4 233:9.211316937580705E-4 234:0.0024563511833548546 235:1.0 236:0.0012281755916774273 237:0.0385340079665184 238:0.0012281755916774273 239:0.09763995558023453 240:0.0019957853946834803 241:0.01688741333782673 242:0.04298614338040352 243:0.08274833112955093 244:0.021800115704536438 245:0.007983141578733921 246:0.04636362940073013 247:0.016426848247647285 248:0.0035310047678649426 249:0.0035310047678649426 250:0.001842263387516141 251:0.0032239609863609076 252:0.0030704389791935682 253:0.0024563511833548546 254:0.0012281755916774273 255:0.00537326792255044 256:0.0024563511833548546 257:0.04329318925738335 258:0.0 259:0.036845266819000244 260:0.0 261:4.6056584687903523E-4 262:0.003838048782199621 263:0.013356409035623074 264:0.02256772667169571 265:0.08643285930156708 266:0.0 267:0.0033774827606976032 268:0.0016887413803488016 269:0.0046056583523750305 270:0.04728475958108902 271:0.0050662243738770485 272:0.0013816974824294448 273:0.03884105384349823 274:0.02748042903840542 275:0.05296507105231285 276:0.01550571620464325 277:0.44367843866348267 278:0.003684526775032282 279:0.001842263387516141 280:0.05219746381044388 281:0.004912702366709709 282:0.009671882726252079 283:0.0032239609863609076 284:0.0056803119368851185 285:0.010593014769256115 286:1.0 287:0.18806438148021698 288:0.009978926740586758 289:9.211316937580705E-4 290:0.02932269126176834 291:0.001842263387516141 292:0.021032506600022316 293:0.2450210303068161 294:0.007369053550064564 295:0.015045151114463806 296:0.0061408779583871365 297:0.0061408779583871365 298:0.0023028291761875153 299:0.021032506600022316 300:0.04099036008119583 301:0.07522575557231903 302:0.04943406581878662 303:0.02364237979054451 304:0.06386513262987137 305:0.014891629107296467 306:0.020725462585687637 307:0.017655024304986 308:0.011053579859435558 309:0.037919919937849045 310:0.061562299728393555 311:7.676097447983921E-4 312:0.059105951339006424 313:0.03607765585184097 314:0.04835941269993782 315:0.007522575557231903 316:0.0198043305426836 317:0.0374593548476696 318:0.062022864818573 319:0.0024563511833548546 320:0.001074653584510088 321:0.007676097564399242 322:0.001842263387516141 323:4.6056584687903523E-4 324:0.009978926740586758 325:0.05972003564238548 326:4.6056584687903523E-4 327:7.676097447983921E-4 328:0.0023028291761875153 329:0.0 330:6.140877958387136E-4 331:1.0 332:0.0041450927965343 333:0.0 334:1.0 335:0.0 336:0.0738440603017807 337:0.0 338:0.003838048782199621 339:0.001842263387516141 340:0.0 341:0.031932566314935684 342:0.053118593990802765 343:0.018576156347990036 344:0.013816975057125092 345:6.140877958387136E-4 346:0.005987355951219797 1217:3.070438979193568E-4 1218:1.0 1219:3.070438979193568E-4 1220:1.0 1221:0.001074653584510088 1222:3.070438979193568E-4 1223:1.0 1224:1.0 1225:3.070438979193568E-4 1226:1.0 1227:1.0 1228:1.0 1229:1.0 1230:3.070438979193568E-4 1231:1.0 1232:1.0 1233:1.0 1234:3.070438979193568E-4 1235:1.0 1236:6.140877958387136E-4 1237:4.6056584687903523E-4 1238:1.0 1239:4.6056584687903523E-4 1240:6.140877958387136E-4 1241:3.070438979193568E-4 1242:1.0 1243:1.0 1302:0.0 1303:0.0 1304:0.0 1305:0.0 1306:0.0 1307:0.0 1308:0.0 1309:0.0 1335:0.0 1337:0.0 1339:0.0 1340:0.0 1341:0.0 1343:0.0 1346:0.0 1348:0.0 1349:0.0 1351:0.0 1356:0.0 1357:0.0 1359:0.0 1361:0.0 1363:0.0 1364:0.0 1366:0.0 1368:0.0 1371:0.0 1372:0.0 1374:0.0 1378:0.0 1379:0.0 1380:0.0 1381:0.0 1382:0.0 1383:0.0 1384:0.0 1387:0.0 1388:0.0 1389:0.0 1391:0.0 1392:0.0 1393:0.0 1394:0.0 1395:0.0 1396:0.0 1397:0.0 1398:0.0 1399:0.0 1400:0.0 1401:0.0 1402:0.0 1403:0.0 1405:0.0 1406:0.0 1407:0.0 1408:0.0 1409:0.0 1412:0.0 1413:0.0 1414:0.0 1564:0.0 1565:0.0 1566:0.0 1581:0.0 1582:0.0 1583:0.0 1584:0.0 1585:0.0 1586:0.0 1587:0.0 1592:0.0 1595:0.0 1596:0.0 1597:0.0 1598:0.0 1599:0.0 1600:0.0 1601:0.0 1602:0.0 1622:0.0 1624:0.0 1625:0.0 1626:0.0 1627:0.0 1643:0.0 1645:0.0 1648:0.0 1656:0.0 1664:0.0 1665:0.0 1677:0.0 1683:0.0 1684:0.0 1685:0.0 1687:0.0 1691:0.0 1692:0.0 1693:0.0 1696:0.0 1698:0.0 1701:0.0 1709:0.0 1710:0.0 1712:0.0 1727:0.0 1728:0.0 1729:0.0 1758:0.0 1760:0.0 1768:0.0 1776:0.0 1777:0.0 1778:0.0 1779:0.0 1780:0.0 1781:0.0 1782:0.0 1798:0.0 1799:0.0 1800:0.0 1801:0.0 1835:0.0 1856:0.0 1857:0.0 1858:0.0 1859:0.0 1868:0.0
-0.02770360378217992 1:0.0034954273141920567 2:0.09469430893659592 3:0.1089937835931778 4:0.10454505681991577 5:0.04194512963294983 6:0.03400097414851189 7:0.0 8:0.06927301734685898 9:0.0365431047976017 10:0.14108815789222717 11:0.16142518818378448 12:0.05719790235161781 13:0.2024170160293579 14:0.08389025926589966 15:0.11662016808986664 16:0.10549835115671158 17:0.037814170122146606 18:0.02573905698955059 19:9.532983531244099E-4 20:0.13663943111896515 21:0.17572467029094696 22:0.055926837027072906 23:0.02923448383808136 24:0.019383734092116356 25:0.02542128972709179 26:0.09469430893659592 27:0.01620607264339924 28:0.007626386824995279 29:0.0 30:0.0 31:0.0 32:6.355322548188269E-4 33:0.13791050016880035 34:0.012075113132596016 35:6.355322548188269E-4 36:0.08230142295360565 37:9.532983531244099E-4 38:0.03876746818423271 39:0.0 40:0.007626386824995279 41:6.355322548188269E-4 42:1.0 43:6.355322548188269E-4 44:0.037178635597229004 45:0.013346177525818348 46:0.0034954273141920567 47:0.004448725841939449 48:1.0 49:9.532983531244099E-4 50:6.355322548188269E-4 51:0.051795877516269684 52:0.016841605305671692 53:0.0 54:0.029552249237895012 55:0.0034954273141920567 56:0.19542616605758667 57:0.0031776612158864737 58:0.0 59:9.532983531244099E-4 60:0.0 61:0.01016851607710123 62:0.014299475587904453 63:0.0730862095952034 64:0.006037556566298008 65:0.0 66:0.0 67:0.0 68:0.0 69:0.0 70:0.0019065967062488198 71:0.0012710645096376538 72:0.4188157618045807 73:0.0022243629209697247 74:6.355322548188269E-4 75:0.0015888306079432368 76:0.0015888306079432368 77:0.031776610761880875 78:6.355322548188269E-4 79:0.006355322431772947 80:0.0 81:0.21512766182422638 82:0.00730862095952034 83:0.0 84:1.0 85:0.0019065967062488198 86:0.0012710645096376538 87:0.005402023904025555 88:0.0 89:0.13219070434570312 90:0.0019065967062488198 91:0.15761199593544006 92:0.0012710645096376538 93:9.532983531244099E-4 94:1.0 95:0.09342323988676071 96:0.012075113132596016 97:0.004448725841939449 98:1.0 99:0.011121814139187336 100:0.02573905698955059 101:0.0025421290192753077 102:0.005719790235161781 103:0.009215218015015125 104:0.014935008250176907 105:0.04321619123220444 106:1.0 107:0.0 108:0.014935008250176907 109:0.007944152690470219 110:6.355322548188269E-4 111:0.026056822389364243 112:1.0 113:0.0028598951175808907 114:0.008897451683878899 115:0.03272991254925728 116:0.011439580470323563 117:0.013663942925632 118:0.008897451683878899 119:0.01016851607710123 120:0.04003853350877762 121:0.05338471010327339 122:0.07848823070526123 123:0.0 124:0.0 125:0.0 126:0.0 127:0.0034954273141920567 128:0.0 129:0.02383245900273323 130:0.0012710645096376538 131:0.0 132:0.013028411194682121 133:0.0012710645096376538 134:0.0019065967062488198 135:0.0 136:0.005402023904025555 137:0.0019065967062488198 138:0.0038131934124976397 139:0.005719790235161781 140:0.0038131934124976397 141:0.010486282408237457 142:0.07658163458108902 143:0.08579685539007187 144:0.006355322431772947 145:0.0025421290192753077 146:0.005719790235161781 147:0.0019065967062488198 148:0.006355322431772947 149:1.0 150:0.0 151:6.355322548188269E-4 152:0.01811266876757145 153:0.008897451683878899 154:0.0015888306079432368 155:0.0015888306079432368 156:0.0022243629209697247 157:6.355322548188269E-4 158:0.0 159:6.355322548188269E-4 160:6.355322548188269E-4 161:0.0012710645096376538 162:0.0015888306079432368 163:0.015252773649990559 164:0.0015888306079432368 165:0.0 166:0.009215218015015125 167:0.014935008250176907 168:0.0025421290192753077 169:0.0019065967062488198 170:6.355322548188269E-4 171:0.0015888306079432368 172:0.026056822389364243 173:0.0 174:1.0 175:1.0 176:0.02192586287856102 177:6.355322548188269E-4 178:0.0 179:1.0 180:0.024467991665005684 181:0.0038131934124976397 182:0.0 183:0.0 184:0.04957151412963867 185:0.004448725841939449 186:0.009850749745965004 187:0.027963418513536453 188:0.0 189:6.355322548188269E-4 190:0.0 191:0.0012710645096376538 192:0.1471257209777832 193:0.10295622795820236 194:0.006673088762909174 195:0.026374587789177895 196:6.355322548188269E-4 197:1.0 198:0.07149738073348999 199:9.532983531244099E-4 200:1.0 201:0.008897451683878899 202:0.0022243629209697247 203:0.0 204:0.007944152690470219 205:0.02542128972709179 206:0.012075113132596016 207:0.053702473640441895 208:6.355322548188269E-4 209:0.0 210:0.0012710645096376538 211:1.0 212:0.00730862095952034 213:0.0 214:0.0012710645096376538 215:0.0022243629209697247 216:0.008261919021606445 217:0.0 218:9.532983531244099E-4 219:0.07117961347103119 220:0.11185367405414581 221:0.0028598951175808907 222:9.532983531244099E-4 223:0.004766491707414389 224:0.0 225:1.0 226:0.0 227:0.0 228:9.532983531244099E-4 229:1.0 230:0.0 231:9.532983531244099E-4 232:1.0 233:1.0 234:0.0012710645096376538 235:6.355322548188269E-4 236:0.0 237:0.03272991254925728 238:0.0015888306079432368 239:0.11598463356494904 240:0.0022243629209697247 241:0.01843043603003025 242:0.05147811397910118 243:0.07689940184354782 244:0.022879160940647125 245:0.004448725841939449 246:0.06514205783605576 247:0.04130959510803223 248:0.005402023904025555 249:0.004130959510803223 250:0.0015888306079432368 251:0.0025421290192753077 252:0.0028598951175808907 253:0.0025421290192753077 254:0.0025421290192753077 255:0.0034954273141920567 256:0.0012710645096376538 257:0.040991831570863724 258:1.0 259:0.06323546171188354 260:6.355322548188269E-4 261:9.532983531244099E-4 262:0.00730862095952034 263:0.010486282408237457 264:0.029552249237895012 265:0.08738568425178528 266:6.355322548188269E-4 267:0.004766491707414389 268:0.0 269:0.005402023904025555 270:0.030505547299981117 271:0.0038131934124976397 272:0.004448725841939449 273:0.018748201429843903 274:0.01461724191904068 275:0.04988928139209747 276:0.01016851607710123 277:0.3876746594905853 278:0.006037556566298008 279:0.0019065967062488198 280:0.04353395849466324 281:0.0028598951175808907 282:0.007944152690470219 283:9.532983531244099E-4 284:0.0031776612158864737 285:0.008579685352742672 286:0.0 287:0.17508913576602936 288:0.006037556566298008 289:9.532983531244099E-4 290:0.015570539981126785 291:0.0 292:0.021290330216288567 293:0.2370535284280777 294:0.005402023904025555 295:0.012075113132596016 296:0.0028598951175808907 297:0.00730862095952034 298:0.0015888306079432368 299:0.02033703215420246 300:0.02923448383808136 301:0.03527203947305679 302:0.059422265738248825 303:0.04162736237049103 304:0.06196439266204834 305:0.010486282408237457 306:0.023196926340460777 307:0.024150226265192032 308:0.013981709256768227 309:0.03844970092177391 310:0.04893598333001137 311:6.355322548188269E-4 312:0.044805023819208145 313:0.039402998983860016 314:0.03527203947305679 315:0.0019065967062488198 316:0.028598951175808907 317:0.046711619943380356 318:0.03813193365931511 319:0.0015888306079432368 320:0.01080404780805111 321:0.01175734680145979 322:9.532983531244099E-4 323:1.0 324:0.0022243629209697247 325:0.05846896767616272 326:1.0 327:6.355322548188269E-4 328:0.0012710645096376538 329:0.0 330:0.006990854628384113 331:1.0 332:0.004448725841939449 333:0.0012710645096376538 334:0.0 335:1.0 336:0.011121814139187336 337:1.0 338:0.009850749745965004 339:0.0019065967062488198 340:0.0 341:0.016841605305671692 342:0.03876746818423271 343:0.0549735389649868 344:0.015570539981126785 345:6.355322548188269E-4 346:0.007626386824995279 1217:0.0 1218:1.0 1219:0.0 1220:0.0 1221:0.0 1222:1.0 1223:0.0 1224:0.0 1225:0.0022243629209697247 1226:0.0 1227:0.0 1228:0.0 1229:0.0 1230:6.355322548188269E-4 1231:0.0 1232:0.0 1233:0.0 1234:1.0 1235:0.0 1236:0.0 1237:9.532983531244099E-4 1238:0.0 1239:1.0 1240:6.355322548188269E-4 1241:0.0 1242:1.0 1243:0.0 1302:0.0 1303:0.0 1304:0.0 1305:0.0015888306079432368 1306:0.0019065967062488198 1307:0.0 1308:0.0 1309:0.0 1335:0.0 1337:0.0 1339:0.0 1340:0.0 1341:0.0 1343:0.0 1346:0.0 1348:0.0 1349:0.0 1351:0.0 1356:0.0 1357:0.0 1359:0.0 1361:0.0 1363:6.355322548188269E-4 1364:0.0 1366:0.0 1368:0.0 1371:0.0 1372:0.0 1374:6.355322548188269E-4 1378:0.0 1379:0.0 1380:0.0 1381:0.0 1382:0.0 1383:0.0 1384:0.0 1387:0.0 1388:0.0 1389:0.0 1391:0.0 1392:0.0 1393:0.0 1394:0.0 1395:0.0 1396:0.0 1397:0.0 1398:0.0 1399:0.0 1400:0.0 1401:0.0 1402:0.0 1403:0.0 1405:0.0 1406:0.0 1407:0.0 1408:0.0 1409:0.0 1412:0.0 1413:0.0 1414:0.0 1564:0.0 1565:0.0 1566:0.0 1581:0.0 1582:0.0 1583:0.0 1584:0.0 1585:0.0 1586:0.0 1587:0.0 1592:0.0 1595:0.0 1596:0.0 1597:0.0 1598:0.0 1599:0.0 1600:0.0 1601:0.0 1602:0.0 1622:0.0 1624:0.0 1625:0.0 1626:0.0 1627:0.0 1643:0.0 1645:0.0 1648:0.0 1656:0.0 1664:0.0 1665:0.0 1677:0.0 1683:0.0 1684:0.0 1685:0.0 1687:0.0 1691:0.0 1692:0.0 1693:0.0 1696:0.0 1698:0.0 1701:0.0 1709:0.0 1710:0.0 1712:0.0 1727:0.0 1728:0.0 1729:0.0 1758:0.0 1760:0.0 1768:0.0 1776:0.0 1777:0.0 1778:0.0 1779:0.0 1780:0.0 1781:0.0 1782:0.0 1798:0.0 1799:0.0 1800:0.0 1801:0.0 1835:0.0 1856:0.0 1857:0.0 1858:0.0 1859:0.0 1868:0.0
0.02770360378217992 1:0.0032769760582596064 2:0.08793219178915024 3:0.12288660556077957 4:0.08683986216783524 5:0.034954410046339035 6:0.03331592306494713 7:0.0 8:0.04915463924407959 9:0.030585110187530518 10:0.12234044075012207 11:0.12561741471290588 12:0.060624055564403534 13:0.12561741471290588 14:0.06444719433784485 15:0.12507125735282898 16:0.15183322131633759 17:0.03113127313554287 18:0.015292555093765259 19:0.002730813343077898 20:0.1567486822605133 21:0.1578410118818283 22:0.04696999117732048 23:0.021846506744623184 24:0.04478533938527107 25:0.008192440494894981 26:0.09776312112808228 27:0.021300343796610832 28:0.007646277546882629 29:0.0 30:0.0 31:0.0 32:0.0 33:0.15947949886322021 34:0.01583871804177761 35:0.0 36:0.11087102442979813 37:1.0 38:0.022938832640647888 39:1.0 40:0.014746392145752907 41:0.006007789634168148 42:1.0 43:0.0 44:0.03659290075302124 45:0.01583871804177761 46:0.0010923253139480948 47:0.0016384880291298032 48:0.0 49:0.0 50:0.0 51:0.052977778017520905 52:0.02621580846607685 53:0.0 54:0.030038947239518166 55:0.0021846506278961897 56:0.22611135244369507 57:0.0010923253139480948 58:0.0 59:0.0038231387734413147 60:0.0 61:0.040416039526462555 62:0.013654067181050777 63:0.07100114971399307 64:0.002730813343077898 65:0.0 66:0.0 67:0.0 68:0.0 69:0.0 70:0.0021846506278961897 71:1.0 72:0.2889200448989868 73:0.002730813343077898 74:0.0 75:0.0010923253139480948 76:0.0 77:0.04696999117732048 78:0.0021846506278961897 79:0.004915464203804731 80:1.0 81:0.19334158301353455 82:0.006553952116519213 83:0.0 84:0.0 85:0.0016384880291298032 86:0.0 87:0.0038231387734413147 88:0.0 89:0.051339291036129 90:1.0 91:0.11032485961914062 92:0.0 93:1.0 94:0.0016384880291298032 95:0.12179427593946457 96:0.012561741285026073 97:0.004369301255792379 98:0.0010923253139480948 99:0.01583871804177761 100:0.04150836169719696 101:0.0016384880291298032 102:0.008192440494894981 103:0.005461626686155796 104:0.017477205023169518 105:0.04860847815871239 106:0.0016384880291298032 107:0.0 108:0.01856953091919422 109:0.016931043937802315 110:0.0 111:0.04423917829990387 112:1.0 113:0.0032769760582596064 114:0.011469416320323944 115:0.03386208787560463 116:0.013107904233038425 117:0.019661856815218925 118:0.006007789634168148 119:0.010923253372311592 120:0.04860847815871239 121:0.07482428848743439 122:0.08520137518644333 123:0.0 124:0.0 125:0.0 126:0.0 127:0.0010923253139480948 128:0.0 129:0.030038947239518166 130:0.006007789634168148 131:0.0 132:0.009830928407609463 133:1.0 134:0.004915464203804731 135:0.0 136:0.006007789634168148 137:0.0021846506278961897 138:0.004369301255792379 139:0.010923253372311592 140:0.004369301255792379 141:0.006007789634168148 142:0.06335487216711044 143:0.09940160810947418 144:0.009830928407609463 145:0.00928476545959711 146:0.015292555093765259 147:0.0038231387734413147 148:0.00928476545959711 149:0.0 150:0.0 151:1.0 152:0.02894662134349346 153:0.011469416320323944 154:0.004369301255792379 155:0.0021846506278961897 156:0.0032769760582596064 157:1.0 158:0.0 159:0.0 160:0.0 161:0.0010923253139480948 162:1.0 163:0.006553952116519213 164:1.0 165:0.0 166:0.0021846506278961897 167:0.011469416320323944 168:0.002730813343077898 169:1.0 170:0.0 171:0.0021846506278961897 172:0.022938832640647888 173:0.0 174:0.0016384880291298032 175:0.0 176:0.01583871804177761 177:0.0010923253139480948 178:0.0 179:0.0 180:0.017477205023169518 181:0.0010923253139480948 182:1.0 183:0.0 184:0.06663184612989426 185:0.005461626686155796 186:0.014200229197740555 187:0.03877754881978035 188:0.0 189:0.0016384880291298032 190:1.0 191:0.0010923253139480948 192:0.13927148282527924 193:0.1048632338643074 194:0.009830928407609463 195:0.01856953091919422 196:0.0 197:1.0 198:0.08520137518644333 199:0.0 200:0.0 201:0.010923253372311592 202:0.0 203:0.0010923253139480948 204:0.010923253372311592 205:0.00928476545959711 206:0.004369301255792379 207:0.06335487216711044 208:0.0 209:0.0 210:1.0 211:0.0016384880291298032 212:0.013107904233038425 213:0.0 214:0.002730813343077898 215:0.007100114598870277 216:0.012015579268336296 217:1.0 218:0.0010923253139480948 219:0.09120916575193405 220:0.1021324172616005 221:0.0010923253139480948 222:0.0 223:0.004369301255792379 224:0.0 225:0.0 226:1.0 227:1.0 228:0.002730813343077898 229:1.0 230:0.0 231:0.0 232:0.0 233:1.0 234:0.0016384880291298032 235:1.0 236:0.0010923253139480948 237:0.040416039526462555 238:0.0016384880291298032 239:0.1283482313156128 240:0.0021846506278961897 241:0.019661856815218925 242:0.0518854558467865 243:0.12452509254217148 244:0.03604673594236374 245:0.008192440494894981 246:0.0518854558467865 247:0.03932371363043785 248:0.005461626686155796 249:0.007646277546882629 250:0.0021846506278961897 251:0.002730813343077898 252:0.022938832640647888 253:0.0010923253139480948 254:0.007646277546882629 255:0.008192440494894981 256:0.0032769760582596064 257:0.06007789447903633 258:0.0 259:0.05516242980957031 260:0.0 261:0.0010923253139480948 262:0.011469416320323944 263:0.014746392145752907 264:0.024577319622039795 265:0.1294405609369278 266:1.0 267:0.002730813343077898 268:1.0 269:0.0010923253139480948 270:0.04642382636666298 271:0.005461626686155796 272:0.0032769760582596064 273:0.017477205023169518 274:0.0256696455180645 275:0.07373195886611938 276:0.014200229197740555 277:0.4434840977191925 278:0.008192440494894981 279:0.0032769760582596064 280:0.050246965140104294 281:0.0038231387734413147 282:0.013654067181050777 283:0.0021846506278961897 284:0.0021846506278961897 285:0.01583871804177761 286:0.0 287:0.22611135244369507 288:0.008738602511584759 289:0.0 290:0.030038947239518166 291:0.0 292:0.02894662134349346 293:0.2577887773513794 294:0.01583871804177761 295:0.014200229197740555 296:0.0032769760582596064 297:0.008192440494894981 298:1.0 299:0.024031158536672592 300:0.04150836169719696 301:0.07373195886611938 302:0.04696999117732048 303:0.03167743608355522 304:0.035500574856996536 305:0.008738602511584759 306:0.026761971414089203 307:0.026761971414089203 308:0.013654067181050777 309:0.06226254627108574 310:0.05789324268698692 311:0.0016384880291298032 312:0.040416039526462555 313:0.03877754881978035 314:0.07318580150604248 315:0.006007789634168148 316:0.045331500470638275 317:0.03604673594236374 318:0.05734708160161972 319:0.002730813343077898 320:0.006553952116519213 321:0.01856953091919422 322:1.0 323:0.0 324:0.010923253372311592 325:0.0524316169321537 326:0.0 327:0.0016384880291298032 328:1.0 329:0.004369301255792379 330:0.0021846506278961897 331:0.0 332:0.0016384880291298032 333:0.0 334:1.0 335:0.0 336:0.012561741285026073 337:0.0 338:0.0021846506278961897 339:0.0010923253139480948 340:0.0 341:0.030585110187530518 342:0.03932371363043785 343:0.030038947239518166 344:0.013107904233038425 345:0.0010923253139480948 346:0.006553952116519213 1217:0.0 1218:1.0 1219:0.0 1220:0.0 1221:0.0 1222:0.0 1223:0.0 1224:0.0 1225:0.0 1226:0.0 1227:0.0 1228:0.0 1229:0.0 1230:0.0 1231:0.0 1232:0.0 1233:0.0 1234:1.0 1235:0.0 1236:0.0 1237:0.0 1238:0.0 1239:0.0 1240:0.0016384880291298032 1241:0.0 1242:0.0 1243:0.0 1302:0.0 1303:0.0 1304:0.0 1305:1.0 1306:1.0 1307:0.0 1308:0.0 1309:0.0 1335:0.0 1337:0.0 1339:1.0 1340:0.0 1341:0.0 1343:1.0 1346:0.0 1348:0.0 1349:0.0 1351:0.0 1356:1.0 1357:0.0 1359:0.0 1361:0.0 1363:0.0 1364:0.0 1366:0.0 1368:0.0 1371:0.0 1372:1.0 1374:0.0 1378:0.0 1379:1.0 1380:0.0 1381:0.0 1382:0.0 1383:0.0 1384:0.0 1387:0.0 1388:0.0 1389:0.0 1391:0.0 1392:0.0 1393:0.0 1394:0.0 1395:0.0 1396:0.0 1397:0.0 1398:0.0 1399:0.0 1400:0.0 1401:0.0 1402:0.0 1403:0.0 1405:0.0 1406:0.0 1407:0.0 1408:0.0 1409:0.0 1412:0.0 1413:0.0 1414:0.0 1564:1.0 1565:0.0 1566:0.0 1581:0.0 1582:1.0 1583:0.0 1584:0.0 1585:0.0 1586:0.0 1587:0.0 1592:0.0 1595:0.0 1596:0.0 1597:0.0 1598:0.0 1599:0.0 1600:0.0 1601:0.0 1602:0.0 1622:0.0 1624:0.0 1625:0.0 1626:0.0 1627:0.0 1643:0.0 1645:0.0 1648:0.0 1656:0.0 1664:0.0 1665:0.0 1677:0.0 1683:0.0 1684:0.0 1685:0.0 1687:0.0 1691:0.0 1692:0.0 1693:0.0 1696:0.0 1698:0.0 1701:0.0 1709:0.0 1710:0.0 1712:0.0 1727:0.0 1728:0.0 1729:0.0 1758:0.0 1760:0.0 1768:0.0 1776:0.0 1777:0.0 1778:0.0 1779:0.0 1780:0.0 1781:0.0 1782:0.0 1798:0.0 1799:0.0 1800:0.0 1801:0.0 1835:1.0 1856:0.0 1857:0.0 1858:0.0 1859:0.0 1868:0.0
-0.02770360378217992 1:0.004283477086573839 2:0.08424171060323715 3:0.15777473151683807 4:0.08281388878822327 5:0.04283476993441582 6:0.03997911885380745 7:0.0 8:0.07638867199420929 9:0.037837378680706024 10:0.1292182207107544 11:0.13921299576759338 12:0.059968676418066025 13:0.20846255123615265 14:0.08424171060323715 15:0.18061994016170502 16:0.10137562453746796 17:0.038551293313503265 18:0.02927042543888092 19:0.0 20:0.13849909603595734 21:0.14777995645999908 22:0.044976506382226944 23:0.027842599898576736 24:0.017133908346295357 25:0.02927042543888092 26:0.10851474851369858 27:0.019989559426903725 28:0.0014278256567195058 29:0.0 30:0.0 31:0.0 32:0.0 33:0.14349648356437683 34:0.015706082805991173 35:1.0 36:0.08138605952262878 37:0.0 38:0.03712346777319908 39:1.0 40:0.006425215397030115 41:1.0 42:0.0 43:0.0 44:0.03212607651948929 45:0.005711302626878023 46:0.006425215397030115 47:0.0028556513134390116 48:0.0 49:1.0 50:0.0 51:0.05068781226873398 52:0.024273036047816277 53:0.0 54:0.0356956422328949 55:0.0028556513134390116 56:0.21060428023338318 57:1.0 58:0.0 59:0.0 60:0.0 61:0.014278256334364414 62:0.011422605253756046 63:0.05568519979715347 64:0.0035695640835911036 65:0.0 66:0.0 67:0.0 68:0.0 69:0.0 70:0.0 71:0.0 72:0.3605259656906128 73:0.004997389856725931 74:0.0 75:0.0014278256567195058 76:0.004283477086573839 77:0.034981727600097656 78:0.0021417385432869196 79:0.01784782111644745 80:0.0021417385432869196 81:0.2127460241317749 82:0.011422605253756046 83:0.0 84:0.0 85:1.0 86:0.0 87:0.007853041402995586 88:1.0 89:0.07067736983299255 90:0.0028556513134390116 91:0.09280867129564285 92:0.0021417385432869196 93:1.0 94:1.0 95:0.0663938894867897 96:0.013564343564212322 97:0.0035695640835911036 98:0.0 99:0.005711302626878023 100:0.029984338209033012 101:0.0035695640835911036 102:0.004997389856725931 103:0.007853041402995586 104:0.0035695640835911036 105:0.031412165611982346 106:1.0 107:0.0 108:0.023559123277664185 109:0.011422605253756046 110:0.0 111:0.023559123277664185 112:0.0 113:0.0028556513134390116 114:0.009994779713451862 115:0.02213129773736 116:0.011422605253756046 117:0.017133908346295357 118:0.007853041402995586 119:0.0021417385432869196 120:0.03926520422101021 121:0.056399114429950714 122:0.07853040844202042 123:0.0 124:0.0 125:0.0 126:0.0 127:0.0014278256567195058 128:0.0 129:0.046404335647821426 130:0.0035695640835911036 131:0.0 132:0.019989559426903725 133:0.0 134:1.0 135:0.0 136:0.006425215397030115 137:0.0014278256567195058 138:0.006425215397030115 139:0.004283477086573839 140:0.0021417385432869196 141:0.01285043079406023 142:0.09566432237625122 143:0.0749608501791954 144:0.017133908346295357 145:0.007139128167182207 146:0.004997389856725931 147:0.0035695640835911036 148:0.009994779713451862 149:0.0 150:0.0 151:1.0 152:0.02570086158812046 153:0.020703472197055817 154:0.0014278256567195058 155:0.0035695640835911036 156:0.0021417385432869196 157:1.0 158:0.0 159:0.0 160:0.0 161:0.0035695640835911036 162:0.0021417385432869196 163:0.011422605253756046 164:1.0 165:1.0 166:0.0014278256567195058 167:0.01856173388659954 168:0.0 169:1.0 170:0.0 171:0.0 172:0.027842599898576736 173:0.0 174:0.007139128167182207 175:0.0 176:0.016419995576143265 177:0.0014278256567195058 178:0.0 179:0.0 180:0.02855651266872883 181:0.012136518023908138 182:1.0 183:1.0 184:0.05711302533745766 185:0.006425215397030115 186:0.014278256334364414 187:0.026414774358272552 188:0.0 189:1.0 190:0.0 191:0.0 192:0.14206865429878235 193:0.09566432237625122 194:0.007853041402995586 195:0.02213129773736 196:0.0014278256567195058 197:1.0 198:0.09637822955846786 199:1.0 200:1.0 201:0.011422605253756046 202:1.0 203:0.0035695640835911036 204:0.004997389856725931 205:0.015706082805991173 206:0.016419995576143265 207:0.045690421015024185 208:0.0 209:1.0 210:0.004997389856725931 211:0.0 212:0.02498694881796837 213:0.0 214:0.0035695640835911036 215:1.0 216:0.00928086694329977 217:0.0 218:1.0 219:0.08424171060323715 220:0.10280344635248184 221:0.005711302626878023 222:0.0 223:0.005711302626878023 224:0.0 225:0.0 226:1.0 227:0.0014278256567195058 228:0.0028556513134390116 229:0.0028556513134390116 230:0.0 231:0.0028556513134390116 232:1.0 233:1.0 234:0.0014278256567195058 235:1.0 236:0.005711302626878023 237:0.03640955314040184 238:0.0021417385432869196 239:0.09423649311065674 240:0.004997389856725931 241:0.019989559426903725 242:0.05140172317624092 243:0.10922866314649582 244:0.019275646656751633 245:0.004283477086573839 246:0.06211041659116745 247:0.06211041659116745 248:0.0035695640835911036 249:0.007853041402995586 250:0.005711302626878023 251:0.006425215397030115 252:0.0014278256567195058 253:0.0028556513134390116 254:0.0014278256567195058 255:0.007139128167182207 256:1.0 257:0.07781650125980377 258:0.0 259:0.06425215303897858 260:0.0 261:0.0 262:0.010708692483603954 263:0.010708692483603954 264:0.016419995576143265 265:0.09851997345685959 266:0.0 267:0.0035695640835911036 268:0.0 269:0.0021417385432869196 270:0.02927042543888092 271:0.004997389856725931 272:0.0035695640835911036 273:0.01784782111644745 274:0.013564343564212322 275:0.031412165611982346 276:0.014992169104516506 277:0.4319172501564026 278:0.005711302626878023 279:0.0021417385432869196 280:0.0356956422328949 281:0.006425215397030115 282:0.007853041402995586 283:0.005711302626878023 284:0.0021417385432869196 285:0.006425215397030115 286:0.0 287:0.18418951332569122 288:0.007139128167182207 289:0.0 290:0.02570086158812046 291:0.0 292:0.01856173388659954 293:0.22059907019138336 294:1.0 295:0.013564343564212322 296:0.0021417385432869196 297:0.009994779713451862 298:1.0 299:0.013564343564212322 300:0.05068781226873398 301:0.04711824655532837 302:0.06782171875238419 303:0.06353823840618134 304:0.07067736983299255 305:0.017133908346295357 306:0.034267816692590714 307:0.02927042543888092 308:0.012136518023908138 309:0.059968676418066025 310:0.04426259547472 311:0.004283477086573839 312:0.04854607209563255 313:0.05211563780903816 314:0.05211563780903816 315:0.0014278256567195058 316:0.023559123277664185 317:0.04140694439411163 318:0.03712346777319908 319:0.0021417385432869196 320:1.0 321:0.023559123277664185 322:0.0014278256567195058 323:0.0021417385432869196 324:0.007853041402995586 325:0.04997389763593674 326:0.0 327:0.0021417385432869196 328:1.0 329:0.004283477086573839 330:0.0 331:0.0 332:0.0021417385432869196 333:0.0 334:0.0 335:0.0 336:0.06782171875238419 337:0.0 338:0.0 339:0.0021417385432869196 340:0.0 341:0.009994779713451862 342:0.046404335647821426 343:0.029984338209033012 344:0.029984338209033012 345:1.0 346:0.014278256334364414 1217:0.0 1218:1.0 1219:1.0 1220:0.0 1221:0.0 1222:0.0 1223:0.0 1224:0.0 1225:1.0 1226:0.0 1227:0.0 1228:0.0 1229:0.0 1230:0.0 1231:0.0014278256567195058 1232:0.0 1233:0.0 1234:0.0 1235:0.0 1236:0.0 1237:1.0 1238:0.0 1239:0.0 1240:1.0 1241:0.0 1242:0.0 1243:0.0 1302:0.0 1303:0.0 1304:0.0 1305:0.0 1306:1.0 1307:0.0 1308:0.0 1309:0.0 1335:0.0 1337:0.0 1339:1.0 1340:0.0 1341:0.0 1343:0.0 1346:0.0 1348:0.0 1349:0.0 1351:0.0 1356:0.0 1357:0.0 1359:0.0 1361:0.0 1363:0.0 1364:0.0 1366:0.0 1368:0.0 1371:0.0 1372:1.0 1374:0.0 1378:0.0 1379:0.0 1380:0.0 1381:0.0 1382:0.0 1383:0.0 1384:0.0 1387:0.0 1388:0.0 1389:0.0 1391:0.0 1392:0.0 1393:0.0 1394:0.0 1395:0.0 1396:0.0 1397:0.0 1398:0.0 1399:0.0 1400:0.0 1401:0.0 1402:0.0 1403:0.0 1405:0.0 1406:0.0 1407:0.0 1408:0.0 1409:0.0 1412:0.0 1413:0.0 1414:0.0 1564:0.0 1565:0.0 1566:0.0 1581:0.0 1582:0.0 1583:0.0 1584:0.0 1585:0.0 1586:0.0 1587:0.0 1592:0.0 1595:0.0 1596:0.0 1597:0.0 1598:0.0 1599:0.0 1600:0.0 1601:0.0 1602:0.0 1622:1.0 1624:1.0 1625:0.0 1626:0.0 1627:0.0 1643:0.0 1645:0.0 1648:0.0 1656:0.0 1664:0.0 1665:0.0 1677:0.0 1683:0.0 1684:0.0 1685:0.0 1687:0.0 1691:0.0 1692:0.0 1693:0.0 1696:0.0 1698:0.0 1701:0.0 1709:0.0 1710:0.0 1712:0.0 1727:0.0 1728:0.0 1729:0.0 1758:0.0 1760:0.0 1768:0.0 1776:0.0 1777:0.0 1778:0.0 1779:0.0 1780:0.0 1781:0.0 1782:0.0 1798:0.0 1799:0.0 1800:0.0 1801:0.0 1835:0.0 1856:0.0 1857:0.0 1858:0.0 1859:1.0 1868:1.0
0.02770360378217992 1:0.004515644628554583 2:0.07827117294073105 3:0.1153998002409935 4:0.06321902573108673 5:0.03562341630458832 6:0.04264775291085243 7:0.0 8:0.0536859966814518 9:0.030104296281933784 10:0.13396412134170532 11:0.12844499945640564 12:0.06923988461494446 13:0.11790849268436432 14:0.07475899904966354 15:0.10988067835569382 16:0.1475110501050949 17:0.03512167930603027 18:0.017560839653015137 19:0.002006953116506338 20:0.15604060888290405 21:0.19166402518749237 22:0.06522597372531891 23:0.025086913257837296 24:0.02458517625927925 25:0.02157474495470524 26:0.1851414293050766 27:0.02458517625927925 28:0.005017382558435202 29:0.0 30:0.0 31:0.0 32:0.0 33:0.10385981947183609 34:0.017059100791811943 35:0.0 36:0.0697416216135025 37:0.0015052148373797536 38:0.01906605437397957 39:1.0 40:0.01404867134988308 41:0.00351216783747077 42:0.001003476558253169 43:0.001003476558253169 44:0.04967208951711655 45:0.012543456628918648 46:0.002006953116506338 47:1.0 48:0.0 49:1.0 50:0.001003476558253169 51:0.04515644535422325 52:0.016055624932050705 53:0.0 54:0.04013906046748161 55:0.004515644628554583 56:0.21223528683185577 57:0.0 58:0.0 59:1.0 60:0.0 61:0.018564315512776375 62:0.007526074070483446 63:0.08880767226219177 64:0.002508691279217601 65:0.0 66:0.0 67:0.0 68:0.0 69:0.0 70:0.0 71:0.003010429674759507 72:0.3256281316280365 73:0.001003476558253169 74:0.0 75:0.00351216783747077 76:0.00351216783747077 77:0.044152967631816864 78:0.001003476558253169 79:0.004013906233012676 80:0.0 81:0.2433430552482605 82:0.010536503978073597 83:0.0 84:0.002508691279217601 85:1.0 86:0.001003476558253169 87:0.00351216783747077 88:0.0 89:0.019567793235182762 90:0.001003476558253169 91:0.12041718512773514 92:1.0 93:0.0 94:0.0 95:0.08629897981882095 96:0.01906605437397957 97:0.004515644628554583 98:1.0 99:0.008529550395905972 100:0.02809734269976616 101:0.001003476558253169 102:0.003010429674759507 103:0.006020859349519014 104:0.007526074070483446 105:0.036626894026994705 106:1.0 107:0.001003476558253169 108:0.017560839653015137 109:0.007526074070483446 110:0.0 111:0.024083437398076057 112:0.0 113:0.00351216783747077 114:0.007526074070483446 115:0.025086913257837296 116:0.00351216783747077 117:0.009031289257109165 118:0.008027812466025352 119:0.007526074070483446 120:0.036626894026994705 121:0.06321902573108673 122:0.08780419826507568 123:0.0 124:0.0 125:1.0 126:0.0 127:1.0 128:0.0 129:0.0331147275865078 130:0.001003476558253169 131:0.0 132:0.00702433567494154 133:0.0 134:0.0015052148373797536 135:0.0 136:0.006522597745060921 137:0.004013906233012676 138:0.004515644628554583 139:0.0015052148373797536 140:0.0 141:0.008529550395905972 142:0.0536859966814518 143:0.06673119217157364 144:0.011038241907954216 145:0.00351216783747077 146:0.010034765116870403 147:0.00351216783747077 148:0.004013906233012676 149:1.0 150:0.0 151:0.0 152:0.018564315512776375 153:0.007526074070483446 154:0.002006953116506338 155:0.005017382558435202 156:0.003010429674759507 157:0.0015052148373797536 158:0.0 159:0.0 160:1.0 161:0.001003476558253169 162:0.001003476558253169 163:0.01354693342000246 164:0.002006953116506338 165:0.001003476558253169 166:0.012041718699038029 167:0.007526074070483446 168:0.0015052148373797536 169:0.006020859349519014 170:1.0 171:1.0 172:0.012543456628918648 173:0.0 174:1.0 175:1.0 176:0.021073007956147194 177:0.001003476558253169 178:0.001003476558253169 179:0.0 180:0.027595605701208115 181:0.004515644628554583 182:0.0 183:0.0 184:0.08780419826507568 185:0.004013906233012676 186:0.006020859349519014 187:0.030606035143136978 188:0.0 189:0.008027812466025352 190:0.001003476558253169 191:0.004013906233012676 192:0.1680823266506195 193:0.12995021045207977 194:0.008529550395905972 195:0.026090390980243683 196:0.001003476558253169 197:1.0 198:0.09282158315181732 199:0.002508691279217601 200:0.001003476558253169 201:0.007526074070483446 202:0.0 203:0.00351216783747077 204:0.006020859349519014 205:0.008529550395905972 206:0.009533027186989784 207:0.09332332015037537 208:0.0015052148373797536 209:0.0 210:0.0015052148373797536 211:0.0 212:0.008027812466025352 213:0.0 214:1.0 215:0.001003476558253169 216:0.009533027186989784 217:0.0 218:1.0 219:0.06422249972820282 220:0.11238937079906464 221:0.001003476558253169 222:0.0015052148373797536 223:0.010536503978073597 224:0.0 225:0.001003476558253169 226:0.0 227:0.0 228:0.0015052148373797536 229:0.002006953116506338 230:0.001003476558253169 231:0.001003476558253169 232:0.0 233:0.0 234:0.002006953116506338 235:0.0 236:0.001003476558253169 237:0.018564315512776375 238:0.00351216783747077 239:0.09282158315181732 240:0.0015052148373797536 241:0.017059100791811943 242:0.053184255957603455 243:0.07977638393640518 244:0.013045195490121841 245:0.002508691279217601 246:0.03712863102555275 247:0.034118201583623886 248:0.00351216783747077 249:0.002508691279217601 250:0.0015052148373797536 251:0.002006953116506338 252:0.0015052148373797536 253:0.0 254:0.003010429674759507 255:0.021073007956147194 256:1.0 257:0.041644275188446045 258:0.0 259:0.048166874796152115 260:0.0 261:0.001003476558253169 262:0.008027812466025352 263:0.03361646458506584 264:0.024083437398076057 265:0.08780419826507568 266:0.0 267:0.002006953116506338 268:0.0 269:0.002508691279217601 270:0.040640801191329956 271:0.0015052148373797536 272:0.002508691279217601 273:0.020571269094944 274:0.017059100791811943 275:0.06572771072387695 276:0.011539979837834835 277:0.46812179684638977 278:0.005017382558435202 279:0.003010429674759507 280:0.04465470463037491 281:0.004013906233012676 282:0.008027812466025352 283:0.004013906233012676 284:0.006020859349519014 285:0.009533027186989784 286:0.0 287:0.19216576218605042 288:0.005017382558435202 289:0.002508691279217601 290:0.026090390980243683 291:0.0 292:0.016055624932050705 293:0.2398308962583542 294:0.003010429674759507 295:0.006522597745060921 296:0.004013906233012676 297:0.006522597745060921 298:0.0 299:0.0165573637932539 300:0.03361646458506584 301:0.04515644535422325 302:0.0536859966814518 303:0.02960255742073059 304:0.030104296281933784 305:0.012543456628918648 306:0.023581698536872864 307:0.019567793235182762 308:0.012543456628918648 309:0.03763037174940109 310:0.04866861179471016 311:0.001003476558253169 312:0.04465470463037491 313:0.041142538189888 314:0.06873814016580582 315:0.012543456628918648 316:0.027595605701208115 317:0.031609512865543365 318:0.02960255742073059 319:0.001003476558253169 320:0.0 321:0.010034765116870403 322:0.0 323:0.0 324:0.010034765116870403 325:0.04214601591229439 326:1.0 327:1.0 328:0.001003476558253169 329:0.0 330:0.002006953116506338 331:0.0 332:0.001003476558253169 333:0.0 334:0.0 335:0.0 336:0.009533027186989784 337:0.0 338:0.004013906233012676 339:0.001003476558253169 340:0.0 341:0.015052148140966892 342:0.05519121140241623 343:0.016055624932050705 344:0.021073007956147194 345:0.002508691279217601 346:0.003010429674759507 1217:0.0 1218:0.0 1219:0.0 1220:0.0 1221:0.0 1222:1.0 1223:0.0 1224:0.0 1225:0.003010429674759507 1226:0.0 1227:0.0 1228:0.0 1229:0.0 1230:0.0 1231:0.0 1232:1.0 1233:0.0 1234:0.0 1235:1.0 1236:0.0 1237:1.0 1238:1.0 1239:0.0 1240:1.0 1241:0.0 1242:0.0 1243:0.0 1302:0.0 1303:0.0 1304:0.0 1305:0.0015052148373797536 1306:0.0015052148373797536 1307:0.0 1308:0.0 1309:0.0 1335:0.0 1337:0.0 1339:0.0 1340:0.0 1341:0.0 1343:0.0 1346:1.0 1348:0.0 1349:0.0 1351:1.0 1356:0.0 1357:0.0 1359:0.0 1361:0.0 1363:0.0 1364:0.0 1366:0.0 1368:0.0 1371:0.0 1372:0.001003476558253169 1374:1.0 1378:0.0 1379:0.0 1380:0.0 1381:0.0 1382:0.0 1383:0.0 1384:0.0 1387:0.0 1388:0.0 1389:0.0 1391:0.0 1392:0.0 1393:0.0 1394:0.0 1395:0.0 1396:0.0 1397:0.0 1398:0.0 1399:0.0 1400:0.0 1401:0.0 1402:0.0 1403:0.0 1405:0.0 1406:0.0 1407:0.0 1408:0.0 1409:0.0 1412:0.0 1413:0.0 1414:0.0 1564:0.0 1565:0.0 1566:0.0 1581:0.0 1582:0.0 1583:0.0 1584:0.0 1585:0.0 1586:0.0 1587:0.0 1592:0.0 1595:0.0 1596:0.0 1597:0.0 1598:0.0 1599:0.0 1600:0.0 1601:0.0 1602:0.0 1622:0.0 1624:0.0 1625:0.0 1626:0.0 1627:0.0 1643:0.0 1645:0.0 1648:0.0 1656:0.0 1664:0.0 1665:0.0 1677:0.0 1683:0.0 1684:0.0 1685:0.0 1687:0.0 1691:0.0 1692:0.0 1693:0.0 1696:0.0 1698:0.0 1701:0.0 1709:0.0 1710:0.0 1712:0.0 1727:0.0 1728:0.0 1729:0.0 1758:0.0 1760:0.0 1768:0.0 1776:0.0 1777:0.0 1778:0.0 1779:0.0 1780:0.0 1781:0.0 1782:0.0 1798:0.0 1799:0.0 1800:0.0 1801:0.0 1835:0.0 1856:0.0 1857:0.0 1858:0.0 1859:0.0 1868:0.0
-0.02770360378217992 1:0.004706074483692646 2:0.08790428936481476 3:0.12620051205158234 4:0.08125533908605576 5:0.04844234138727188 6:0.028409145772457123 7:0.0 8:0.06165388971567154 9:0.04792424291372299 10:0.13328120112419128 11:0.10940543562173843 12:0.04835599288344383 13:0.10720350593328476 14:0.07240446656942368 15:0.13621710240840912 16:0.15530045330524445 17:0.04619724303483963 18:0.023184971883893013 19:4.7492492012679577E-4 20:0.16820977628231049 21:0.17908987402915955 22:0.06834601610898972 23:0.038987018167972565 24:0.01973097212612629 25:0.012736623175442219 26:0.08013278990983963 27:0.0248687956482172 28:0.010491522960364819 29:3.0222494387999177E-4 30:0.0 31:0.0 32:0.0 33:0.13004307448863983 34:0.023746246472001076 35:0.0014247747603803873 36:0.08419124037027359 37:6.044498877599835E-4 38:0.039634644985198975 39:1.0 40:0.003583524376153946 41:0.001208899775519967 42:0.0016406497452408075 43:3.45399952493608E-4 44:0.030956469476222992 45:0.019990021362900734 46:0.005353698972612619 47:0.004403849132359028 48:3.45399952493608E-4 49:7.339749136008322E-4 50:4.7492492012679577E-4 51:0.05172364041209221 52:0.012563923373818398 53:0.0 54:0.022364646196365356 55:0.002935899654403329 56:0.247522234916687 57:0.0026336745359003544 58:2.15874970308505E-4 59:5.612749373540282E-4 60:0.0 61:0.044858817011117935 62:0.014593147672712803 63:0.07706736028194427 64:0.00669212406501174 65:0.0 66:8.6349988123402E-5 67:1.29524982185103E-4 68:0.0 69:1.0 70:0.0019428747473284602 71:0.003799399361014366 72:0.34298214316368103 73:0.0012520748423412442 74:4.7492492012679577E-4 75:0.002374624600633979 76:0.001554299728013575 77:0.04947854205965996 78:2.15874970308505E-4 79:0.004101624246686697 80:4.3174994061701E-4 81:0.21833594143390656 82:0.002072399714961648 83:1.29524982185103E-4 84:3.0222494387999177E-4 85:5.18099928740412E-4 86:0.001036199857480824 87:0.0023314496502280235 88:0.0 89:0.047535669058561325 90:8.6349988123402E-4 91:0.11726327985525131 92:7.771498640067875E-4 93:0.0012520748423412442 94:2.15874970308505E-4 95:0.11234132945537567 96:0.009498498402535915 97:0.007167048752307892 98:6.044498877599835E-4 99:0.013945522718131542 100:0.04270006716251373 101:0.004490199498832226 102:0.00634672399610281 103:0.007814673706889153 104:0.010750573128461838 105:0.044427067041397095 106:0.0021587496157735586 107:3.8857493200339377E-4 108:0.015327122993767262 109:0.009843898937106133 110:0.0010793748078867793 111:0.04412484169006348 112:8.6349988123402E-5 113:0.004619724117219448 114:0.018219847232103348 115:0.040282268077135086 116:0.011009623296558857 117:0.019040172919631004 118:0.010016598738729954 119:0.009887073189020157 120:0.03501491993665695 121:0.0625605657696724 122:0.07218858599662781 123:1.0 124:0.0 125:1.0 126:0.0 127:9.498498402535915E-4 128:0.0 129:0.019903670996427536 130:0.0036266993265599012 131:1.0 132:0.008246423676609993 133:0.002201924566179514 134:0.0028495495207607746 135:0.0 136:0.00712387403473258 137:0.0011657248251140118 138:0.0056559243239462376 139:0.0072965738363564014 140:0.002417799551039934 141:0.0124775730073452 142:0.08026231080293655 143:0.14001649618148804 144:0.01200264785438776 145:0.010664223693311214 146:0.009153098799288273 147:0.0036698745097965 148:0.010534698143601418 149:1.29524982185103E-4 150:0.0 151:1.72699976246804E-4 152:0.024609746411442757 153:0.016881423071026802 154:0.00656259898096323 155:0.0033244744408875704 156:0.0025041496846824884 157:9.930247906595469E-4 158:1.0 159:1.72699976246804E-4 160:6.476248963735998E-4 161:5.18099928740412E-4 162:8.203248726204038E-4 163:0.009541673585772514 164:0.0011225498747080564 165:2.59049964370206E-4 166:0.004144799429923296 167:0.01567252166569233 168:0.0028495495207607746 169:0.00289272447116673 170:8.6349988123402E-4 171:9.066748316399753E-4 172:0.0317767933011055 173:1.0 174:0.001381599809974432 175:1.72699976246804E-4 176:0.01705412194132805 177:0.0025041496846824884 178:1.29524982185103E-4 179:3.45399952493608E-4 180:0.031733620911836624 181:0.002979074604809284 182:2.59049964370206E-4 183:1.29524982185103E-4 184:0.05962466448545456 185:0.0036698745097965 186:0.005958149209618568 187:0.023012271150946617 188:8.6349988123402E-5 189:0.0014247747603803873 190:3.45399952493608E-4 191:0.001208899775519967 192:0.15689793229103088 193:0.09325798600912094 194:0.01334107294678688 195:0.03544666990637779 196:2.15874970308505E-4 197:5.18099928740412E-4 198:0.0825074091553688 199:0.0018133496632799506 200:2.59049964370206E-4 201:0.09977740794420242 202:0.0035403494257479906 203:0.0028495495207607746 204:0.009368973784148693 205:0.0124775730073452 206:0.009498498402535915 207:0.07162731140851974 208:6.044498877599835E-4 209:1.72699976246804E-4 210:0.002072399714961648 211:0.001899699680507183 212:0.015586172230541706 213:1.29524982185103E-4 214:6.044498877599835E-4 215:0.004058449529111385 216:0.010102948173880577 217:9.930247906595469E-4 218:0.0025473246350884438 219:0.0858318880200386 220:0.09990693628787994 221:0.0018133496632799506 222:5.612749373540282E-4 223:0.004015274345874786 224:8.6349988123402E-5 225:1.72699976246804E-4 226:1.29524982185103E-4 227:6.476248963735998E-4 228:6.044498877599835E-4 229:0.001036199857480824 230:0.0010793748078867793 231:0.014118222519755363 232:1.72699976246804E-4 233:2.59049964370206E-4 234:0.0028495495207607746 235:7.339749136008322E-4 236:9.930247906595469E-4 237:0.04067084193229675 238:9.066748316399753E-4 239:0.08794745802879333 240:0.0033676493912935257 241:0.019601447507739067 242:0.05491859093308449 243:0.07572893798351288 244:0.02465292066335678 245:0.0064762490801513195 246:0.04960806667804718 247:0.026120871305465698 248:0.003799399361014366 249:0.004317499231547117 250:0.004662899300456047 251:0.002072399714961648 252:3.45399952493608E-4 253:0.0023314496502280235 254:0.0018133496632799506 255:0.0064330738969147205 256:0.0014679498272016644 257:0.05461636558175087 258:0.014679498039186 259:0.04334769397974014 260:0.0 261:3.45399952493608E-4 262:0.008678173646330833 263:0.02059447206556797 264:0.03009296953678131 265:0.08941540867090225 266:0.0 267:0.011182323098182678 268:0.0013384247431531549 269:0.006174024194478989 270:0.02892724610865116 271:0.004490199498832226 272:0.00172699976246804 273:0.02145797200500965 274:0.017010947689414024 275:0.07089333981275558 276:0.017313173040747643 277:0.37519070506095886 278:0.008289598859846592 279:0.010361998341977596 280:0.05250079184770584 281:0.005742274224758148 282:0.010405173525214195 283:0.004447024315595627 284:0.004403849132359028 285:0.010836923494935036 286:1.72699976246804E-4 287:0.2164362370967865 288:0.008030548691749573 289:0.011182323098182678 290:0.04749249294400215 291:1.72699976246804E-4 292:0.01791762188076973 293:0.2878476679325104 294:0.0021155746653676033 295:0.01312519796192646 296:0.004792424384504557 297:0.008980398997664452 298:0.00172699976246804 299:0.022537346929311752 300:0.0419229194521904 301:0.05379604175686836 302:0.06031546741724014 303:0.028452320024371147 304:0.05155094340443611 305:0.016492847353219986 306:0.025645945221185684 307:0.025214195251464844 308:0.012175347656011581 309:0.03924606740474701 310:0.08229153603315353 311:9.498498402535915E-4 312:0.06156754121184349 313:0.03700096905231476 314:0.06398534029722214 315:0.005180999170988798 316:0.020205896347761154 317:0.031431395560503006 318:0.055004943162202835 319:0.01886747218668461 320:0.0015111247776076198 321:0.007598798722028732 322:0.00345399952493608 323:8.6349988123402E-4 324:0.007771498989313841 325:0.05560939013957977 326:1.0 327:0.001899699680507183 328:8.6349988123402E-5 329:0.0 330:0.0010793748078867793 331:0.0 332:6.044498877599835E-4 333:0.0 334:1.0 335:0.0 336:0.005958149209618568 337:0.0 338:0.0015974747948348522 339:0.002374624600633979 340:0.0 341:0.031172344461083412 342:0.04537691920995712 343:0.03428094461560249 344:0.026509445160627365 345:0.0026336745359003544 346:0.0135569479316473 1217:0.0 1218:0.004317499231547117 1219:0.0 1220:1.0 1221:0.0 1222:2.59049964370206E-4 1223:8.6349988123402E-5 1224:0.0 1225:2.15874970308505E-4 1226:3.0222494387999177E-4 1227:1.0 1228:1.0 1229:0.0 1230:1.29524982185103E-4 1231:1.0 1232:2.15874970308505E-4 1233:0.0 1234:8.6349988123402E-5 1235:2.15874970308505E-4 1236:1.72699976246804E-4 1237:3.8857493200339377E-4 1238:8.6349988123402E-5 1239:5.18099928740412E-4 1240:4.7492492012679577E-4 1241:0.0 1242:1.0 1243:0.0 1302:0.0 1303:1.0 1304:0.0 1305:1.29524982185103E-4 1306:6.90799904987216E-4 1307:0.0 1308:1.0 1309:0.0 1335:8.6349988123402E-5 1337:1.0 1339:1.0 1340:0.0 1341:0.0 1343:1.72699976246804E-4 1346:1.0 1348:1.0 1349:1.0 1351:1.0 1356:8.6349988123402E-5 1357:1.0 1359:0.0 1361:1.0 1363:1.29524982185103E-4 1364:1.72699976246804E-4 1366:0.0 1368:2.15874970308505E-4 1371:0.0 1372:2.15874970308505E-4 1374:3.8857493200339377E-4 1378:0.0 1379:0.0 1380:0.0 1381:0.0 1382:0.0 1383:0.0 1384:0.0 1387:0.0 1388:0.0 1389:0.0 1391:0.0 1392:0.0 1393:0.0 1394:0.0 1395:0.0 1396:0.0 1397:0.0 1398:0.0 1399:0.0 1400:0.0 1401:0.0 1402:0.0 1403:0.0 1405:0.0 1406:0.0 1407:0.0 1408:0.0 1409:0.0 1412:0.0 1413:0.0 1414:0.0 1564:5.18099928740412E-4 1565:3.45399952493608E-4 1566:0.0 1581:0.0 1582:0.0 1583:0.0 1584:0.0 1585:1.0 1586:8.6349988123402E-5 1587:0.0 1592:0.0 1595:0.0 1596:0.0 1597:0.0 1598:1.0 1599:8.6349988123402E-5 1600:0.0 1601:0.0 1602:0.0 1622:0.0 1624:0.0 1625:0.0 1626:1.0 1627:0.0 1643:0.0 1645:0.0 1648:0.0 1656:0.0 1664:0.0 1665:1.0 1677:0.0 1683:0.0 1684:0.0 1685:0.0 1687:0.0 1691:1.0 1692:0.0 1693:0.0 1696:0.0 1698:0.0 1701:0.0 1709:1.72699976246804E-4 1710:0.0 1712:2.15874970308505E-4 1727:0.0 1728:1.29524982185103E-4 1729:0.0 1758:0.0 1760:0.0 1768:0.0 1776:8.6349988123402E-5 1777:0.0 1778:0.0 1779:0.0 1780:0.0 1781:0.0 1782:0.0 1798:0.0 1799:1.0 1800:1.0 1801:8.6349988123402E-5 1835:0.0 1856:0.0 1857:0.0 1858:0.0 1859:0.0 1868:0.0
0.02770360378217992 1:0.0029967441223561764 2:0.0801629051566124 3:0.11312709003686905 4:0.056938137859106064 5:0.037459298968315125 6:0.037459298968315125 7:0.0 8:0.05543976277112961 9:0.036710113286972046 10:0.11612383276224136 11:0.1251140683889389 12:0.07117266952991486 13:0.10563522577285767 14:0.07566778361797333 15:0.14384371042251587 16:0.13635185360908508 17:0.026221510022878647 18:0.017980463802814484 19:1.0 20:0.15433230996131897 21:0.19703592360019684 22:0.05843650922179222 23:0.01947883702814579 24:0.037459298968315125 25:0.005244302097707987 26:0.11162871867418289 27:0.023224765434861183 28:0.006742673926055431 29:0.0 30:0.0 31:1.0 32:0.0 33:0.14684045314788818 34:0.010488604195415974 35:0.0 36:0.1318567395210266 37:0.0 38:0.023224765434861183 39:0.0 40:0.005244302097707987 41:0.006742673926055431 42:1.0 43:1.0 44:0.025472324341535568 45:0.008990231901407242 46:0.0022475579753518105 47:0.0014983720611780882 48:0.0 49:0.0014983720611780882 50:1.0 51:0.05543976277112961 52:0.02996744029223919 53:0.0 54:0.041205231100320816 55:0.004495115950703621 56:0.24273626506328583 57:0.0 58:0.0 59:0.0014983720611780882 60:0.0 61:0.041205231100320816 62:0.011237789876759052 63:0.07791534811258316 64:0.0022475579753518105 65:0.0 66:0.0 67:0.0 68:0.0 69:0.0 70:0.0014983720611780882 71:1.0 72:0.3034203350543976 73:1.0 74:0.0 75:0.0 76:1.0 77:0.0382084846496582 78:0.0022475579753518105 79:0.0029967441223561764 80:0.0022475579753518105 81:0.1850489377975464 82:0.006742673926055431 83:0.0 84:1.0 85:0.0037459300365298986 86:0.0 87:0.011986976489424706 88:0.0 89:0.041205231100320816 90:0.0 91:0.10863196849822998 92:1.0 93:0.0 94:1.0 95:0.14758963882923126 96:0.017980463802814484 97:0.005993488244712353 98:0.0 99:0.012736162170767784 100:0.02921825461089611 101:1.0 102:1.0 103:0.0037459300365298986 104:0.023224765434861183 105:0.04345278814435005 106:1.0 107:0.0 108:0.031465813517570496 109:0.005993488244712353 110:1.0 111:0.041954416781663895 112:0.0 113:0.0022475579753518105 114:0.014983720146119595 115:0.04495115950703621 116:0.018729649484157562 117:0.014983720146119595 118:0.008990231901407242 119:0.010488604195415974 120:0.05469057708978653 121:0.06742674112319946 122:0.07267104089260101 123:0.0 124:0.0 125:0.0 126:0.0 127:1.0 128:0.0 129:0.061433251947164536 130:0.0022475579753518105 131:0.0 132:0.006742673926055431 133:0.0022475579753518105 134:0.0022475579753518105 135:0.0 136:0.005244302097707987 137:0.0022475579753518105 138:0.008241046220064163 139:0.006742673926055431 140:0.0029967441223561764 141:0.008241046220064163 142:0.07117266952991486 143:0.07566778361797333 144:0.013485347852110863 145:0.017231278121471405 146:0.017231278121471405 147:0.005244302097707987 148:0.009739418514072895 149:1.0 150:0.0 151:1.0 152:0.03521174192428589 153:0.008990231901407242 154:0.0022475579753518105 155:0.0014983720611780882 156:0.004495115950703621 157:1.0 158:1.0 159:0.0 160:0.0014983720611780882 161:1.0 162:0.0014983720611780882 163:0.005244302097707987 164:0.0 165:0.0 166:0.006742673926055431 167:0.008990231901407242 168:1.0 169:0.0022475579753518105 170:0.0 171:0.0014983720611780882 172:0.021726394072175026 173:1.0 174:0.0022475579753518105 175:0.0 176:0.026221510022878647 177:0.0014983720611780882 178:0.0 179:0.0 180:0.02397395297884941 181:0.0029967441223561764 182:0.0 183:0.0 184:0.06892511248588562 185:0.0037459300365298986 186:0.007491860073059797 187:0.017980463802814484 188:0.0 189:0.0 190:0.0 191:0.0 192:0.10863196849822998 193:0.0906515046954155 194:0.008990231901407242 195:0.036710113286972046 196:1.0 197:0.0 198:0.0659283697605133 199:0.0 200:0.0 201:0.008990231901407242 202:0.0 203:1.0 204:0.008990231901407242 205:0.013485347852110863 206:0.005244302097707987 207:0.05843650922179222 208:0.0 209:0.0 210:1.0 211:1.0 212:0.011986976489424706 213:0.0 214:1.0 215:0.006742673926055431 216:0.010488604195415974 217:0.0 218:0.0 219:0.0764169692993164 220:0.1251140683889389 221:0.0037459300365298986 222:0.0014983720611780882 223:0.0022475579753518105 224:0.0 225:0.0 226:0.0 227:0.0 228:1.0 229:0.0 230:0.0 231:0.0 232:0.0 233:1.0 234:0.0022475579753518105 235:0.0 236:0.0 237:0.06517918407917023 238:0.0 239:0.12661243975162506 240:0.0014983720611780882 241:0.015732906758785248 242:0.046449530869722366 243:0.09589581191539764 244:0.02996744029223919 245:0.008241046220064163 246:0.05843650922179222 247:0.02397395297884941 248:0.005244302097707987 249:0.0037459300365298986 250:0.005244302097707987 251:0.0029967441223561764 252:0.0014983720611780882 253:0.0029967441223561764 254:0.005244302097707987 255:0.008241046220064163 256:0.009739418514072895 257:0.10188929736614227 258:0.0 259:0.046449530869722366 260:0.0 261:0.0022475579753518105 262:0.011986976489424706 263:0.014234534464776516 264:0.02996744029223919 265:0.12811081111431122 266:0.0 267:0.009739418514072895 268:0.0014983720611780882 269:0.008990231901407242 270:0.036710113286972046 271:0.0014983720611780882 272:0.005244302097707987 273:0.023224765434861183 274:0.020977208390831947 275:0.04270360246300697 276:0.016482092440128326 277:0.4517591595649719 278:0.005244302097707987 279:0.0022475579753518105 280:0.03446255624294281 281:0.005993488244712353 282:0.009739418514072895 283:0.0029967441223561764 284:0.0037459300365298986 285:0.014983720146119595 286:0.0 287:0.2397395223379135 288:0.0029967441223561764 289:1.0 290:0.017980463802814484 291:1.0 292:0.02472313866019249 293:0.23449522256851196 294:0.026221510022878647 295:0.009739418514072895 296:1.0 297:0.005244302097707987 298:1.0 299:0.03296418488025665 300:0.02921825461089611 301:0.05843650922179222 302:0.051693834364414215 303:0.026970695704221725 304:0.02921825461089611 305:0.011237789876759052 306:0.027719881385564804 307:0.02996744029223919 308:0.013485347852110863 309:0.037459298968315125 310:0.03596092760562897 311:0.005244302097707987 312:0.02996744029223919 313:0.037459298968315125 314:0.04420197382569313 315:0.0014983720611780882 316:0.02996744029223919 317:0.028469068929553032 318:0.05543976277112961 319:0.0037459300365298986 320:0.0 321:0.009739418514072895 322:0.0014983720611780882 323:0.0022475579753518105 324:0.008241046220064163 325:0.056188952177762985 326:1.0 327:0.0022475579753518105 328:1.0 329:0.0 330:0.005244302097707987 331:0.0 332:0.005244302097707987 333:0.0 334:1.0 335:0.0 336:0.028469068929553032 337:0.0 338:0.0022475579753518105 339:0.0014983720611780882 340:0.0 341:0.022475579753518105 342:0.04719872027635574 343:0.03296418488025665 344:0.021726394072175026 345:1.0 346:0.010488604195415974 1217:0.0 1218:0.0 1219:0.0 1220:0.0 1221:0.0 1222:0.0 1223:0.0 1224:0.0 1225:0.0 1226:0.0 1227:0.0 1228:0.0 1229:0.0 1230:1.0 1231:0.0 1232:0.0 1233:0.0 1234:0.0 1235:0.0 1236:0.0 1237:1.0 1238:0.0 1239:0.0 1240:1.0 1241:0.0 1242:0.0 1243:0.0 1302:0.0 1303:0.0 1304:0.0 1305:0.0 1306:0.0 1307:1.0 1308:1.0 1309:0.0 1335:0.0 1337:0.0 1339:0.0 1340:0.0 1341:0.0 1343:0.0 1346:0.0 1348:0.0 1349:0.0 1351:0.0 1356:0.0 1357:0.0 1359:0.0 1361:0.0 1363:0.0 1364:0.0 1366:0.0 1368:0.0 1371:0.0 1372:0.0 1374:0.0 1378:0.0 1379:0.0 1380:0.0 1381:0.0 1382:0.0 1383:0.0 1384:0.0 1387:0.0 1388:0.0 1389:0.0 1391:0.0 1392:0.0 1393:0.0 1394:0.0 1395:0.0 1396:0.0 1397:0.0 1398:0.0 1399:0.0 1400:0.0 1401:0.0 1402:0.0 1403:0.0 1405:0.0 1406:0.0 1407:0.0 1408:0.0 1409:0.0 1412:0.0 1413:0.0 1414:0.0 1564:0.0 1565:0.0 1566:0.0 1581:0.0 1582:0.0 1583:0.0 1584:0.0 1585:0.0 1586:0.0 1587:0.0 1592:0.0 1595:0.0 1596:0.0 1597:0.0 1598:0.0 1599:0.0 1600:0.0 1601:1.0 1602:1.0 1622:0.0 1624:0.0 1625:0.0 1626:0.0 1627:0.0 1643:0.0 1645:0.0 1648:0.0 1656:0.0 1664:0.0 1665:0.0 1677:0.0 1683:0.0 1684:0.0 1685:0.0 1687:0.0 1691:0.0 1692:0.0 1693:0.0 1696:0.0 1698:0.0 1701:0.0 1709:0.0 1710:0.0 1712:0.0 1727:0.0 1728:0.0 1729:0.0 1758:0.0 1760:0.0 1768:0.0 1776:0.0 1777:0.0 1778:0.0 1779:0.0 1780:0.0 1781:0.0 1782:0.0 1798:0.0 1799:0.0 1800:0.0 1801:0.0 1835:0.0 1856:0.0 1857:0.0 1858:0.0 1859:0.0 1868:0.0
-0.02770360378217992 1:0.0028237560763955116 2:0.09130144864320755 3:0.14824719727039337 4:0.07671204209327698 5:0.04141508787870407 6:0.03200256824493408 7:0.0 8:0.053651366382837296 9:0.028708187863230705 10:0.13695217669010162 11:0.12283339351415634 12:0.05318073928356171 13:0.14495281875133514 14:0.07765329629182816 15:0.09930209070444107 16:0.10447897762060165 17:0.0400032103061676 18:0.02541380561888218 19:1.0 20:0.14448218047618866 21:0.20707544684410095 22:0.05035698413848877 23:0.028708187863230705 24:0.022590048611164093 25:0.03906195983290672 26:0.09741958230733871 27:0.022119423374533653 28:0.005647512152791023 29:0.0 30:0.0 31:0.0 32:0.0 33:0.10965586453676224 34:0.014118780381977558 35:0.0018825040897354484 36:0.10024334490299225 37:0.0014118780381977558 38:0.023531300947070122 39:0.0 40:0.005176885984838009 41:0.0 42:1.0 43:1.0 44:0.028237560763955116 45:0.01647191122174263 46:0.005176885984838009 47:0.005176885984838009 48:1.0 49:9.412520448677242E-4 50:1.0 51:0.03670882806181908 52:0.0178837887942791 53:1.0 54:0.027766935527324677 55:0.009883146733045578 56:0.19013291597366333 57:0.0037650081794708967 58:0.0 59:0.0 60:1.0 61:0.019295666366815567 62:0.015530658885836601 63:0.06400513648986816 64:0.0028237560763955116 65:0.0 66:1.0 67:1.0 68:0.0 69:0.0 70:0.0 71:0.0018825040897354484 72:0.3915608525276184 73:9.412520448677242E-4 74:9.412520448677242E-4 75:0.002353130141273141 76:9.412520448677242E-4 77:0.03953258693218231 78:0.0 79:0.010824398137629032 80:1.0 81:0.20331044495105743 82:0.005647512152791023 83:0.0 84:0.0 85:0.0 86:0.0014118780381977558 87:0.005176885984838009 88:0.0 89:0.0710645318031311 90:0.0018825040897354484 91:0.14448218047618866 92:1.0 93:1.0 94:9.412520448677242E-4 95:0.09553708136081696 96:0.011295024305582047 97:0.0028237560763955116 98:0.0 99:0.012236276641488075 100:0.038591332733631134 101:0.004706260282546282 102:0.00894189439713955 103:0.08659518510103226 104:0.009412520565092564 105:0.046121351420879364 106:0.0014118780381977558 107:0.0 108:0.022590048611164093 109:0.01694253645837307 110:9.412520448677242E-4 111:0.021178171038627625 112:0.0 113:0.009412520565092564 114:0.019766293466091156 115:0.021648796275258064 116:0.014118780381977558 117:0.015530658885836601 118:0.012236276641488075 119:0.015530658885836601 120:0.037650082260370255 121:0.06353451311588287 122:0.08188892900943756 123:0.0 124:0.0 125:0.0 126:0.0 127:0.0037650081794708967 128:0.0 129:0.037179455161094666 130:9.412520448677242E-4 131:0.0 132:0.010353771969676018 133:1.0 134:0.002353130141273141 135:0.0 136:0.0075300163589417934 137:0.005176885984838009 138:0.0028237560763955116 139:0.006588764023035765 140:0.006118138320744038 141:0.010353771969676018 142:0.08235955238342285 143:0.0800064206123352 144:0.009883146733045578 145:0.0037650081794708967 146:0.006588764023035765 147:0.0028237560763955116 148:0.011295024305582047 149:0.0 150:0.0 151:1.0 152:0.019295666366815567 153:0.01600128412246704 154:0.0028237560763955116 155:0.005647512152791023 156:0.0018825040897354484 157:0.0028237560763955116 158:0.0 159:9.412520448677242E-4 160:9.412520448677242E-4 161:1.0 162:0.0014118780381977558 163:0.013648154214024544 164:0.0042356341145932674 165:0.0018825040897354484 166:0.010824398137629032 167:0.023531300947070122 168:0.0028237560763955116 169:0.002353130141273141 170:0.0 171:9.412520448677242E-4 172:0.027766935527324677 173:0.0 174:0.0018825040897354484 175:1.0 176:0.023531300947070122 177:1.0 178:1.0 179:0.0014118780381977558 180:0.0178837887942791 181:0.0037650081794708967 182:0.0014118780381977558 183:1.0 184:0.05929887667298317 185:0.0014118780381977558 186:0.0178837887942791 187:0.031061317771673203 188:0.0 189:0.004706260282546282 190:1.0 191:1.0 192:0.11718587577342987 193:0.09600770473480225 194:0.010353771969676018 195:0.029649438336491585 196:1.0 197:0.0 198:0.12706902623176575 199:0.0014118780381977558 200:0.0 201:0.009412520565092564 202:0.0018825040897354484 203:0.0018825040897354484 204:0.009412520565092564 205:0.022119423374533653 206:0.011765650473535061 207:0.06118138134479523 208:1.0 209:0.0 210:0.0014118780381977558 211:0.0014118780381977558 212:0.01694253645837307 213:1.0 214:1.0 215:0.0037650081794708967 216:0.010824398137629032 217:0.0 218:1.0 219:0.06635826826095581 220:0.08659518510103226 221:0.002353130141273141 222:1.0 223:0.0028237560763955116 224:0.0 225:1.0 226:9.412520448677242E-4 227:0.0 228:0.0014118780381977558 229:9.412520448677242E-4 230:1.0 231:0.002353130141273141 232:0.0 233:9.412520448677242E-4 234:1.0 235:1.0 236:1.0 237:0.03529695048928261 238:0.002353130141273141 239:0.09412520378828049 240:0.0014118780381977558 241:0.01741316355764866 242:0.04753322899341583 243:0.08094767481088638 244:0.019766293466091156 245:0.004706260282546282 246:0.04800385236740112 247:0.03529695048928261 248:0.0037650081794708967 249:0.005176885984838009 250:0.0037650081794708967 251:0.0037650081794708967 252:9.412520448677242E-4 253:0.002353130141273141 254:9.412520448677242E-4 255:0.006118138320744038 256:0.0018825040897354484 257:0.05647512152791023 258:0.0 259:0.0710645318031311 260:0.0 261:0.002353130141273141 262:0.0042356341145932674 263:0.009412520565092564 264:0.018825041130185127 265:0.0894189402461052 266:0.0 267:0.005176885984838009 268:0.0 269:0.00800064206123352 270:0.03341444581747055 271:0.002353130141273141 272:0.0028237560763955116 273:0.03247319534420967 274:0.020707543939352036 275:0.054592616856098175 276:0.01317752804607153 277:0.42921093106269836 278:0.010353771969676018 279:0.0028237560763955116 280:0.03906195983290672 281:0.006118138320744038 282:0.011765650473535061 283:0.005176885984838009 284:0.0032943820115178823 285:0.05082761123776436 286:0.0 287:0.20801669359207153 288:0.004706260282546282 289:1.0 290:0.020707543939352036 291:1.0 292:0.020707543939352036 293:0.25178492069244385 294:0.00800064206123352 295:0.012236276641488075 296:0.0032943820115178823 297:0.0075300163589417934 298:1.0 299:0.01647191122174263 300:0.038591332733631134 301:0.05129823461174965 302:0.045650724321603775 303:0.03435570001602173 304:0.056004494428634644 305:0.01600128412246704 306:0.027766935527324677 307:0.02541380561888218 308:0.01317752804607153 309:0.046591974794864655 310:0.05976950377225876 311:0.0037650081794708967 312:0.05647512152791023 313:0.04941573366522789 314:0.05082761123776436 315:0.0042356341145932674 316:0.03294382244348526 317:0.03906195983290672 318:0.06635826826095581 319:0.0032943820115178823 320:0.018825041130185127 321:0.01600128412246704 322:9.412520448677242E-4 323:0.0014118780381977558 324:0.0075300163589417934 325:0.06918202340602875 326:0.0 327:0.002353130141273141 328:0.0028237560763955116 329:1.0 330:0.0028237560763955116 331:0.0 332:9.412520448677242E-4 333:0.0 334:1.0 335:0.0 336:0.006118138320744038 337:0.0 338:0.0028237560763955116 339:0.002353130141273141 340:0.0 341:0.00894189439713955 342:0.04141508787870407 343:0.04141508787870407 344:0.0178837887942791 345:9.412520448677242E-4 346:0.008471268229186535 1217:0.0 1218:0.0 1219:1.0 1220:0.0 1221:0.0 1222:0.0 1223:0.0 1224:0.0 1225:0.004706260282546282 1226:0.0 1227:1.0 1228:0.0 1229:1.0 1230:9.412520448677242E-4 1231:0.0 1232:0.0 1233:0.0 1234:0.0 1235:0.0 1236:0.0 1237:1.0 1238:1.0 1239:0.0 1240:0.0014118780381977558 1241:0.0 1242:0.0 1243:0.0 1302:0.0 1303:0.0 1304:0.0 1305:0.0018825040897354484 1306:0.0037650081794708967 1307:0.0 1308:0.0 1309:0.0 1335:0.0 1337:0.0 1339:0.0 1340:0.0 1341:0.0 1343:0.0 1346:0.0 1348:0.0 1349:1.0 1351:0.0 1356:0.0 1357:0.0 1359:0.0 1361:0.0 1363:9.412520448677242E-4 1364:0.0 1366:0.0 1368:0.0 1371:0.0 1372:0.0 1374:1.0 1378:0.0 1379:0.0 1380:0.0 1381:0.0 1382:0.0 1383:0.0 1384:0.0 1387:0.0 1388:0.0 1389:0.0 1391:0.0 1392:0.0 1393:0.0 1394:0.0 1395:0.0 1396:0.0 1397:0.0 1398:0.0 1399:0.0 1400:0.0 1401:0.0 1402:0.0 1403:0.0 1405:0.0 1406:0.0 1407:0.0 1408:0.0 1409:0.0 1412:0.0 1413:0.0 1414:0.0 1564:0.0 1565:0.0 1566:0.0 1581:0.0 1582:0.0 1583:0.0 1584:0.0 1585:0.0 1586:0.0 1587:0.0 1592:0.0 1595:0.0 1596:0.0 1597:0.0 1598:0.0 1599:0.0 1600:0.0 1601:0.0 1602:1.0 1622:0.0 1624:0.0 1625:0.0 1626:0.0 1627:0.0 1643:0.0 1645:0.0 1648:0.0 1656:0.0 1664:0.0 1665:0.0 1677:0.0 1683:0.0 1684:0.0 1685:0.0 1687:0.0 1691:0.0 1692:0.0 1693:0.0 1696:0.0 1698:0.0 1701:0.0 1709:0.0 1710:0.0 1712:0.0 1727:0.0 1728:0.0 1729:0.0 1758:0.0 1760:0.0 1768:0.0 1776:0.0 1777:0.0 1778:0.0 1779:0.0 1780:0.0 1781:0.0 1782:0.0 1798:0.0 1799:0.0 1800:0.0 1801:0.0 1835:0.0 1856:1.0 1857:1.0 1858:1.0 1859:1.0 1868:0.0
0.02770360378217992 1:0.007696825545281172 2:0.09020679444074631 3:0.07573676109313965 4:0.0791233628988266 5:0.037868380546569824 6:0.027400698512792587 7:0.0 8:0.06526908278465271 9:0.031095175072550774 10:0.08959104865789413 11:0.10590831935405731 12:0.06403759121894836 13:0.10282959043979645 14:0.055725015699863434 15:0.11945473402738571 16:0.1400822252035141 17:0.024937715381383896 18:0.019395999610424042 19:0.001231492031365633 20:0.1717931479215622 21:0.22197644412517548 22:0.05079904943704605 23:0.028324317187070847 24:0.03909987211227417 25:0.02031962014734745 26:0.08250997215509415 27:0.01600939780473709 28:0.006465333513915539 29:0.0 30:0.0 31:0.0 32:0.0 33:0.12068622559309006 34:0.017548762261867523 35:0.9952118992805481 36:0.08959104865789413 37:0.0018472381634637713 38:0.03725263476371765 39:0.6634746193885803 40:0.010467682965099812 41:0.001231492031365633 42:0.0018472381634637713 43:0.33173730969429016 44:0.019088126718997955 45:0.009544063359498978 46:0.0015393650392070413 47:0.0033866032026708126 48:0.9952118992805481 49:0.9952118992805481 50:0.0 51:0.04002349078655243 52:0.016625143587589264 53:0.0 54:0.018164508044719696 55:0.004925968125462532 56:0.28786125779151917 57:0.0015393650392070413 58:0.33173730969429016 59:0.9952118992805481 60:0.0 61:0.0 62:0.02955581061542034 63:0.01231492031365633 64:0.062498223036527634 65:0.6634746193885803 66:0.33173730969429016 67:0.33173730969429016 68:0.0 69:0.001231492031365633 70:0.33173730969429016 71:0.33173730969429016 72:0.0 73:0.0033866032026708126 74:0.26815739274024963 75:0.9952118992805481 76:0.0 77:0.0021551111713051796 78:0.001231492031365633 79:0.030787302181124687 80:0.0 81:0.008004698902368546 82:0.6634746193885803 83:0.2626156806945801 84:0.0030787300784140825 85:0.0 86:0.0 87:0.9952118992805481 88:0.9952118992805481 89:0.0036944763269275427 90:0.0 91:0.036021143198013306 92:0.33173730969429016 93:0.13915860652923584 94:0.6634746193885803 95:0.001231492031365633 96:0.0015393650392070413 97:0.0994429886341095 98:0.013854285702109337 99:0.007388952653855085 100:0.9952118992805481 101:0.026784952729940414 102:0.04002349078655243 103:0.002462984062731266 104:0.007081079296767712 105:0.006773206405341625 106:0.008928317576646805 107:0.0338660329580307 108:0.0021551111713051796 109:0.6634746193885803 110:0.012007047422230244 111:0.005849587265402079 112:0.6634746193885803 113:0.042794350534677505 114:0.0015393650392070413 115:0.004925968125462532 116:0.01447003148496151 117:0.0270928256213665 118:0.010467682965099812 119:0.023090476170182228 120:0.008620444685220718 121:0.02216685749590397 122:0.02031962014734745 123:0.036021143198013306 124:0.059727367013692856 125:0.0 126:0.0 127:0.33173730969429016 128:0.0 129:0.0015393650392070413 130:0.0 131:0.03540539741516113 132:0.0030787300784140825 133:0.0 134:0.007081079296767712 135:0.6634746193885803 136:0.004925968125462532 137:0.0 138:0.006465333513915539 139:0.002462984062731266 140:0.010467682965099812 141:0.0018472381634637713 142:0.0036944763269275427 143:0.012622794136404991 144:0.07081079483032227 145:0.053877778351306915 146:0.010775555856525898 147:0.025861334055662155 148:0.008620444685220718 149:0.005849587265402079 150:0.010775555856525898 151:0.33173730969429016 152:0.0 153:0.0 154:0.05326203256845474 155:0.0237062219530344 156:0.004002349451184273 157:0.002462984062731266 158:0.005541714373975992 159:0.9952118992805481 160:0.0 161:0.0 162:0.33173730969429016 163:0.001231492031365633 164:0.001231492031365633 165:0.006465333513915539 166:0.6634746193885803 167:0.6634746193885803 168:0.008004698902368546 169:0.01354641281068325 170:0.0018472381634637713 171:0.009236190468072891 172:0.33173730969429016 173:0.0 174:0.0018472381634637713 175:0.024937715381383896 176:0.0 177:0.002770857186987996 178:0.0 179:0.031710922718048096 180:0.001231492031365633 181:0.6634746193885803 182:0.0015393650392070413 183:0.0 184:0.015701523050665855 185:0.005849587265402079 186:0.6634746193885803 187:0.0 188:0.07604463398456573 189:0.006773206405341625 190:0.007696825545281172 191:0.012007047422230244 192:0.0 193:0.0 194:0.0 195:0.6634746193885803 196:0.1696380376815796 197:0.09328552335500717 198:0.026477079838514328 199:0.038484126329422 200:0.9952118992805481 201:0.6634746193885803 202:0.06311396509408951 203:0.0015393650392070413 204:0.0 205:0.008620444685220718 206:0.0021551111713051796 207:0.004925968125462532 208:0.008312571793794632 209:0.012007047422230244 210:0.004925968125462532 211:0.04094711318612099 212:0.9952118992805481 213:0.33173730969429016 214:0.0033866032026708126 215:0.9952118992805481 216:0.017548762261867523 217:0.0 218:0.0 219:0.6634746193885803 220:0.0033866032026708126 221:0.006465333513915539 222:0.0 223:0.9952118992805481 224:0.07388952374458313 225:0.10252171754837036 226:0.005233841482549906 227:0.33173730969429016 228:0.002462984062731266 229:0.0 230:0.6634746193885803 231:0.0 232:0.0 233:0.6634746193885803 234:0.0 235:0.0015393650392070413 236:0.001231492031365633 237:0.0 238:0.6634746193885803 239:0.004618095234036446 240:0.0 241:0.6634746193885803 242:0.6634746193885803 243:0.04648882523179054 244:0.33173730969429016 245:0.09390126913785934 246:0.0036944763269275427 247:0.01354641281068325 248:0.03756050765514374 249:0.10190597176551819 250:0.023398349061608315 251:0.004925968125462532 252:0.0520305410027504 253:0.024014094844460487 254:0.004002349451184273 255:0.008004698902368546 256:0.0030787300784140825 257:0.0018472381634637713 258:0.001231492031365633 259:0.002770857186987996 260:0.002462984062731266 261:0.017548762261867523 262:0.33173730969429016 263:0.04556520655751228 264:0.0 265:0.05233841389417648 266:0.0 267:0.02031962014734745 268:0.04094711318612099 269:0.010159810073673725 270:0.0237062219530344 271:0.07081079483032227 272:0.010775555856525898 273:0.01785663515329361 274:0.006157460156828165 275:0.007081079296767712 276:0.03140304610133171 277:0.004310222342610359 278:0.0021551111713051796 279:0.027400698512792587 280:0.023398349061608315 281:0.05356990545988083 282:0.020011745393276215 283:0.4002349376678467 284:0.014162158593535423 285:0.007696825545281172 286:0.0677320659160614 287:0.005233841482549906 288:0.009851936250925064 289:0.007696825545281172 290:0.005233841482549906 291:0.018164508044719696 292:0.0 293:0.2866297662258148 294:0.006157460156828165 295:0.0015393650392070413 296:0.06927143037319183 297:0.6634746193885803 298:0.02278260327875614 299:0.26784953474998474 300:0.001231492031365633 301:0.01231492031365633 302:0.0021551111713051796 303:0.009236190468072891 304:0.0021551111713051796 305:0.013854285702109337 306:0.0406392402946949 307:0.08250997215509415 308:0.05233841389417648 309:0.02894006296992302 310:0.0406392402946949 311:0.012622794136404991 312:0.034481778740882874 313:0.024014094844460487 314:0.020935365930199623 315:0.03663688898086548 316:0.043717969208955765 317:0.03478965163230896 318:0.08281784504652023 319:0.029863683506846428 320:0.04125498607754707 321:0.004925968125462532 322:0.017240889370441437 323:0.031710922718048096 324:0.05695650726556778 325:0.0033866032026708126 326:0.0015393650392070413 327:0.015393651090562344 328:0.0015393650392070413 329:0.0 330:0.11175790429115295 331:0.04925968125462532 332:0.33173730969429016 333:0.0018472381634637713 334:0.33173730969429016 335:0.002462984062731266 336:0.0021551111713051796 337:0.0 338:0.0030787300784140825 339:0.0 340:0.33173730969429016 341:0.0 342:0.002462984062731266 343:0.33173730969429016 344:0.01139130163937807 345:0.0015393650392070413 346:0.0 347:0.01878025382757187 348:0.03725263476371765 349:0.032634541392326355 350:0.01139130163937807 351:0.0015393650392070413 352:0.006465333513915539 1205:0.33173730969429016 1206:0.33173730969429016 1207:0.0 1208:0.6634746193885803 1209:0.0 1210:0.0 1211:0.0 1212:0.0 1213:0.0 1214:0.001231492031365633 1215:0.33173730969429016 1216:0.0 1217:0.0 1218:0.0 1219:0.0 1220:0.0 1221:0.0 1222:0.0 1223:0.33173730969429016 1224:0.6634746193885803 1225:0.6634746193885803 1226:0.33173730969429016 1227:0.0 1228:0.0 1229:0.0 1288:0.0 1289:0.33173730969429016 1290:0.0 1291:0.0 1292:0.0 1293:0.0 1294:0.0 1295:0.0 1322:0.0 1324:0.33173730969429016 1326:0.0 1327:0.0 1328:0.6634746193885803 1330:0.6634746193885803 1334:0.0 1335:0.33173730969429016 1337:0.0 1342:0.0 1343:0.0 1345:0.0 1347:0.0 1349:0.33173730969429016 1351:0.0 1353:0.0 1356:0.0 1357:0.0 1359:0.0 1362:0.0 1363:0.0 1364:0.0 1365:0.0 1366:0.0 1367:0.0 1368:0.0 1371:0.0 1372:0.0 1373:0.0 1375:0.0 1376:0.0 1377:0.0 1378:0.0 1379:0.0 1380:0.0 1381:0.0 1382:0.0 1383:0.0 1384:0.0 1385:0.0 1386:0.0 1387:0.0 1389:0.0 1390:0.0 1391:0.0 1392:0.0 1393:0.0 1396:0.0 1397:0.33173730969429016 1398:0.0 1543:0.33173730969429016 1544:0.0 1545:0.0 1546:0.0 1559:0.0 1562:0.0 1563:0.0 1564:0.0 1565:0.0 1566:0.0 1567:0.0 1568:0.0 1569:0.0 1570:0.0 1587:0.0 1591:0.0 1592:0.0 1593:0.0 1594:0.33173730969429016 1595:0.0 1596:0.0 1614:0.0 1615:0.0 1617:0.33173730969429016 1626:0.0 1627:0.0 1635:0.0 1636:0.0 1642:0.0 1643:0.0 1644:0.0 1645:0.0 1649:0.0 1650:0.0 1652:0.0 1663:0.0 1665:0.0 1667:0.0 1668:0.0 1669:0.0 1687:0.0 1690:0.0 1709:0.0 1717:0.0 1720:0.33173730969429016 1721:0.0 1722:0.0 1723:0.0 1724:0.0 1725:0.0 1726:0.0 1727:0.0 1728:0.0 1742:0.0 1743:0.0 1744:0.0 1745:0.0 1750:0.0 1752:0.0 1764:0.0 1765:0.0 1766:0.0 1767:0.0 1776:0.0 1777:0.0
-0.02770360378217992 1:0.0068649593740701675 2:0.09919866174459457 3:0.12803149223327637 4:0.08203626424074173 5:0.03260855749249458 6:0.037414029240608215 7:0.0 8:0.05800890922546387 9:0.037070780992507935 10:0.10915285348892212 11:0.13523970544338226 12:0.05869540199637413 13:0.16269953548908234 14:0.0538899302482605 15:0.11910704523324966 16:0.10194464772939682 17:0.0394735187292099 18:0.02299761399626732 19:0.0 20:0.15205885469913483 21:0.18638364970684052 22:0.05800890922546387 23:0.032951805740594864 24:0.03604103624820709 25:0.018535390496253967 26:0.09816891700029373 27:0.037070780992507935 28:0.0068649593740701675 29:6.864959723316133E-4 30:0.0 31:0.0 32:1.0 33:0.11807730048894882 34:0.013043423183262348 35:0.0 36:0.09988515824079514 37:0.0017162398435175419 38:0.037414029240608215 39:1.0 40:0.008581199683248997 41:1.0 42:0.0017162398435175419 43:6.864959723316133E-4 44:0.03810052573680878 45:0.017848894000053406 46:0.003775727702304721 47:0.0034324796870350838 48:0.0 49:0.0 50:0.0013729919446632266 51:0.04977095499634743 52:0.01990838162600994 53:0.0 54:0.04221950098872185 55:0.004118975717574358 56:0.24301956593990326 57:0.0017162398435175419 58:0.0 59:1.0 60:1.0 61:0.02814633399248123 62:0.01201367937028408 63:0.08752823621034622 64:0.002059487858787179 65:0.0 66:0.0 67:0.0 68:0.0 69:1.0 70:6.864959723316133E-4 71:1.0 72:0.324369341135025 73:1.0 74:0.002402735874056816 75:0.002059487858787179 76:6.864959723316133E-4 77:0.04427899047732353 78:0.0013729919446632266 79:0.008924447000026703 80:1.0 81:0.19118912518024445 82:0.0068649593740701675 83:6.864959723316133E-4 84:1.0 85:0.0013729919446632266 86:1.0 87:0.013043423183262348 88:1.0 89:0.04290599748492241 90:0.0013729919446632266 91:0.09988515824079514 92:1.0 93:6.864959723316133E-4 94:0.0010297439293935895 95:0.10640687495470047 96:0.013729918748140335 97:0.005148719530552626 98:1.0 99:0.015102910809218884 100:0.036727532744407654 101:0.0010297439293935895 102:0.020594878122210503 103:0.005148719530552626 104:0.021967871114611626 105:0.05011420324444771 106:6.864959723316133E-4 107:1.0 108:0.029862573370337486 109:0.005148719530552626 110:1.0 111:0.03535453975200653 112:1.0 113:0.002745983889326453 114:0.011327182874083519 115:0.030205821618437767 116:0.009610943496227264 117:0.017505647614598274 118:0.006178463343530893 119:0.01613265462219715 120:0.03192206099629402 121:0.05835215747356415 122:0.07379831373691559 123:0.0 124:0.0 125:0.0 126:0.0 127:0.0017162398435175419 128:0.0 129:0.03157881274819374 130:0.002059487858787179 131:0.0 132:0.013043423183262348 133:0.0017162398435175419 134:0.002059487858787179 135:0.0 136:0.008924447000026703 137:0.0030892316717654467 138:0.005491967778652906 139:0.007894703187048435 140:0.0017162398435175419 141:0.016819151118397713 142:0.07963352650403976 143:0.08890122175216675 144:0.009267695248126984 145:0.0034324796870350838 146:0.0068649593740701675 147:0.0034324796870350838 148:0.005491967778652906 149:1.0 150:1.0 151:1.0 152:0.02780308574438095 153:0.015446159057319164 154:0.003775727702304721 155:0.003775727702304721 156:0.0034324796870350838 157:6.864959723316133E-4 158:0.0 159:1.0 160:1.0 161:0.0030892316717654467 162:6.864959723316133E-4 163:0.01578940637409687 164:0.0013729919446632266 165:6.864959723316133E-4 166:0.007894703187048435 167:0.015102910809218884 168:0.0017162398435175419 169:0.0013729919446632266 170:6.864959723316133E-4 171:1.0 172:0.04290599748492241 173:1.0 174:0.0010297439293935895 175:6.864959723316133E-4 176:0.037414029240608215 177:0.0 178:6.864959723316133E-4 179:0.0 180:0.015102910809218884 181:0.005148719530552626 182:1.0 183:1.0 184:0.061441387981176376 185:0.0034324796870350838 186:0.017848894000053406 187:0.020938126370310783 188:0.0 189:0.0013729919446632266 190:0.0 191:0.0 192:0.15892380475997925 193:0.11807730048894882 194:0.02368411049246788 195:0.026773342862725258 196:6.864959723316133E-4 197:0.0 198:0.09199045598506927 199:6.864959723316133E-4 200:0.0 201:0.010297439061105251 202:0.0017162398435175419 203:6.864959723316133E-4 204:0.008581199683248997 205:0.033638302236795425 206:0.011327182874083519 207:0.05526292324066162 208:0.0 209:0.0 210:6.864959723316133E-4 211:0.0017162398435175419 212:0.03260855749249458 213:1.0 214:0.0030892316717654467 215:0.0044622235000133514 216:0.01613265462219715 217:1.0 218:1.0 219:0.07585780322551727 220:0.10675012320280075 221:6.864959723316133E-4 222:0.0 223:0.007894703187048435 224:0.0 225:0.0 226:0.0010297439293935895 227:0.0 228:0.0010297439293935895 229:0.0013729919446632266 230:0.0 231:0.0013729919446632266 232:1.0 233:0.0017162398435175419 234:0.0 235:0.0017162398435175419 236:6.864959723316133E-4 237:0.04771146923303604 238:1.0 239:0.12597200274467468 240:0.002059487858787179 241:0.025400349870324135 242:0.037757277488708496 243:0.07654429972171783 244:0.033295053988695145 245:0.0030892316717654467 246:0.06933609396219254 247:0.037414029240608215 248:0.0034324796870350838 249:0.0044622235000133514 250:0.004118975717574358 251:0.0030892316717654467 252:0.02745983749628067 253:0.002402735874056816 254:0.0017162398435175419 255:0.008581199683248997 256:0.0013729919446632266 257:0.06693335622549057 258:6.864959723316133E-4 259:0.07242532074451447 260:0.0 261:0.0 262:0.007894703187048435 263:0.020938126370310783 264:0.0233408622443676 265:0.09988515824079514 266:0.0 267:0.003775727702304721 268:0.002402735874056816 269:0.005148719530552626 270:0.029176078736782074 271:0.002402735874056816 272:0.004805471748113632 273:0.01922188699245453 274:0.018535390496253967 275:0.03810052573680878 276:0.013729918748140335 277:0.43867090344429016 278:0.009267695248126984 279:0.004805471748113632 280:0.044965483248233795 281:0.004805471748113632 282:0.011327182874083519 283:0.0013729919446632266 284:0.0030892316717654467 285:0.012356926687061787 286:0.0 287:0.20423254370689392 288:0.0068649593740701675 289:1.0 290:0.01922188699245453 291:6.864959723316133E-4 292:0.024370606988668442 293:0.25915223360061646 294:0.01201367937028408 295:0.014759662561118603 296:0.002402735874056816 297:0.007208207622170448 298:0.002059487858787179 299:0.036727532744407654 300:0.041189756244421005 301:0.05080069974064827 302:0.0645306184887886 303:0.030549069866538048 304:0.05148719623684883 305:0.015446159057319164 306:0.020938126370310783 307:0.03569778800010681 308:0.017162399366497993 309:0.044622235000133514 310:0.0628143772482872 311:0.007894703187048435 312:0.040503259748220444 313:0.044965483248233795 314:0.06624685972929001 315:0.006178463343530893 316:0.03604103624820709 317:0.03089231811463833 318:0.061441387981176376 319:0.0034324796870350838 320:0.004805471748113632 321:0.012700174935162067 322:0.0013729919446632266 323:6.864959723316133E-4 324:0.010297439061105251 325:0.07860378921031952 326:1.0 327:0.0013729919446632266 328:0.007894703187048435 329:0.004805471748113632 330:0.0030892316717654467 331:0.0058352155610919 332:0.008581199683248997 333:6.864959723316133E-4 334:0.0 335:6.864959723316133E-4 336:0.003775727702304721 337:0.002402735874056816 338:0.01990838162600994 339:0.002059487858787179 340:0.0 341:0.013386671431362629 342:0.04290599748492241 343:0.04736822098493576 344:0.026773342862725258 345:6.864959723316133E-4 346:0.004118975717574358 1217:0.0 1218:0.0 1219:0.0 1220:0.0 1221:1.0 1222:0.0 1223:0.0 1224:0.0 1225:0.0 1226:1.0 1227:0.0 1228:0.0 1229:0.0 1230:1.0 1231:0.0 1232:1.0 1233:0.0 1234:0.0 1235:1.0 1236:0.0 1237:0.0 1238:1.0 1239:0.0 1240:1.0 1241:0.0 1242:0.0013729919446632266 1243:0.0017162398435175419 1302:0.0 1303:0.0 1304:0.0 1305:6.864959723316133E-4 1306:0.0017162398435175419 1307:0.0 1308:0.0044622235000133514 1309:0.0 1335:0.0 1337:0.0 1339:0.0 1340:0.0 1341:1.0 1343:1.0 1346:0.0 1348:0.0 1349:0.0 1351:0.0 1356:0.0 1357:0.0 1359:0.0 1361:1.0 1363:0.0 1364:0.0 1366:0.0 1368:0.0 1371:0.0 1372:0.0 1374:0.0 1378:0.0 1379:0.0 1380:0.0 1381:0.0 1382:0.0 1383:0.0 1384:0.0 1387:0.0 1388:0.0 1389:0.0 1391:0.0 1392:0.0 1393:0.0 1394:0.0 1395:0.0 1396:0.0 1397:0.0 1398:6.864959723316133E-4 1399:0.0 1400:0.0 1401:0.0 1402:0.0 1403:0.0 1405:0.0 1406:0.0 1407:0.0 1408:0.0 1409:0.0 1412:6.864959723316133E-4 1413:0.005491967778652906 1414:1.0 1564:0.0 1565:0.0 1566:0.0 1581:1.0 1582:0.0 1583:0.0 1584:0.0 1585:0.0 1586:0.0 1587:0.0 1592:0.0 1595:0.0 1596:0.0 1597:0.0 1598:0.0 1599:0.0 1600:0.0 1601:0.0 1602:0.0 1622:0.0 1624:0.0 1625:0.0 1626:0.0 1627:0.0 1643:0.0 1645:0.0 1648:0.0017162398435175419 1656:0.0 1664:0.0 1665:0.0 1677:0.0 1683:0.0 1684:0.0 1685:1.0 1687:0.0 1691:0.0 1692:0.0 1693:0.0 1696:0.0 1698:0.0 1701:1.0 1709:0.0 1710:0.0 1712:0.0 1727:0.0 1728:0.0 1729:0.0 1758:0.0 1760:0.0 1768:0.0 1776:0.0 1777:0.0 1778:0.0 1779:0.0 1780:0.0 1781:0.0 1782:0.0 1798:0.0 1799:0.0 1800:0.0 1801:0.0 1835:0.0 1856:0.0 1857:0.0 1858:0.0 1859:0.0 1868:0.0
